<?xml version="1.0"?>
<opencv_storage>
<cascade>
  <stageType>BOOST</stageType>
  <featureType>HAAR</featureType>
  <height>20</height>
  <width>20</width>
  <stageParams>
    <boostType>GAB</boostType>
    <minHitRate>9.9500000476837158e-01</minHitRate>
    <maxFalseAlarm>5.0000000000000000e-01</maxFalseAlarm>
    <weightTrimRate>9.4999999999999996e-01</weightTrimRate>
    <maxDepth>1</maxDepth>
    <maxWeakCount>100</maxWeakCount></stageParams>
  <featureParams>
    <maxCatCount>0</maxCatCount>
    <featSize>1</featSize>
    <mode>BASIC</mode></featureParams>
  <stageNum>9</stageNum>
  <stages>
    <!-- stage 0 -->
    <_>
      <maxWeakCount>2</maxWeakCount>
      <stageThreshold>-2.2956757247447968e-01</stageThreshold>
      <weakClassifiers>
        <_>
          <internalNodes>
            0 -1 18 -2.8422921895980835e-02</internalNodes>
          <leafValues>
            8.0902671813964844e-01 -9.1311341524124146e-01</leafValues></_>
        <_>
          <internalNodes>
            0 -1 10 5.5341646075248718e-02</internalNodes>
          <leafValues>
            -8.0253851413726807e-01 6.8354588747024536e-01</leafValues></_></weakClassifiers></_>
    <!-- stage 1 -->
    <_>
      <maxWeakCount>4</maxWeakCount>
      <stageThreshold>-4.2183583974838257e-01</stageThreshold>
      <weakClassifiers>
        <_>
          <internalNodes>
            0 -1 20 -1.8182441592216492e-02</internalNodes>
          <leafValues>
            6.7776829004287720e-01 -8.9260387420654297e-01</leafValues></_>
        <_>
          <internalNodes>
            0 -1 40 2.2843850776553154e-02</internalNodes>
          <leafValues>
            -6.3496476411819458e-01 7.2023612260818481e-01</leafValues></_>
        <_>
          <internalNodes>
            0 -1 28 1.5414850786328316e-02</internalNodes>
          <leafValues>
            -9.3913727998733521e-01 4.5221954584121704e-01</leafValues></_>
        <_>
          <internalNodes>
            0 -1 3 4.7393850982189178e-02</internalNodes>
          <leafValues>
            -5.3704649209976196e-01 6.5351319313049316e-01</leafValues></_></weakClassifiers></_>
    <!-- stage 2 -->
    <_>
      <maxWeakCount>5</maxWeakCount>
      <stageThreshold>-7.4165147542953491e-01</stageThreshold>
      <weakClassifiers>
        <_>
          <internalNodes>
            0 -1 55 2.0421359688043594e-02</internalNodes>
          <leafValues>
            -5.6546765565872192e-01 7.3504823446273804e-01</leafValues></_>
        <_>
          <internalNodes>
            0 -1 13 -1.1084057390689850e-02</internalNodes>
          <leafValues>
            5.1955372095108032e-01 -6.4621478319168091e-01</leafValues></_>
        <_>
          <internalNodes>
            0 -1 45 -4.7942232340574265e-03</internalNodes>
          <leafValues>
            3.3789837360382080e-01 -9.0654295682907104e-01</leafValues></_>
        <_>
          <internalNodes>
            0 -1 23 -2.0766369998455048e-02</internalNodes>
          <leafValues>
            5.3490209579467773e-01 -5.5754214525222778e-01</leafValues></_>
        <_>
          <internalNodes>
            0 -1 33 1.7917543649673462e-02</internalNodes>
          <leafValues>
            -3.9390531182289124e-01 6.8967473506927490e-01</leafValues></_></weakClassifiers></_>
    <!-- stage 3 -->
    <_>
      <maxWeakCount>8</maxWeakCount>
      <stageThreshold>-1.3682773113250732e+00</stageThreshold>
      <weakClassifiers>
        <_>
          <internalNodes>
            0 -1 61 2.3453298956155777e-02</internalNodes>
          <leafValues>
            -2.5230917334556580e-01 8.2644289731979370e-01</leafValues></_>
        <_>
          <internalNodes>
            0 -1 42 -1.6045052558183670e-02</internalNodes>
          <leafValues>
            5.5280154943466187e-01 -5.0870573520660400e-01</leafValues></_>
        <_>
          <internalNodes>
            0 -1 0 8.7451860308647156e-02</internalNodes>
          <leafValues>
            -3.7772673368453979e-01 6.4639222621917725e-01</leafValues></_>
        <_>
          <internalNodes>
            0 -1 48 8.7701193988323212e-03</internalNodes>
          <leafValues>
            -8.9603507518768311e-01 2.8264197707176208e-01</leafValues></_>
        <_>
          <internalNodes>
            0 -1 24 -1.1849972419440746e-02</internalNodes>
          <leafValues>
            5.8978873491287231e-01 -3.7737971544265747e-01</leafValues></_>
        <_>
          <internalNodes>
            0 -1 29 -3.7377900443971157e-03</internalNodes>
          <leafValues>
            3.0098536610603333e-01 -6.7922323942184448e-01</leafValues></_>
        <_>
          <internalNodes>
            0 -1 51 -2.5819200091063976e-03</internalNodes>
          <leafValues>
            3.0204910039901733e-01 -6.2565559148788452e-01</leafValues></_>
        <_>
          <internalNodes>
            0 -1 19 -1.8773475894704461e-03</internalNodes>
          <leafValues>
            -9.1528344154357910e-01 1.8987223505973816e-01</leafValues></_></weakClassifiers></_>
    <!-- stage 4 -->
    <_>
      <maxWeakCount>9</maxWeakCount>
      <stageThreshold>-1.6652406454086304e+00</stageThreshold>
      <weakClassifiers>
        <_>
          <internalNodes>
            0 -1 59 1.8811248242855072e-02</internalNodes>
          <leafValues>
            -3.4143519401550293e-01 7.5396823883056641e-01</leafValues></_>
        <_>
          <internalNodes>
            0 -1 1 1.7081491649150848e-01</internalNodes>
          <leafValues>
            -4.6745982766151428e-01 5.5847859382629395e-01</leafValues></_>
        <_>
          <internalNodes>
            0 -1 46 8.5375048220157623e-03</internalNodes>
          <leafValues>
            -4.8540213704109192e-01 4.5515733957290649e-01</leafValues></_>
        <_>
          <internalNodes>
            0 -1 39 -1.1211566627025604e-02</internalNodes>
          <leafValues>
            6.2181925773620605e-01 -3.1994348764419556e-01</leafValues></_>
        <_>
          <internalNodes>
            0 -1 30 1.8322183750569820e-03</internalNodes>
          <leafValues>
            -6.7856705188751221e-01 2.6238825917243958e-01</leafValues></_>
        <_>
          <internalNodes>
            0 -1 52 -3.9566750638186932e-03</internalNodes>
          <leafValues>
            3.6784633994102478e-01 -4.4670754671096802e-01</leafValues></_>
        <_>
          <internalNodes>
            0 -1 26 1.8257407471537590e-02</internalNodes>
          <leafValues>
            1.8450719118118286e-01 -7.9019880294799805e-01</leafValues></_>
        <_>
          <internalNodes>
            0 -1 17 5.6544301332905889e-04</internalNodes>
          <leafValues>
            -8.8142967224121094e-01 1.9324666261672974e-01</leafValues></_>
        <_>
          <internalNodes>
            0 -1 64 -3.8806214928627014e-02</internalNodes>
          <leafValues>
            5.6051105260848999e-01 -2.9566702246665955e-01</leafValues></_></weakClassifiers></_>
    <!-- stage 5 -->
    <_>
      <maxWeakCount>9</maxWeakCount>
      <stageThreshold>-1.2092783451080322e+00</stageThreshold>
      <weakClassifiers>
        <_>
          <internalNodes>
            0 -1 58 1.0238380171358585e-02</internalNodes>
          <leafValues>
            -3.4163933992385864e-01 6.7932772636413574e-01</leafValues></_>
        <_>
          <internalNodes>
            0 -1 61 3.8137525320053101e-02</internalNodes>
          <leafValues>
            -2.5490143895149231e-01 7.1810412406921387e-01</leafValues></_>
        <_>
          <internalNodes>
            0 -1 5 1.1359317228198051e-02</internalNodes>
          <leafValues>
            -6.5868228673934937e-01 3.1014811992645264e-01</leafValues></_>
        <_>
          <internalNodes>
            0 -1 44 7.1567082777619362e-03</internalNodes>
          <leafValues>
            -8.0451440811157227e-01 2.0830735564231873e-01</leafValues></_>
        <_>
          <internalNodes>
            0 -1 6 6.2516272068023682e-02</internalNodes>
          <leafValues>
            -3.3472046256065369e-01 6.0119915008544922e-01</leafValues></_>
        <_>
          <internalNodes>
            0 -1 41 -1.3221595436334610e-03</internalNodes>
          <leafValues>
            1.9445204734802246e-01 -8.5171300172805786e-01</leafValues></_>
        <_>
          <internalNodes>
            0 -1 54 -1.2993639102205634e-03</internalNodes>
          <leafValues>
            -8.6970806121826172e-01 1.5617012977600098e-01</leafValues></_>
        <_>
          <internalNodes>
            0 -1 15 1.0313214361667633e-01</internalNodes>
          <leafValues>
            1.8515670299530029e-01 -8.1008285284042358e-01</leafValues></_>
        <_>
          <internalNodes>
            0 -1 22 -3.0814545229077339e-02</internalNodes>
          <leafValues>
            4.7557815909385681e-01 -3.3701187372207642e-01</leafValues></_></weakClassifiers></_>
    <!-- stage 6 -->
    <_>
      <maxWeakCount>11</maxWeakCount>
      <stageThreshold>-1.1605455875396729e+00</stageThreshold>
      <weakClassifiers>
        <_>
          <internalNodes>
            0 -1 53 1.5712832100689411e-03</internalNodes>
          <leafValues>
            -3.2290959358215332e-01 6.5203034877777100e-01</leafValues></_>
        <_>
          <internalNodes>
            0 -1 2 3.8394238799810410e-02</internalNodes>
          <leafValues>
            -3.2250994443893433e-01 6.1996942758560181e-01</leafValues></_>
        <_>
          <internalNodes>
            0 -1 60 1.9954964518547058e-02</internalNodes>
          <leafValues>
            -3.9917540550231934e-01 4.7448459267616272e-01</leafValues></_>
        <_>
          <internalNodes>
            0 -1 34 3.1783096492290497e-02</internalNodes>
          <leafValues>
            -2.7783629298210144e-01 6.2422174215316772e-01</leafValues></_>
        <_>
          <internalNodes>
            0 -1 36 -1.0848205536603928e-02</internalNodes>
          <leafValues>
            2.1350373327732086e-01 -8.0987626314163208e-01</leafValues></_>
        <_>
          <internalNodes>
            0 -1 47 6.2704947777092457e-04</internalNodes>
          <leafValues>
            -4.4209033250808716e-01 3.4610652923583984e-01</leafValues></_>
        <_>
          <internalNodes>
            0 -1 56 1.4815641567111015e-02</internalNodes>
          <leafValues>
            1.6486732661724091e-01 -8.3813792467117310e-01</leafValues></_>
        <_>
          <internalNodes>
            0 -1 32 -9.6995607018470764e-03</internalNodes>
          <leafValues>
            4.0394818782806396e-01 -3.6509490013122559e-01</leafValues></_>
        <_>
          <internalNodes>
            0 -1 43 -3.8472088053822517e-03</internalNodes>
          <leafValues>
            1.7952989041805267e-01 -8.3521997928619385e-01</leafValues></_>
        <_>
          <internalNodes>
            0 -1 57 -6.0974818188697100e-04</internalNodes>
          <leafValues>
            2.7385622262954712e-01 -4.5869651436805725e-01</leafValues></_>
        <_>
          <internalNodes>
            0 -1 12 -2.3370985873043537e-03</internalNodes>
          <leafValues>
            -9.2169374227523804e-01 1.3731370866298676e-01</leafValues></_></weakClassifiers></_>
    <!-- stage 7 -->
    <_>
      <maxWeakCount>9</maxWeakCount>
      <stageThreshold>-1.0729923248291016e+00</stageThreshold>
      <weakClassifiers>
        <_>
          <internalNodes>
            0 -1 62 1.6789268702268600e-02</internalNodes>
          <leafValues>
            -1.3649564981460571e-01 7.3212820291519165e-01</leafValues></_>
        <_>
          <internalNodes>
            0 -1 35 1.1960818432271481e-02</internalNodes>
          <leafValues>
            -4.9354490637779236e-01 4.0788266062736511e-01</leafValues></_>
        <_>
          <internalNodes>
            0 -1 7 2.5646202266216278e-03</internalNodes>
          <leafValues>
            -7.2132670879364014e-01 2.5315892696380615e-01</leafValues></_>
        <_>
          <internalNodes>
            0 -1 9 9.9735613912343979e-03</internalNodes>
          <leafValues>
            2.5465279817581177e-01 -7.1452480554580688e-01</leafValues></_>
        <_>
          <internalNodes>
            0 -1 50 1.2007403187453747e-02</internalNodes>
          <leafValues>
            -7.9728209972381592e-01 1.7318418622016907e-01</leafValues></_>
        <_>
          <internalNodes>
            0 -1 4 2.8540141880512238e-02</internalNodes>
          <leafValues>
            -4.5540553331375122e-01 3.2685258984565735e-01</leafValues></_>
        <_>
          <internalNodes>
            0 -1 21 -1.7712318804115057e-03</internalNodes>
          <leafValues>
            -9.0025597810745239e-01 1.3928611576557159e-01</leafValues></_>
        <_>
          <internalNodes>
            0 -1 38 -1.2400902807712555e-02</internalNodes>
          <leafValues>
            -8.9213883876800537e-01 1.0893536359071732e-01</leafValues></_>
        <_>
          <internalNodes>
            0 -1 25 1.1812953650951385e-01</internalNodes>
          <leafValues>
            1.2676076591014862e-01 -8.4679186344146729e-01</leafValues></_></weakClassifiers></_>
    <!-- stage 8 -->
    <_>
      <maxWeakCount>9</maxWeakCount>
      <stageThreshold>-9.2155903577804565e-01</stageThreshold>
      <weakClassifiers>
        <_>
          <internalNodes>
            0 -1 14 9.0904384851455688e-03</internalNodes>
          <leafValues>
            -6.6756755113601685e-01 5.3031915426254272e-01</leafValues></_>
        <_>
          <internalNodes>
            0 -1 16 1.8427941948175430e-02</internalNodes>
          <leafValues>
            2.8853937983512878e-01 -7.6834332942962646e-01</leafValues></_>
        <_>
          <internalNodes>
            0 -1 63 3.1807266175746918e-02</internalNodes>
          <leafValues>
            -3.5045468807220459e-01 5.4700720310211182e-01</leafValues></_>
        <_>
          <internalNodes>
            0 -1 37 8.4740603342652321e-03</internalNodes>
          <leafValues>
            2.0763446390628815e-01 -8.6352771520614624e-01</leafValues></_>
        <_>
          <internalNodes>
            0 -1 11 3.4454057458788157e-03</internalNodes>
          <leafValues>
            -3.5075488686561584e-01 4.8969417810440063e-01</leafValues></_>
        <_>
          <internalNodes>
            0 -1 31 -1.6352288424968719e-02</internalNodes>
          <leafValues>
            2.7442225813865662e-01 -5.3624361753463745e-01</leafValues></_>
        <_>
          <internalNodes>
            0 -1 49 3.2606658060103655e-03</internalNodes>
          <leafValues>
            1.8374323844909668e-01 -8.8486921787261963e-01</leafValues></_>
        <_>
          <internalNodes>
            0 -1 8 -1.2367933988571167e-02</internalNodes>
          <leafValues>
            2.3782697319984436e-01 -5.9007155895233154e-01</leafValues></_>
        <_>
          <internalNodes>
            0 -1 27 -2.7161710895597935e-03</internalNodes>
          <leafValues>
            1.3574106991291046e-01 -8.7167274951934814e-01</leafValues></_></weakClassifiers></_></stages>
  <features>
    <_>
      <rects>
        <_>
          0 4 6 12 -1.</_>
        <_>
          3 4 3 12 2.</_></rects>
      <tilted>0</tilted></_>
    <_>
      <rects>
        <_>
          0 5 12 12 -1.</_>
        <_>
          4 5 4 12 3.</_></rects>
      <tilted>0</tilted></_>
    <_>
      <rects>
        <_>
          0 7 4 9 -1.</_>
        <_>
          2 7 2 9 2.</_></rects>
      <tilted>0</tilted></_>
    <_>
      <rects>
        <_>
          0 8 6 8 -1.</_>
        <_>
          3 8 3 8 2.</_></rects>
      <tilted>0</tilted></_>
    <_>
      <rects>
        <_>
          1 11 9 5 -1.</_>
        <_>
          4 11 3 5 3.</_></rects>
      <tilted>0</tilted></_>
    <_>
      <rects>
        <_>
          3 6 6 8 -1.</_>
        <_>
          5 6 2 8 3.</_></rects>
      <tilted>0</tilted></_>
    <_>
      <rects>
        <_>
          4 0 11 6 -1.</_>
        <_>
          4 3 11 3 2.</_></rects>
      <tilted>0</tilted></_>
    <_>
      <rects>
        <_>
          4 4 3 8 -1.</_>
        <_>
          4 8 3 4 2.</_></rects>
      <tilted>0</tilted></_>
    <_>
      <rects>
        <_>
          4 4 10 4 -1.</_>
        <_>
          4 4 5 2 2.</_>
        <_>
          9 6 5 2 2.</_></rects>
      <tilted>0</tilted></_>
    <_>
      <rects>
        <_>
          4 6 3 6 -1.</_>
        <_>
          4 9 3 3 2.</_></rects>
      <tilted>0</tilted></_>
    <_>
      <rects>
        <_>
          4 8 11 12 -1.</_>
        <_>
          4 12 11 4 3.</_></rects>
      <tilted>0</tilted></_>
    <_>
      <rects>
        <_>
          4 9 3 2 -1.</_>
        <_>
          5 9 1 2 3.</_></rects>
      <tilted>0</tilted></_>
    <_>
      <rects>
        <_>
          4 9 13 2 -1.</_>
        <_>
          4 10 13 1 2.</_></rects>
      <tilted>0</tilted></_>
    <_>
      <rects>
        <_>
          5 2 6 6 -1.</_>
        <_>
          5 2 3 3 2.</_>
        <_>
          8 5 3 3 2.</_></rects>
      <tilted>0</tilted></_>
    <_>
      <rects>
        <_>
          5 2 4 12 -1.</_>
        <_>
          5 8 4 6 2.</_></rects>
      <tilted>0</tilted></_>
    <_>
      <rects>
        <_>
          5 3 11 12 -1.</_>
        <_>
          5 9 11 6 2.</_></rects>
      <tilted>0</tilted></_>
    <_>
      <rects>
        <_>
          5 4 3 8 -1.</_>
        <_>
          5 8 3 4 2.</_></rects>
      <tilted>0</tilted></_>
    <_>
      <rects>
        <_>
          5 6 3 6 -1.</_>
        <_>
          5 9 3 3 2.</_></rects>
      <tilted>0</tilted></_>
    <_>
      <rects>
        <_>
          5 7 12 4 -1.</_>
        <_>
          9 7 4 4 3.</_></rects>
      <tilted>0</tilted></_>
    <_>
      <rects>
        <_>
          5 7 8 4 -1.</_>
        <_>
          5 9 8 2 2.</_></rects>
      <tilted>0</tilted></_>
    <_>
      <rects>
        <_>
          5 8 8 4 -1.</_>
        <_>
          9 8 4 4 2.</_></rects>
      <tilted>0</tilted></_>
    <_>
      <rects>
        <_>
          5 8 11 2 -1.</_>
        <_>
          5 9 11 1 2.</_></rects>
      <tilted>0</tilted></_>
    <_>
      <rects>
        <_>
          5 16 7 4 -1.</_>
        <_>
          5 18 7 2 2.</_></rects>
      <tilted>0</tilted></_>
    <_>
      <rects>
        <_>
          5 16 10 4 -1.</_>
        <_>
          5 18 10 2 2.</_></rects>
      <tilted>0</tilted></_>
    <_>
      <rects>
        <_>
          5 18 10 2 -1.</_>
        <_>
          5 19 10 1 2.</_></rects>
      <tilted>0</tilted></_>
    <_>
      <rects>
        <_>
          6 2 10 14 -1.</_>
        <_>
          6 9 10 7 2.</_></rects>
      <tilted>0</tilted></_>
    <_>
      <rects>
        <_>
          6 5 2 8 -1.</_>
        <_>
          6 9 2 4 2.</_></rects>
      <tilted>0</tilted></_>
    <_>
      <rects>
        <_>
          6 8 4 5 -1.</_>
        <_>
          8 8 2 5 2.</_></rects>
      <tilted>0</tilted></_>
    <_>
      <rects>
        <_>
          6 8 9 6 -1.</_>
        <_>
          6 11 9 3 2.</_></rects>
      <tilted>0</tilted></_>
    <_>
      <rects>
        <_>
          6 10 4 5 -1.</_>
        <_>
          8 10 2 5 2.</_></rects>
      <tilted>0</tilted></_>
    <_>
      <rects>
        <_>
          6 11 6 2 -1.</_>
        <_>
          6 12 6 1 2.</_></rects>
      <tilted>0</tilted></_>
    <_>
      <rects>
        <_>
          6 14 5 6 -1.</_>
        <_>
          6 17 5 3 2.</_></rects>
      <tilted>0</tilted></_>
    <_>
      <rects>
        <_>
          6 18 11 2 -1.</_>
        <_>
          6 19 11 1 2.</_></rects>
      <tilted>0</tilted></_>
    <_>
      <rects>
        <_>
          7 0 5 4 -1.</_>
        <_>
          7 2 5 2 2.</_></rects>
      <tilted>0</tilted></_>
    <_>
      <rects>
        <_>
          7 0 8 4 -1.</_>
        <_>
          7 2 8 2 2.</_></rects>
      <tilted>0</tilted></_>
    <_>
      <rects>
        <_>
          7 1 4 6 -1.</_>
        <_>
          7 3 4 2 3.</_></rects>
      <tilted>0</tilted></_>
    <_>
      <rects>
        <_>
          7 5 9 9 -1.</_>
        <_>
          7 8 9 3 3.</_></rects>
      <tilted>0</tilted></_>
    <_>
      <rects>
        <_>
          7 11 6 3 -1.</_>
        <_>
          9 11 2 3 3.</_></rects>
      <tilted>0</tilted></_>
    <_>
      <rects>
        <_>
          7 12 4 3 -1.</_>
        <_>
          9 12 2 3 2.</_></rects>
      <tilted>0</tilted></_>
    <_>
      <rects>
        <_>
          7 18 8 2 -1.</_>
        <_>
          7 19 8 1 2.</_></rects>
      <tilted>0</tilted></_>
    <_>
      <rects>
        <_>
          8 1 6 6 -1.</_>
        <_>
          8 3 6 2 3.</_></rects>
      <tilted>0</tilted></_>
    <_>
      <rects>
        <_>
          8 4 2 12 -1.</_>
        <_>
          9 4 1 12 2.</_></rects>
      <tilted>0</tilted></_>
    <_>
      <rects>
        <_>
          8 4 6 6 -1.</_>
        <_>
          8 6 6 2 3.</_></rects>
      <tilted>0</tilted></_>
    <_>
      <rects>
        <_>
          8 5 6 7 -1.</_>
        <_>
          10 5 2 7 3.</_></rects>
      <tilted>0</tilted></_>
    <_>
      <rects>
        <_>
          8 9 3 9 -1.</_>
        <_>
          8 12 3 3 3.</_></rects>
      <tilted>0</tilted></_>
    <_>
      <rects>
        <_>
          8 10 4 6 -1.</_>
        <_>
          10 10 2 6 2.</_></rects>
      <tilted>0</tilted></_>
    <_>
      <rects>
        <_>
          9 1 2 6 -1.</_>
        <_>
          9 3 2 2 3.</_></rects>
      <tilted>0</tilted></_>
    <_>
      <rects>
        <_>
          9 7 1 2 -1.</_>
        <_>
          9 8 1 1 2.</_></rects>
      <tilted>0</tilted></_>
    <_>
      <rects>
        <_>
          9 9 5 6 -1.</_>
        <_>
          9 12 5 3 2.</_></rects>
      <tilted>0</tilted></_>
    <_>
      <rects>
        <_>
          9 9 7 3 -1.</_>
        <_>
          9 10 7 1 3.</_></rects>
      <tilted>0</tilted></_>
    <_>
      <rects>
        <_>
          9 9 7 9 -1.</_>
        <_>
          9 12 7 3 3.</_></rects>
      <tilted>0</tilted></_>
    <_>
      <rects>
        <_>
          9 13 4 2 -1.</_>
        <_>
          11 13 2 2 2.</_></rects>
      <tilted>0</tilted></_>
    <_>
      <rects>
        <_>
          10 4 4 6 -1.</_>
        <_>
          10 4 2 3 2.</_>
        <_>
          12 7 2 3 2.</_></rects>
      <tilted>0</tilted></_>
    <_>
      <rects>
        <_>
          10 6 2 4 -1.</_>
        <_>
          10 8 2 2 2.</_></rects>
      <tilted>0</tilted></_>
    <_>
      <rects>
        <_>
          10 8 6 4 -1.</_>
        <_>
          10 10 6 2 2.</_></rects>
      <tilted>0</tilted></_>
    <_>
      <rects>
        <_>
          11 6 6 4 -1.</_>
        <_>
          14 6 3 4 2.</_></rects>
      <tilted>0</tilted></_>
    <_>
      <rects>
        <_>
          11 8 6 4 -1.</_>
        <_>
          11 10 6 2 2.</_></rects>
      <tilted>0</tilted></_>
    <_>
      <rects>
        <_>
          11 13 2 2 -1.</_>
        <_>
          12 13 1 2 2.</_></rects>
      <tilted>0</tilted></_>
    <_>
      <rects>
        <_>
          12 2 4 6 -1.</_>
        <_>
          12 2 2 3 2.</_>
        <_>
          14 5 2 3 2.</_></rects>
      <tilted>0</tilted></_>
    <_>
      <rects>
        <_>
          13 2 4 10 -1.</_>
        <_>
          13 2 2 5 2.</_>
        <_>
          15 7 2 5 2.</_></rects>
      <tilted>0</tilted></_>
    <_>
      <rects>
        <_>
          13 8 6 3 -1.</_>
        <_>
          15 8 2 3 3.</_></rects>
      <tilted>0</tilted></_>
    <_>
      <rects>
        <_>
          14 9 6 4 -1.</_>
        <_>
          16 9 2 4 3.</_></rects>
      <tilted>0</tilted></_>
    <_>
      <rects>
        <_>
          14 10 6 2 -1.</_>
        <_>
          16 10 2 2 3.</_></rects>
      <tilted>0</tilted></_>
    <_>
      <rects>
        <_>
          14 10 6 3 -1.</_>
        <_>
          16 10 2 3 3.</_></rects>
      <tilted>0</tilted></_>
    <_>
      <rects>
        <_>
          16 4 4 12 -1.</_>
        <_>
          18 4 2 12 2.</_></rects>
      <tilted>0</tilted></_></features></cascade>
</opencv_storage>
