<?xml version="1.0"?>
<opencv_storage>
<cascade>
  <stageType>BOOST</stageType>
  <featureType>HAAR</featureType>
  <height>20</height>
  <width>20</width>
  <stageParams>
    <boostType>GAB</boostType>
    <minHitRate>9.9500000476837158e-01</minHitRate>
    <maxFalseAlarm>5.0000000000000000e-01</maxFalseAlarm>
    <weightTrimRate>9.4999999999999996e-01</weightTrimRate>
    <maxDepth>1</maxDepth>
    <maxWeakCount>100</maxWeakCount></stageParams>
  <featureParams>
    <maxCatCount>0</maxCatCount>
    <featSize>1</featSize>
    <mode>BASIC</mode></featureParams>
  <stageNum>10</stageNum>
  <stages>
    <!-- stage 0 -->
    <_>
      <maxWeakCount>39</maxWeakCount>
      <stageThreshold>-8.5775512456893921e-01</stageThreshold>
      <weakClassifiers>
        <_>
          <internalNodes>
            0 -1 515 2.3081801831722260e-02</internalNodes>
          <leafValues>
            1.3888889551162720e-01 6.9128787517547607e-01</leafValues></_>
        <_>
          <internalNodes>
            0 -1 212 -5.9744948521256447e-03</internalNodes>
          <leafValues>
            3.3754524588584900e-01 -1.5226349234580994e-01</leafValues></_>
        <_>
          <internalNodes>
            0 -1 647 -2.8851730749011040e-03</internalNodes>
          <leafValues>
            3.9668464660644531e-01 -1.4664781093597412e-01</leafValues></_>
        <_>
          <internalNodes>
            0 -1 96 -3.0059209093451500e-03</internalNodes>
          <leafValues>
            3.1865587830543518e-01 -1.9596083462238312e-01</leafValues></_>
        <_>
          <internalNodes>
            0 -1 626 7.0700980722904205e-04</internalNodes>
          <leafValues>
            -1.9049516320228577e-01 2.5461703538894653e-01</leafValues></_>
        <_>
          <internalNodes>
            0 -1 129 3.6426674341782928e-04</internalNodes>
          <leafValues>
            -1.5449675917625427e-01 2.8723633289337158e-01</leafValues></_>
        <_>
          <internalNodes>
            0 -1 248 2.2400304675102234e-02</internalNodes>
          <leafValues>
            -1.1450037360191345e-01 3.9487633109092712e-01</leafValues></_>
        <_>
          <internalNodes>
            0 -1 492 8.9309003669768572e-04</internalNodes>
          <leafValues>
            -1.3679143786430359e-01 3.7659570574760437e-01</leafValues></_>
        <_>
          <internalNodes>
            0 -1 486 -1.7137867398560047e-03</internalNodes>
          <leafValues>
            2.9173099994659424e-01 -1.3645836710929871e-01</leafValues></_>
        <_>
          <internalNodes>
            0 -1 247 2.4139594752341509e-03</internalNodes>
          <leafValues>
            -1.1520972102880478e-01 3.2322540879249573e-01</leafValues></_>
        <_>
          <internalNodes>
            0 -1 241 -1.3758610002696514e-03</internalNodes>
          <leafValues>
            2.6938018202781677e-01 -1.4329014718532562e-01</leafValues></_>
        <_>
          <internalNodes>
            0 -1 664 6.8108650157228112e-04</internalNodes>
          <leafValues>
            -1.1283703893423080e-01 2.5918328762054443e-01</leafValues></_>
        <_>
          <internalNodes>
            0 -1 677 -1.3514924794435501e-03</internalNodes>
          <leafValues>
            2.8179740905761719e-01 -1.1069538444280624e-01</leafValues></_>
        <_>
          <internalNodes>
            0 -1 278 1.9058935344219208e-02</internalNodes>
          <leafValues>
            -1.0548745840787888e-01 3.1689539551734924e-01</leafValues></_>
        <_>
          <internalNodes>
            0 -1 351 9.7031872719526291e-03</internalNodes>
          <leafValues>
            -1.1811127513647079e-01 2.7233219146728516e-01</leafValues></_>
        <_>
          <internalNodes>
            0 -1 208 4.8665516078472137e-03</internalNodes>
          <leafValues>
            -1.1840634793043137e-01 2.5528228282928467e-01</leafValues></_>
        <_>
          <internalNodes>
            0 -1 478 6.0401405207812786e-03</internalNodes>
          <leafValues>
            5.3753126412630081e-02 -7.7820193767547607e-01</leafValues></_>
        <_>
          <internalNodes>
            0 -1 305 -5.6707620387896895e-04</internalNodes>
          <leafValues>
            2.1101498603820801e-01 -1.5175765752792358e-01</leafValues></_>
        <_>
          <internalNodes>
            0 -1 552 -4.1688773781061172e-03</internalNodes>
          <leafValues>
            -5.9696656465530396e-01 5.4542247205972672e-02</leafValues></_>
        <_>
          <internalNodes>
            0 -1 454 -1.9137642811983824e-03</internalNodes>
          <leafValues>
            2.6329049468040466e-01 -1.3253408670425415e-01</leafValues></_>
        <_>
          <internalNodes>
            0 -1 457 1.3203939888626337e-03</internalNodes>
          <leafValues>
            -1.0277917236089706e-01 2.9515296220779419e-01</leafValues></_>
        <_>
          <internalNodes>
            0 -1 561 -5.1673199050128460e-04</internalNodes>
          <leafValues>
            2.8144082427024841e-01 -1.1622822284698486e-01</leafValues></_>
        <_>
          <internalNodes>
            0 -1 540 -9.6069248393177986e-03</internalNodes>
          <leafValues>
            -7.3980033397674561e-01 4.5261628925800323e-02</leafValues></_>
        <_>
          <internalNodes>
            0 -1 103 1.9666175357997417e-03</internalNodes>
          <leafValues>
            -1.5243537724018097e-01 2.1650251746177673e-01</leafValues></_>
        <_>
          <internalNodes>
            0 -1 582 3.7336722016334534e-03</internalNodes>
          <leafValues>
            4.8823453485965729e-02 -7.1599048376083374e-01</leafValues></_>
        <_>
          <internalNodes>
            0 -1 16 -3.0462525319308043e-03</internalNodes>
          <leafValues>
            1.8816351890563965e-01 -1.4829708635807037e-01</leafValues></_>
        <_>
          <internalNodes>
            0 -1 560 -3.4398268326185644e-04</internalNodes>
          <leafValues>
            2.1310968697071075e-01 -1.2515833973884583e-01</leafValues></_>
        <_>
          <internalNodes>
            0 -1 124 -5.2529934793710709e-02</internalNodes>
          <leafValues>
            3.1661039590835571e-01 -8.5994452238082886e-02</leafValues></_>
        <_>
          <internalNodes>
            0 -1 53 3.9035860449075699e-02</internalNodes>
          <leafValues>
            -6.2439672648906708e-02 4.1148439049720764e-01</leafValues></_>
        <_>
          <internalNodes>
            0 -1 606 6.9342725910246372e-03</internalNodes>
          <leafValues>
            -7.0217505097389221e-02 4.0548223257064819e-01</leafValues></_>
        <_>
          <internalNodes>
            0 -1 399 -3.4005923662334681e-03</internalNodes>
          <leafValues>
            2.7272471785545349e-01 -1.0098269581794739e-01</leafValues></_>
        <_>
          <internalNodes>
            0 -1 429 -5.9288386255502701e-03</internalNodes>
          <leafValues>
            -6.8547344207763672e-01 4.3430801481008530e-02</leafValues></_>
        <_>
          <internalNodes>
            0 -1 262 -1.2200118508189917e-03</internalNodes>
          <leafValues>
            2.4047845602035522e-01 -1.1794789880514145e-01</leafValues></_>
        <_>
          <internalNodes>
            0 -1 695 -9.3489658320322633e-04</internalNodes>
          <leafValues>
            1.9700071215629578e-01 -1.3470157980918884e-01</leafValues></_>
        <_>
          <internalNodes>
            0 -1 527 1.3350490480661392e-02</internalNodes>
          <leafValues>
            3.5234764218330383e-02 -7.9423737525939941e-01</leafValues></_>
        <_>
          <internalNodes>
            0 -1 732 3.1653151381760836e-03</internalNodes>
          <leafValues>
            -1.1903577297925949e-01 2.5564152002334595e-01</leafValues></_>
        <_>
          <internalNodes>
            0 -1 176 6.3062869012355804e-03</internalNodes>
          <leafValues>
            3.7817183881998062e-02 -8.1957191228866577e-01</leafValues></_>
        <_>
          <internalNodes>
            0 -1 434 -3.7183932727202773e-04</internalNodes>
          <leafValues>
            2.0649048686027527e-01 -1.3942736387252808e-01</leafValues></_>
        <_>
          <internalNodes>
            0 -1 633 -2.5120819918811321e-03</internalNodes>
          <leafValues>
            -4.6000045537948608e-01 5.8783106505870819e-02</leafValues></_></weakClassifiers></_>
    <!-- stage 1 -->
    <_>
      <maxWeakCount>55</maxWeakCount>
      <stageThreshold>-6.8602687120437622e-01</stageThreshold>
      <weakClassifiers>
        <_>
          <internalNodes>
            0 -1 402 -6.3375444151461124e-03</internalNodes>
          <leafValues>
            5.9134197235107422e-01 1.7181572318077087e-01</leafValues></_>
        <_>
          <internalNodes>
            0 -1 17 -6.0164853930473328e-02</internalNodes>
          <leafValues>
            4.0885359048843384e-01 -9.0443409979343414e-02</leafValues></_>
        <_>
          <internalNodes>
            0 -1 666 8.3045046776533127e-03</internalNodes>
          <leafValues>
            -1.2525001168251038e-01 4.2079749703407288e-01</leafValues></_>
        <_>
          <internalNodes>
            0 -1 499 -2.1297540515661240e-03</internalNodes>
          <leafValues>
            2.9322940111160278e-01 -1.0309032350778580e-01</leafValues></_>
        <_>
          <internalNodes>
            0 -1 375 4.0846727788448334e-03</internalNodes>
          <leafValues>
            -1.1489784717559814e-01 2.6765775680541992e-01</leafValues></_>
        <_>
          <internalNodes>
            0 -1 440 -1.6935523599386215e-03</internalNodes>
          <leafValues>
            2.2560155391693115e-01 -1.2312155216932297e-01</leafValues></_>
        <_>
          <internalNodes>
            0 -1 487 -2.1317764185369015e-03</internalNodes>
          <leafValues>
            2.6666924357414246e-01 -1.2310376018285751e-01</leafValues></_>
        <_>
          <internalNodes>
            0 -1 628 -9.2529808171093464e-04</internalNodes>
          <leafValues>
            2.6897341012954712e-01 -1.0959830880165100e-01</leafValues></_>
        <_>
          <internalNodes>
            0 -1 309 -1.3997546397149563e-02</internalNodes>
          <leafValues>
            -4.5155590772628784e-01 6.5057814121246338e-02</leafValues></_>
        <_>
          <internalNodes>
            0 -1 48 -5.1165847107768059e-03</internalNodes>
          <leafValues>
            1.8016313016414642e-01 -1.4943364262580872e-01</leafValues></_>
        <_>
          <internalNodes>
            0 -1 184 -1.6444595530629158e-03</internalNodes>
          <leafValues>
            2.3096919059753418e-01 -1.2236756831407547e-01</leafValues></_>
        <_>
          <internalNodes>
            0 -1 629 1.1382842203602195e-03</internalNodes>
          <leafValues>
            -1.1583264172077179e-01 2.4307411909103394e-01</leafValues></_>
        <_>
          <internalNodes>
            0 -1 518 3.0172631144523621e-02</internalNodes>
          <leafValues>
            4.7892551869153976e-02 -5.7524305582046509e-01</leafValues></_>
        <_>
          <internalNodes>
            0 -1 567 -7.1355658583343029e-03</internalNodes>
          <leafValues>
            -3.4890165925025940e-01 7.5965613126754761e-02</leafValues></_>
        <_>
          <internalNodes>
            0 -1 398 1.6582356765866280e-03</internalNodes>
          <leafValues>
            -1.0910095274448395e-01 2.1714054048061371e-01</leafValues></_>
        <_>
          <internalNodes>
            0 -1 383 -1.2078015133738518e-03</internalNodes>
          <leafValues>
            2.2627361118793488e-01 -1.0576722770929337e-01</leafValues></_>
        <_>
          <internalNodes>
            0 -1 275 3.2554887235164642e-02</internalNodes>
          <leafValues>
            -8.0341808497905731e-02 3.2771286368370056e-01</leafValues></_>
        <_>
          <internalNodes>
            0 -1 443 -8.9107565581798553e-03</internalNodes>
          <leafValues>
            -4.7296574711799622e-01 5.5492132902145386e-02</leafValues></_>
        <_>
          <internalNodes>
            0 -1 419 9.4727501273155212e-03</internalNodes>
          <leafValues>
            -1.3149499893188477e-01 1.9885696470737457e-01</leafValues></_>
        <_>
          <internalNodes>
            0 -1 170 -1.6223497688770294e-02</internalNodes>
          <leafValues>
            2.7223083376884460e-01 -9.0905562043190002e-02</leafValues></_>
        <_>
          <internalNodes>
            0 -1 27 1.0852137580513954e-02</internalNodes>
          <leafValues>
            -1.0175757855176926e-01 2.2183282673358917e-01</leafValues></_>
        <_>
          <internalNodes>
            0 -1 547 -3.6445702426135540e-03</internalNodes>
          <leafValues>
            -6.0648757219314575e-01 4.2462177574634552e-02</leafValues></_>
        <_>
          <internalNodes>
            0 -1 509 -2.7367579750716686e-03</internalNodes>
          <leafValues>
            1.9208477437496185e-01 -1.2130394577980042e-01</leafValues></_>
        <_>
          <internalNodes>
            0 -1 93 -1.2787082232534885e-03</internalNodes>
          <leafValues>
            2.2606845200061798e-01 -1.1251834779977798e-01</leafValues></_>
        <_>
          <internalNodes>
            0 -1 736 -2.1302814129740000e-03</internalNodes>
          <leafValues>
            2.8349992632865906e-01 -8.4076374769210815e-02</leafValues></_>
        <_>
          <internalNodes>
            0 -1 3 -4.7828212380409241e-01</internalNodes>
          <leafValues>
            4.4940367341041565e-01 -4.5536980032920837e-02</leafValues></_>
        <_>
          <internalNodes>
            0 -1 382 6.9393101148307323e-04</internalNodes>
          <leafValues>
            -1.0738696902990341e-01 2.1273897588253021e-01</leafValues></_>
        <_>
          <internalNodes>
            0 -1 489 -7.4401572346687317e-03</internalNodes>
          <leafValues>
            -5.7592731714248657e-01 4.3208450078964233e-02</leafValues></_>
        <_>
          <internalNodes>
            0 -1 576 -1.1691800318658352e-03</internalNodes>
          <leafValues>
            2.2825206816196442e-01 -1.1610902845859528e-01</leafValues></_>
        <_>
          <internalNodes>
            0 -1 594 -5.0350977107882500e-04</internalNodes>
          <leafValues>
            2.3617637157440186e-01 -1.1491303145885468e-01</leafValues></_>
        <_>
          <internalNodes>
            0 -1 624 1.1588565073907375e-02</internalNodes>
          <leafValues>
            4.5521806925535202e-02 -5.3669643402099609e-01</leafValues></_>
        <_>
          <internalNodes>
            0 -1 444 3.5565625876188278e-03</internalNodes>
          <leafValues>
            -1.3788078725337982e-01 1.6045217216014862e-01</leafValues></_>
        <_>
          <internalNodes>
            0 -1 453 -9.3434978043660522e-04</internalNodes>
          <leafValues>
            2.4238716065883636e-01 -9.4087988138198853e-02</leafValues></_>
        <_>
          <internalNodes>
            0 -1 553 -1.1927213054150343e-03</internalNodes>
          <leafValues>
            2.0602937042713165e-01 -1.1738477647304535e-01</leafValues></_>
        <_>
          <internalNodes>
            0 -1 447 -1.2892445549368858e-02</internalNodes>
          <leafValues>
            -4.8881211876869202e-01 4.9847267568111420e-02</leafValues></_>
        <_>
          <internalNodes>
            0 -1 356 -1.3027167879045010e-03</internalNodes>
          <leafValues>
            2.4643619358539581e-01 -9.8475009202957153e-02</leafValues></_>
        <_>
          <internalNodes>
            0 -1 593 1.0760096833109856e-02</internalNodes>
          <leafValues>
            3.3302754163742065e-02 -7.4717223644256592e-01</leafValues></_>
        <_>
          <internalNodes>
            0 -1 504 1.3759745343122631e-04</internalNodes>
          <leafValues>
            -1.5071226656436920e-01 1.5348543226718903e-01</leafValues></_>
        <_>
          <internalNodes>
            0 -1 562 -2.3770178668200970e-03</internalNodes>
          <leafValues>
            -4.3905729055404663e-01 5.3988710045814514e-02</leafValues></_>
        <_>
          <internalNodes>
            0 -1 335 2.0125262439250946e-02</internalNodes>
          <leafValues>
            -5.5692218244075775e-02 4.5441469550132751e-01</leafValues></_>
        <_>
          <internalNodes>
            0 -1 386 5.1666575018316507e-04</internalNodes>
          <leafValues>
            -1.1992204934358597e-01 2.3710240423679352e-01</leafValues></_>
        <_>
          <internalNodes>
            0 -1 699 -3.8839750923216343e-03</internalNodes>
          <leafValues>
            -6.6573655605316162e-01 3.5392891615629196e-02</leafValues></_>
        <_>
          <internalNodes>
            0 -1 578 4.1505713015794754e-03</internalNodes>
          <leafValues>
            2.1718202158808708e-02 -7.8491735458374023e-01</leafValues></_>
        <_>
          <internalNodes>
            0 -1 643 -3.2594194635748863e-03</internalNodes>
          <leafValues>
            1.9843581318855286e-01 -1.0824620723724365e-01</leafValues></_>
        <_>
          <internalNodes>
            0 -1 648 2.5753430090844631e-03</internalNodes>
          <leafValues>
            -1.0592769086360931e-01 2.2096848487854004e-01</leafValues></_>
        <_>
          <internalNodes>
            0 -1 491 7.7772013843059540e-02</internalNodes>
          <leafValues>
            3.6537360399961472e-02 -6.2829887866973877e-01</leafValues></_>
        <_>
          <internalNodes>
            0 -1 618 5.3032930009067059e-03</internalNodes>
          <leafValues>
            4.4517561793327332e-02 -4.4447964429855347e-01</leafValues></_>
        <_>
          <internalNodes>
            0 -1 500 -1.4068749733269215e-03</internalNodes>
          <leafValues>
            1.8270047008991241e-01 -1.2916445732116699e-01</leafValues></_>
        <_>
          <internalNodes>
            0 -1 600 1.8670037388801575e-02</internalNodes>
          <leafValues>
            -1.1890804767608643e-01 1.9868996739387512e-01</leafValues></_>
        <_>
          <internalNodes>
            0 -1 670 -3.9027072489261627e-02</internalNodes>
          <leafValues>
            4.4074365496635437e-01 -5.0220802426338196e-02</leafValues></_>
        <_>
          <internalNodes>
            0 -1 241 2.6697490829974413e-03</internalNodes>
          <leafValues>
            -8.6736515164375305e-02 2.2807411849498749e-01</leafValues></_>
        <_>
          <internalNodes>
            0 -1 323 -4.5805713161826134e-03</internalNodes>
          <leafValues>
            -1.5671829879283905e-01 1.2719903886318207e-01</leafValues></_>
        <_>
          <internalNodes>
            0 -1 472 9.1603789478540421e-03</internalNodes>
          <leafValues>
            5.5727776139974594e-02 -3.9941075444221497e-01</leafValues></_>
        <_>
          <internalNodes>
            0 -1 687 -5.1308805122971535e-03</internalNodes>
          <leafValues>
            -6.3299167156219482e-01 3.0641360208392143e-02</leafValues></_>
        <_>
          <internalNodes>
            0 -1 282 2.7426969609223306e-04</internalNodes>
          <leafValues>
            -1.2234419584274292e-01 1.6927258670330048e-01</leafValues></_></weakClassifiers></_>
    <!-- stage 2 -->
    <_>
      <maxWeakCount>78</maxWeakCount>
      <stageThreshold>-6.7520582675933838e-01</stageThreshold>
      <weakClassifiers>
        <_>
          <internalNodes>
            0 -1 101 -4.9342982470989227e-02</internalNodes>
          <leafValues>
            6.2372565269470215e-01 1.7022384703159332e-01</leafValues></_>
        <_>
          <internalNodes>
            0 -1 328 1.7142128199338913e-02</internalNodes>
          <leafValues>
            -6.3457168638706207e-02 3.6703276634216309e-01</leafValues></_>
        <_>
          <internalNodes>
            0 -1 301 -1.4745987020432949e-02</internalNodes>
          <leafValues>
            1.9878743588924408e-01 -1.6721355915069580e-01</leafValues></_>
        <_>
          <internalNodes>
            0 -1 365 -6.3162981532514095e-03</internalNodes>
          <leafValues>
            -7.7840673923492432e-01 3.1962502747774124e-02</leafValues></_>
        <_>
          <internalNodes>
            0 -1 627 -1.3409804087132215e-03</internalNodes>
          <leafValues>
            1.7901459336280823e-01 -1.3227990269660950e-01</leafValues></_>
        <_>
          <internalNodes>
            0 -1 672 -3.2200894784182310e-03</internalNodes>
          <leafValues>
            2.1055564284324646e-01 -1.0285169631242752e-01</leafValues></_>
        <_>
          <internalNodes>
            0 -1 405 3.8059338927268982e-02</internalNodes>
          <leafValues>
            -1.1376641690731049e-01 2.1181309223175049e-01</leafValues></_>
        <_>
          <internalNodes>
            0 -1 8 -2.0312495529651642e-02</internalNodes>
          <leafValues>
            2.3343242704868317e-01 -1.0855522751808167e-01</leafValues></_>
        <_>
          <internalNodes>
            0 -1 79 -9.1553525999188423e-03</internalNodes>
          <leafValues>
            -4.2238524556159973e-01 4.7003421932458878e-02</leafValues></_>
        <_>
          <internalNodes>
            0 -1 266 -4.8713516443967819e-03</internalNodes>
          <leafValues>
            2.1702095866203308e-01 -1.0165490955114365e-01</leafValues></_>
        <_>
          <internalNodes>
            0 -1 65 -2.5155436247587204e-02</internalNodes>
          <leafValues>
            5.6780487298965454e-01 -3.4374069422483444e-02</leafValues></_>
        <_>
          <internalNodes>
            0 -1 550 5.2949488162994385e-03</internalNodes>
          <leafValues>
            4.0342178195714951e-02 -5.4660439491271973e-01</leafValues></_>
        <_>
          <internalNodes>
            0 -1 334 -1.3703412376344204e-02</internalNodes>
          <leafValues>
            3.1254106760025024e-01 -6.8103663623332977e-02</leafValues></_>
        <_>
          <internalNodes>
            0 -1 620 -5.4292185232043266e-03</internalNodes>
          <leafValues>
            -6.6203534603118896e-01 3.2540779560804367e-02</leafValues></_>
        <_>
          <internalNodes>
            0 -1 728 -1.4394016936421394e-02</internalNodes>
          <leafValues>
            2.1096077561378479e-01 -9.6513733267784119e-02</leafValues></_>
        <_>
          <internalNodes>
            0 -1 514 -2.0791871473193169e-02</internalNodes>
          <leafValues>
            2.7838033437728882e-01 -7.5931869447231293e-02</leafValues></_>
        <_>
          <internalNodes>
            0 -1 204 4.7617591917514801e-03</internalNodes>
          <leafValues>
            -9.5744915306568146e-02 2.1072821319103241e-01</leafValues></_>
        <_>
          <internalNodes>
            0 -1 75 3.0127443373203278e-02</internalNodes>
          <leafValues>
            -4.0905695408582687e-02 4.9155762791633606e-01</leafValues></_>
        <_>
          <internalNodes>
            0 -1 587 4.9659761134535074e-04</internalNodes>
          <leafValues>
            -1.4544628560543060e-01 1.3638181984424591e-01</leafValues></_>
        <_>
          <internalNodes>
            0 -1 118 -1.6611628234386444e-02</internalNodes>
          <leafValues>
            2.2719307243824005e-01 -8.9528046548366547e-02</leafValues></_>
        <_>
          <internalNodes>
            0 -1 552 -4.2112418450415134e-03</internalNodes>
          <leafValues>
            -5.6587719917297363e-01 3.6986816674470901e-02</leafValues></_>
        <_>
          <internalNodes>
            0 -1 539 4.0716052055358887e-02</internalNodes>
          <leafValues>
            3.4222241491079330e-02 -5.4080277681350708e-01</leafValues></_>
        <_>
          <internalNodes>
            0 -1 293 -8.8411662727594376e-03</internalNodes>
          <leafValues>
            -6.9881308078765869e-01 2.4534361436963081e-02</leafValues></_>
        <_>
          <internalNodes>
            0 -1 362 9.2691984027624130e-03</internalNodes>
          <leafValues>
            -6.7686982452869415e-02 2.9926270246505737e-01</leafValues></_>
        <_>
          <internalNodes>
            0 -1 218 8.0629065632820129e-03</internalNodes>
          <leafValues>
            2.8831476345658302e-02 -6.8439471721649170e-01</leafValues></_>
        <_>
          <internalNodes>
            0 -1 71 -4.1405521333217621e-02</internalNodes>
          <leafValues>
            5.1826852560043335e-01 -3.8561858236789703e-02</leafValues></_>
        <_>
          <internalNodes>
            0 -1 529 -5.7904757559299469e-03</internalNodes>
          <leafValues>
            -6.8437325954437256e-01 3.2926246523857117e-02</leafValues></_>
        <_>
          <internalNodes>
            0 -1 482 4.0728622116148472e-03</internalNodes>
          <leafValues>
            -7.6635755598545074e-02 2.5570511817932129e-01</leafValues></_>
        <_>
          <internalNodes>
            0 -1 433 -9.7021646797657013e-03</internalNodes>
          <leafValues>
            2.6780736446380615e-01 -1.0276964306831360e-01</leafValues></_>
        <_>
          <internalNodes>
            0 -1 310 -5.2501726895570755e-04</internalNodes>
          <leafValues>
            1.7094199359416962e-01 -1.1727362126111984e-01</leafValues></_>
        <_>
          <internalNodes>
            0 -1 39 -1.1805389076471329e-03</internalNodes>
          <leafValues>
            -2.8628915548324585e-01 6.7171439528465271e-02</leafValues></_>
        <_>
          <internalNodes>
            0 -1 417 -5.7149818167090416e-03</internalNodes>
          <leafValues>
            -5.5425173044204712e-01 3.5765755921602249e-02</leafValues></_>
        <_>
          <internalNodes>
            0 -1 697 4.7181628178805113e-04</internalNodes>
          <leafValues>
            1.1325706541538239e-01 -1.5997104346752167e-01</leafValues></_>
        <_>
          <internalNodes>
            0 -1 329 4.8206876963376999e-03</internalNodes>
          <leafValues>
            3.9513573050498962e-02 -4.9721616506576538e-01</leafValues></_>
        <_>
          <internalNodes>
            0 -1 258 4.2044771835207939e-03</internalNodes>
          <leafValues>
            2.4940362200140953e-02 -5.7689952850341797e-01</leafValues></_>
        <_>
          <internalNodes>
            0 -1 709 -9.1523513197898865e-02</internalNodes>
          <leafValues>
            5.5799782276153564e-01 -3.2016016542911530e-02</leafValues></_>
        <_>
          <internalNodes>
            0 -1 286 2.8995494358241558e-04</internalNodes>
          <leafValues>
            -1.0567935556173325e-01 1.7253138124942780e-01</leafValues></_>
        <_>
          <internalNodes>
            0 -1 127 2.9499974101781845e-02</internalNodes>
          <leafValues>
            -5.2319467067718506e-02 3.9816540479660034e-01</leafValues></_>
        <_>
          <internalNodes>
            0 -1 33 -3.8080862723290920e-03</internalNodes>
          <leafValues>
            -2.1657723188400269e-01 8.6472600698471069e-02</leafValues></_>
        <_>
          <internalNodes>
            0 -1 145 1.0023394133895636e-03</internalNodes>
          <leafValues>
            -1.2335547804832458e-01 1.5682925283908844e-01</leafValues></_>
        <_>
          <internalNodes>
            0 -1 745 2.1619722247123718e-03</internalNodes>
          <leafValues>
            6.4029335975646973e-02 -2.7974089980125427e-01</leafValues></_>
        <_>
          <internalNodes>
            0 -1 63 -1.7070310190320015e-02</internalNodes>
          <leafValues>
            3.5043978691101074e-01 -5.0138700753450394e-02</leafValues></_>
        <_>
          <internalNodes>
            0 -1 28 6.6630072891712189e-02</internalNodes>
          <leafValues>
            -2.5958037003874779e-02 6.8979007005691528e-01</leafValues></_>
        <_>
          <internalNodes>
            0 -1 111 -2.4327202700078487e-03</internalNodes>
          <leafValues>
            -3.0479812622070312e-01 6.3318982720375061e-02</leafValues></_>
        <_>
          <internalNodes>
            0 -1 115 1.0306532494723797e-03</internalNodes>
          <leafValues>
            -1.0014819353818893e-01 1.9867344200611115e-01</leafValues></_>
        <_>
          <internalNodes>
            0 -1 171 4.9508716911077499e-03</internalNodes>
          <leafValues>
            3.7170559167861938e-02 -5.2225726842880249e-01</leafValues></_>
        <_>
          <internalNodes>
            0 -1 683 -1.1482317000627518e-02</internalNodes>
          <leafValues>
            2.3623831570148468e-01 -7.8951165080070496e-02</leafValues></_>
        <_>
          <internalNodes>
            0 -1 703 -1.2866924516856670e-03</internalNodes>
          <leafValues>
            -2.0967403054237366e-01 9.1128677129745483e-02</leafValues></_>
        <_>
          <internalNodes>
            0 -1 257 -1.3767503201961517e-02</internalNodes>
          <leafValues>
            -3.1057754158973694e-01 5.7976249605417252e-02</leafValues></_>
        <_>
          <internalNodes>
            0 -1 347 4.8389747738838196e-02</internalNodes>
          <leafValues>
            2.9809899628162384e-02 -6.1207801103591919e-01</leafValues></_>
        <_>
          <internalNodes>
            0 -1 476 9.0582165867090225e-03</internalNodes>
          <leafValues>
            3.6833938211202621e-02 -4.3160912394523621e-01</leafValues></_>
        <_>
          <internalNodes>
            0 -1 316 -1.3958213385194540e-03</internalNodes>
          <leafValues>
            1.9946590065956116e-01 -9.5137223601341248e-02</leafValues></_>
        <_>
          <internalNodes>
            0 -1 580 4.0860421955585480e-02</internalNodes>
          <leafValues>
            3.6686290055513382e-02 -5.2163982391357422e-01</leafValues></_>
        <_>
          <internalNodes>
            0 -1 182 -5.5942651815712452e-03</internalNodes>
          <leafValues>
            -5.6823807954788208e-01 3.0382469296455383e-02</leafValues></_>
        <_>
          <internalNodes>
            0 -1 437 -1.4860830269753933e-03</internalNodes>
          <leafValues>
            1.7307126522064209e-01 -9.9328801035881042e-02</leafValues></_>
        <_>
          <internalNodes>
            0 -1 344 5.4485723376274109e-03</internalNodes>
          <leafValues>
            -9.8163962364196777e-02 2.0293436944484711e-01</leafValues></_>
        <_>
          <internalNodes>
            0 -1 294 -1.1222472414374352e-02</internalNodes>
          <leafValues>
            3.0557009577751160e-01 -6.7832827568054199e-02</leafValues></_>
        <_>
          <internalNodes>
            0 -1 725 -5.8123413473367691e-03</internalNodes>
          <leafValues>
            -7.9204368591308594e-01 2.4414617568254471e-02</leafValues></_>
        <_>
          <internalNodes>
            0 -1 568 1.9045293331146240e-02</internalNodes>
          <leafValues>
            1.6509275883436203e-02 -7.8860634565353394e-01</leafValues></_>
        <_>
          <internalNodes>
            0 -1 102 -2.4599682539701462e-02</internalNodes>
          <leafValues>
            1.4335866272449493e-01 -1.2379930913448334e-01</leafValues></_>
        <_>
          <internalNodes>
            0 -1 413 -8.2503333687782288e-03</internalNodes>
          <leafValues>
            -5.3738069534301758e-01 3.7459887564182281e-02</leafValues></_>
        <_>
          <internalNodes>
            0 -1 230 -2.4962672032415867e-03</internalNodes>
          <leafValues>
            2.0315477252006531e-01 -9.8650299012660980e-02</leafValues></_>
        <_>
          <internalNodes>
            0 -1 704 2.4561427533626556e-02</internalNodes>
          <leafValues>
            -3.3670317381620407e-02 5.4516863822937012e-01</leafValues></_>
        <_>
          <internalNodes>
            0 -1 1 -1.3432856649160385e-03</internalNodes>
          <leafValues>
            -2.5673729181289673e-01 7.1135923266410828e-02</leafValues></_>
        <_>
          <internalNodes>
            0 -1 5 2.5619179010391235e-02</internalNodes>
          <leafValues>
            -3.9033047854900360e-02 4.3659219145774841e-01</leafValues></_>
        <_>
          <internalNodes>
            0 -1 671 -2.1075101569294930e-02</internalNodes>
          <leafValues>
            2.1079704165458679e-01 -7.6709806919097900e-02</leafValues></_>
        <_>
          <internalNodes>
            0 -1 730 -1.9103884696960449e-02</internalNodes>
          <leafValues>
            2.3967440426349640e-01 -7.7414110302925110e-02</leafValues></_>
        <_>
          <internalNodes>
            0 -1 149 -4.7750743106007576e-03</internalNodes>
          <leafValues>
            -4.3593090772628784e-01 4.3674312531948090e-02</leafValues></_>
        <_>
          <internalNodes>
            0 -1 740 -6.1440193094313145e-03</internalNodes>
          <leafValues>
            -4.1022819280624390e-01 4.0483102202415466e-02</leafValues></_>
        <_>
          <internalNodes>
            0 -1 473 1.3262234861031175e-03</internalNodes>
          <leafValues>
            -9.5875412225723267e-02 1.7495720088481903e-01</leafValues></_>
        <_>
          <internalNodes>
            0 -1 99 -3.2798297703266144e-02</internalNodes>
          <leafValues>
            -6.2100303173065186e-01 2.9637724161148071e-02</leafValues></_>
        <_>
          <internalNodes>
            0 -1 26 -1.6946900635957718e-02</internalNodes>
          <leafValues>
            1.8378093838691711e-01 -9.4291932880878448e-02</leafValues></_>
        <_>
          <internalNodes>
            0 -1 66 7.7084540389478207e-03</internalNodes>
          <leafValues>
            -7.6747991144657135e-02 2.6091906428337097e-01</leafValues></_>
        <_>
          <internalNodes>
            0 -1 189 2.8519701212644577e-02</internalNodes>
          <leafValues>
            4.3445441871881485e-02 -4.2811241745948792e-01</leafValues></_>
        <_>
          <internalNodes>
            0 -1 713 4.9685379490256310e-03</internalNodes>
          <leafValues>
            -7.7721208333969116e-02 2.2487971186637878e-01</leafValues></_>
        <_>
          <internalNodes>
            0 -1 123 -4.9840770661830902e-02</internalNodes>
          <leafValues>
            2.1387884020805359e-01 -8.2341894507408142e-02</leafValues></_>
        <_>
          <internalNodes>
            0 -1 410 -4.3056216090917587e-03</internalNodes>
          <leafValues>
            -7.0264822244644165e-01 2.5221625342965126e-02</leafValues></_>
        <_>
          <internalNodes>
            0 -1 273 -1.3034582138061523e-02</internalNodes>
          <leafValues>
            -2.2417297959327698e-01 8.0143347382545471e-02</leafValues></_></weakClassifiers></_>
    <!-- stage 3 -->
    <_>
      <maxWeakCount>78</maxWeakCount>
      <stageThreshold>-5.9869116544723511e-01</stageThreshold>
      <weakClassifiers>
        <_>
          <internalNodes>
            0 -1 214 -4.0991768240928650e-02</internalNodes>
          <leafValues>
            5.2613830566406250e-01 2.0727673172950745e-01</leafValues></_>
        <_>
          <internalNodes>
            0 -1 289 1.7585005611181259e-02</internalNodes>
          <leafValues>
            -5.5391211062669754e-02 3.4972155094146729e-01</leafValues></_>
        <_>
          <internalNodes>
            0 -1 294 -8.7976399809122086e-03</internalNodes>
          <leafValues>
            2.7822813391685486e-01 -1.4169824123382568e-01</leafValues></_>
        <_>
          <internalNodes>
            0 -1 9 -9.2137336730957031e-02</internalNodes>
          <leafValues>
            3.1982716917991638e-01 -6.9968551397323608e-02</leafValues></_>
        <_>
          <internalNodes>
            0 -1 13 -1.8018345534801483e-01</internalNodes>
          <leafValues>
            -3.9585280418395996e-01 4.5191064476966858e-02</leafValues></_>
        <_>
          <internalNodes>
            0 -1 532 1.8014341592788696e-02</internalNodes>
          <leafValues>
            7.5495690107345581e-02 -3.3753076195716858e-01</leafValues></_>
        <_>
          <internalNodes>
            0 -1 135 -4.6046953648328781e-02</internalNodes>
          <leafValues>
            -4.6374475955963135e-01 2.4962401017546654e-02</leafValues></_>
        <_>
          <internalNodes>
            0 -1 185 -1.3485174858942628e-03</internalNodes>
          <leafValues>
            1.8174713850021362e-01 -9.5822229981422424e-02</leafValues></_>
        <_>
          <internalNodes>
            0 -1 681 5.8996425941586494e-03</internalNodes>
          <leafValues>
            -9.4350606203079224e-02 2.0097042620182037e-01</leafValues></_>
        <_>
          <internalNodes>
            0 -1 685 -5.0030918791890144e-03</internalNodes>
          <leafValues>
            2.9843267798423767e-01 -7.5630031526088715e-02</leafValues></_>
        <_>
          <internalNodes>
            0 -1 715 -9.6503284294158220e-04</internalNodes>
          <leafValues>
            1.8172024190425873e-01 -1.0026103258132935e-01</leafValues></_>
        <_>
          <internalNodes>
            0 -1 350 -5.1572605967521667e-02</internalNodes>
          <leafValues>
            -3.6751338839530945e-01 5.2455540746450424e-02</leafValues></_>
        <_>
          <internalNodes>
            0 -1 686 -1.6289867460727692e-02</internalNodes>
          <leafValues>
            -3.9497640728950500e-01 4.2532660067081451e-02</leafValues></_>
        <_>
          <internalNodes>
            0 -1 453 -6.5575935877859592e-04</internalNodes>
          <leafValues>
            1.8805404007434845e-01 -9.5627941191196442e-02</leafValues></_>
        <_>
          <internalNodes>
            0 -1 393 -1.9448514794930816e-03</internalNodes>
          <leafValues>
            2.5677993893623352e-01 -7.6361365616321564e-02</leafValues></_>
        <_>
          <internalNodes>
            0 -1 355 -9.6640549600124359e-04</internalNodes>
          <leafValues>
            1.9807504117488861e-01 -1.0024247318506241e-01</leafValues></_>
        <_>
          <internalNodes>
            0 -1 541 -4.9137147143483162e-03</internalNodes>
          <leafValues>
            -8.4772157669067383e-01 2.3208331316709518e-02</leafValues></_>
        <_>
          <internalNodes>
            0 -1 407 -7.4399646837264299e-04</internalNodes>
          <leafValues>
            1.4711727201938629e-01 -1.1598020792007446e-01</leafValues></_>
        <_>
          <internalNodes>
            0 -1 722 2.9552221531048417e-04</internalNodes>
          <leafValues>
            1.0157298296689987e-01 -1.7517191171646118e-01</leafValues></_>
        <_>
          <internalNodes>
            0 -1 306 -4.1467729024589062e-03</internalNodes>
          <leafValues>
            1.9159731268882751e-01 -8.4757089614868164e-02</leafValues></_>
        <_>
          <internalNodes>
            0 -1 574 4.0060090832412243e-03</internalNodes>
          <leafValues>
            2.6864444836974144e-02 -6.3427710533142090e-01</leafValues></_>
        <_>
          <internalNodes>
            0 -1 200 -2.4475488811731339e-02</internalNodes>
          <leafValues>
            -2.9526504874229431e-01 5.5351208895444870e-02</leafValues></_>
        <_>
          <internalNodes>
            0 -1 83 -1.5666127204895020e-01</internalNodes>
          <leafValues>
            4.1426643729209900e-01 -4.0627483278512955e-02</leafValues></_>
        <_>
          <internalNodes>
            0 -1 280 8.1274062395095825e-03</internalNodes>
          <leafValues>
            -7.3942646384239197e-02 2.4128529429435730e-01</leafValues></_>
        <_>
          <internalNodes>
            0 -1 178 1.8972937250509858e-03</internalNodes>
          <leafValues>
            -9.1638557612895966e-02 2.3498015105724335e-01</leafValues></_>
        <_>
          <internalNodes>
            0 -1 172 -7.7711790800094604e-03</internalNodes>
          <leafValues>
            -4.5708006620407104e-01 3.7424392998218536e-02</leafValues></_>
        <_>
          <internalNodes>
            0 -1 322 2.9099839739501476e-03</internalNodes>
          <leafValues>
            -7.8991666436195374e-02 2.2119617462158203e-01</leafValues></_>
        <_>
          <internalNodes>
            0 -1 46 1.9496148452162743e-03</internalNodes>
          <leafValues>
            9.5637507736682892e-02 -1.9238360226154327e-01</leafValues></_>
        <_>
          <internalNodes>
            0 -1 587 9.4031880144029856e-04</internalNodes>
          <leafValues>
            -1.3491654396057129e-01 1.2036692351102829e-01</leafValues></_>
        <_>
          <internalNodes>
            0 -1 698 -9.3860493507236242e-04</internalNodes>
          <leafValues>
            -2.2455552220344543e-01 7.8741706907749176e-02</leafValues></_>
        <_>
          <internalNodes>
            0 -1 90 -1.1597219854593277e-02</internalNodes>
          <leafValues>
            3.3443832397460938e-01 -5.1683876663446426e-02</leafValues></_>
        <_>
          <internalNodes>
            0 -1 56 -8.4769308567047119e-02</internalNodes>
          <leafValues>
            5.6498110294342041e-01 -2.9681392014026642e-02</leafValues></_>
        <_>
          <internalNodes>
            0 -1 721 3.4781417343765497e-04</internalNodes>
          <leafValues>
            9.4126619398593903e-02 -1.7409966886043549e-01</leafValues></_>
        <_>
          <internalNodes>
            0 -1 650 -2.0433891564607620e-02</internalNodes>
          <leafValues>
            -3.1241148710250854e-01 5.2175182849168777e-02</leafValues></_>
        <_>
          <internalNodes>
            0 -1 546 -4.5477863750420511e-04</internalNodes>
          <leafValues>
            1.6218867897987366e-01 -1.0922369360923767e-01</leafValues></_>
        <_>
          <internalNodes>
            0 -1 578 -5.6487717665731907e-04</internalNodes>
          <leafValues>
            1.8191248178482056e-01 -1.0170327872037888e-01</leafValues></_>
        <_>
          <internalNodes>
            0 -1 544 -1.2459846213459969e-02</internalNodes>
          <leafValues>
            -4.4419288635253906e-01 4.7669041901826859e-02</leafValues></_>
        <_>
          <internalNodes>
            0 -1 345 -1.4767621178179979e-03</internalNodes>
          <leafValues>
            1.7823676764965057e-01 -1.0643637180328369e-01</leafValues></_>
        <_>
          <internalNodes>
            0 -1 116 2.9507935047149658e-02</internalNodes>
          <leafValues>
            5.6330215185880661e-02 -3.6473092436790466e-01</leafValues></_>
        <_>
          <internalNodes>
            0 -1 576 -1.5230453573167324e-03</internalNodes>
          <leafValues>
            2.1982648968696594e-01 -8.0886669456958771e-02</leafValues></_>
        <_>
          <internalNodes>
            0 -1 233 -2.1474100649356842e-03</internalNodes>
          <leafValues>
            1.9871379435062408e-01 -9.1425172984600067e-02</leafValues></_>
        <_>
          <internalNodes>
            0 -1 331 2.0027738064527512e-03</internalNodes>
          <leafValues>
            -7.6355695724487305e-02 2.8029924631118774e-01</leafValues></_>
        <_>
          <internalNodes>
            0 -1 663 1.2714797630906105e-02</internalNodes>
          <leafValues>
            2.5376299396157265e-02 -8.0378556251525879e-01</leafValues></_>
        <_>
          <internalNodes>
            0 -1 421 -2.2395723499357700e-03</internalNodes>
          <leafValues>
            -3.9839681982994080e-01 3.8405552506446838e-02</leafValues></_>
        <_>
          <internalNodes>
            0 -1 342 6.5356754930689931e-04</internalNodes>
          <leafValues>
            -1.0897585749626160e-01 1.5629211068153381e-01</leafValues></_>
        <_>
          <internalNodes>
            0 -1 733 1.2843936681747437e-02</internalNodes>
          <leafValues>
            -8.2392856478691101e-02 2.1384482085704803e-01</leafValues></_>
        <_>
          <internalNodes>
            0 -1 564 -1.0171104222536087e-02</internalNodes>
          <leafValues>
            1.9764758646488190e-01 -8.8263556361198425e-02</leafValues></_>
        <_>
          <internalNodes>
            0 -1 538 -7.0474580861628056e-03</internalNodes>
          <leafValues>
            -3.2904973626136780e-01 5.4742902517318726e-02</leafValues></_>
        <_>
          <internalNodes>
            0 -1 430 -4.5012040063738823e-03</internalNodes>
          <leafValues>
            -3.5484647750854492e-01 4.9100667238235474e-02</leafValues></_>
        <_>
          <internalNodes>
            0 -1 585 1.1315315961837769e-02</internalNodes>
          <leafValues>
            4.1213963180780411e-02 -3.9838361740112305e-01</leafValues></_>
        <_>
          <internalNodes>
            0 -1 626 1.2297674547880888e-03</internalNodes>
          <leafValues>
            -9.9749200046062469e-02 1.7220634222030640e-01</leafValues></_>
        <_>
          <internalNodes>
            0 -1 659 5.1652628462761641e-04</internalNodes>
          <leafValues>
            -1.0426169633865356e-01 1.9089753925800323e-01</leafValues></_>
        <_>
          <internalNodes>
            0 -1 589 -9.8261376842856407e-04</internalNodes>
          <leafValues>
            1.8642769753932953e-01 -9.9370315670967102e-02</leafValues></_>
        <_>
          <internalNodes>
            0 -1 346 -2.4083997122943401e-03</internalNodes>
          <leafValues>
            2.1725177764892578e-01 -7.8122280538082123e-02</leafValues></_>
        <_>
          <internalNodes>
            0 -1 475 2.2828774526715279e-03</internalNodes>
          <leafValues>
            4.8637297004461288e-02 -3.9355412125587463e-01</leafValues></_>
        <_>
          <internalNodes>
            0 -1 339 3.5176727920770645e-02</internalNodes>
          <leafValues>
            -4.4751204550266266e-02 4.1527158021926880e-01</leafValues></_>
        <_>
          <internalNodes>
            0 -1 488 -7.5030922889709473e-03</internalNodes>
          <leafValues>
            3.1926277279853821e-01 -5.6155089288949966e-02</leafValues></_>
        <_>
          <internalNodes>
            0 -1 142 1.3534894213080406e-02</internalNodes>
          <leafValues>
            2.4801373481750488e-02 -7.1649742126464844e-01</leafValues></_>
        <_>
          <internalNodes>
            0 -1 47 -2.5949351489543915e-02</internalNodes>
          <leafValues>
            4.7124835848808289e-01 -3.8600947707891464e-02</leafValues></_>
        <_>
          <internalNodes>
            0 -1 105 1.4595929533243179e-02</internalNodes>
          <leafValues>
            3.6916010081768036e-02 -4.6299350261688232e-01</leafValues></_>
        <_>
          <internalNodes>
            0 -1 467 2.2697858512401581e-03</internalNodes>
          <leafValues>
            -1.2708918750286102e-01 1.3134111464023590e-01</leafValues></_>
        <_>
          <internalNodes>
            0 -1 597 -1.2246738187968731e-03</internalNodes>
          <leafValues>
            -2.1193818747997284e-01 8.1102289259433746e-02</leafValues></_>
        <_>
          <internalNodes>
            0 -1 207 5.3953118622303009e-03</internalNodes>
          <leafValues>
            -7.2809122502803802e-02 2.3640121519565582e-01</leafValues></_>
        <_>
          <internalNodes>
            0 -1 634 -2.3351650685071945e-02</internalNodes>
          <leafValues>
            5.0381839275360107e-01 -3.0411960557103157e-02</leafValues></_>
        <_>
          <internalNodes>
            0 -1 559 -6.1606825329363346e-04</internalNodes>
          <leafValues>
            2.2394925355911255e-01 -7.7082104980945587e-02</leafValues></_>
        <_>
          <internalNodes>
            0 -1 117 3.7941791117191315e-02</internalNodes>
          <leafValues>
            1.8524231389164925e-02 -8.8320207595825195e-01</leafValues></_>
        <_>
          <internalNodes>
            0 -1 654 -1.1877750977873802e-02</internalNodes>
          <leafValues>
            -3.1753975152969360e-01 4.9067854881286621e-02</leafValues></_>
        <_>
          <internalNodes>
            0 -1 254 -1.3809039955958724e-03</internalNodes>
          <leafValues>
            1.9368085265159607e-01 -8.5276976227760315e-02</leafValues></_>
        <_>
          <internalNodes>
            0 -1 271 -1.9721793942153454e-03</internalNodes>
          <leafValues>
            1.4574442803859711e-01 -1.1498994380235672e-01</leafValues></_>
        <_>
          <internalNodes>
            0 -1 554 1.7859232611954212e-03</internalNodes>
          <leafValues>
            -8.0339841544628143e-02 1.9098436832427979e-01</leafValues></_>
        <_>
          <internalNodes>
            0 -1 195 -4.3160230852663517e-03</internalNodes>
          <leafValues>
            -3.1180542707443237e-01 5.1614306867122650e-02</leafValues></_>
        <_>
          <internalNodes>
            0 -1 42 -6.2228064052760601e-04</internalNodes>
          <leafValues>
            -1.8361158668994904e-01 8.8715322315692902e-02</leafValues></_>
        <_>
          <internalNodes>
            0 -1 395 -8.1667897757142782e-04</internalNodes>
          <leafValues>
            1.6608799993991852e-01 -9.6218980848789215e-02</leafValues></_>
        <_>
          <internalNodes>
            0 -1 160 -4.8417756333947182e-03</internalNodes>
          <leafValues>
            -7.9192501306533813e-01 2.1977946162223816e-02</leafValues></_>
        <_>
          <internalNodes>
            0 -1 340 -7.0442883297801018e-03</internalNodes>
          <leafValues>
            2.0274746417999268e-01 -8.0001093447208405e-02</leafValues></_>
        <_>
          <internalNodes>
            0 -1 232 -3.2667141407728195e-02</internalNodes>
          <leafValues>
            -3.0472812056541443e-01 5.8478638529777527e-02</leafValues></_>
        <_>
          <internalNodes>
            0 -1 253 3.5113487392663956e-03</internalNodes>
          <leafValues>
            2.9506046324968338e-02 -5.6539517641067505e-01</leafValues></_>
        <_>
          <internalNodes>
            0 -1 199 -9.9239181727170944e-03</internalNodes>
          <leafValues>
            2.1990077197551727e-01 -7.8877039253711700e-02</leafValues></_></weakClassifiers></_>
    <!-- stage 4 -->
    <_>
      <maxWeakCount>86</maxWeakCount>
      <stageThreshold>-6.9352996349334717e-01</stageThreshold>
      <weakClassifiers>
        <_>
          <internalNodes>
            0 -1 639 2.0595260430127382e-03</internalNodes>
          <leafValues>
            1.9903787970542908e-01 5.0037395954132080e-01</leafValues></_>
        <_>
          <internalNodes>
            0 -1 175 2.3352727293968201e-02</internalNodes>
          <leafValues>
            -7.8490056097507477e-02 2.6002520322799683e-01</leafValues></_>
        <_>
          <internalNodes>
            0 -1 622 -4.8546008765697479e-03</internalNodes>
          <leafValues>
            1.8585798144340515e-01 -1.1626895517110825e-01</leafValues></_>
        <_>
          <internalNodes>
            0 -1 179 -1.4131817035377026e-02</internalNodes>
          <leafValues>
            2.5645878911018372e-01 -1.0489755868911743e-01</leafValues></_>
        <_>
          <internalNodes>
            0 -1 194 4.7250761417672038e-04</internalNodes>
          <leafValues>
            -1.1816061288118362e-01 1.6910521686077118e-01</leafValues></_>
        <_>
          <internalNodes>
            0 -1 464 -4.2617158032953739e-03</internalNodes>
          <leafValues>
            1.8364283442497253e-01 -1.1744026094675064e-01</leafValues></_>
        <_>
          <internalNodes>
            0 -1 595 -1.4584045857191086e-03</internalNodes>
          <leafValues>
            -2.1044658124446869e-01 8.7147891521453857e-02</leafValues></_>
        <_>
          <internalNodes>
            0 -1 314 8.1472226884216070e-04</internalNodes>
          <leafValues>
            -1.1746034026145935e-01 1.8255017697811127e-01</leafValues></_>
        <_>
          <internalNodes>
            0 -1 394 -7.4469805695116520e-03</internalNodes>
          <leafValues>
            2.4501265585422516e-01 -8.1009224057197571e-02</leafValues></_>
        <_>
          <internalNodes>
            0 -1 448 1.8384948372840881e-02</internalNodes>
          <leafValues>
            7.0729643106460571e-02 -3.6362463235855103e-01</leafValues></_>
        <_>
          <internalNodes>
            0 -1 551 6.0730637051165104e-04</internalNodes>
          <leafValues>
            -1.1214662343263626e-01 2.0216329395771027e-01</leafValues></_>
        <_>
          <internalNodes>
            0 -1 425 -7.5394981540739536e-03</internalNodes>
          <leafValues>
            -6.2837636470794678e-01 3.1717352569103241e-02</leafValues></_>
        <_>
          <internalNodes>
            0 -1 738 4.3240245431661606e-03</internalNodes>
          <leafValues>
            -6.0768641531467438e-02 2.9797676205635071e-01</leafValues></_>
        <_>
          <internalNodes>
            0 -1 692 -1.4774159062653780e-03</internalNodes>
          <leafValues>
            1.7991706728935242e-01 -1.3323345780372620e-01</leafValues></_>
        <_>
          <internalNodes>
            0 -1 625 1.7257058061659336e-03</internalNodes>
          <leafValues>
            -1.3434651494026184e-01 1.6163477301597595e-01</leafValues></_>
        <_>
          <internalNodes>
            0 -1 741 -3.4793196246027946e-03</internalNodes>
          <leafValues>
            -4.1370159387588501e-01 4.4901631772518158e-02</leafValues></_>
        <_>
          <internalNodes>
            0 -1 74 -1.0962819680571556e-02</internalNodes>
          <leafValues>
            2.0959855616092682e-01 -9.2534892261028290e-02</leafValues></_>
        <_>
          <internalNodes>
            0 -1 370 6.5729406196624041e-04</internalNodes>
          <leafValues>
            -1.0557828098535538e-01 1.8677370250225067e-01</leafValues></_>
        <_>
          <internalNodes>
            0 -1 716 3.1505415681749582e-03</internalNodes>
          <leafValues>
            -6.6073782742023468e-02 2.5760060548782349e-01</leafValues></_>
        <_>
          <internalNodes>
            0 -1 688 3.0331965535879135e-03</internalNodes>
          <leafValues>
            -9.5983698964118958e-02 1.9348439574241638e-01</leafValues></_>
        <_>
          <internalNodes>
            0 -1 391 1.6528391279280186e-03</internalNodes>
          <leafValues>
            -7.7276714146137238e-02 2.2569169104099274e-01</leafValues></_>
        <_>
          <internalNodes>
            0 -1 611 8.7656211107969284e-03</internalNodes>
          <leafValues>
            3.8375388830900192e-02 -4.5203840732574463e-01</leafValues></_>
        <_>
          <internalNodes>
            0 -1 312 1.8941707909107208e-02</internalNodes>
          <leafValues>
            2.8543896973133087e-02 -6.4821916818618774e-01</leafValues></_>
        <_>
          <internalNodes>
            0 -1 392 -2.8755280654877424e-03</internalNodes>
          <leafValues>
            2.1226406097412109e-01 -1.0002285242080688e-01</leafValues></_>
        <_>
          <internalNodes>
            0 -1 457 -1.4098393730819225e-03</internalNodes>
          <leafValues>
            2.1145121753215790e-01 -8.7826393544673920e-02</leafValues></_>
        <_>
          <internalNodes>
            0 -1 300 -4.9675755202770233e-02</internalNodes>
          <leafValues>
            -3.9291077852249146e-01 5.0653882324695587e-02</leafValues></_>
        <_>
          <internalNodes>
            0 -1 416 -1.1774332262575626e-02</internalNodes>
          <leafValues>
            2.9717624187469482e-01 -6.3236124813556671e-02</leafValues></_>
        <_>
          <internalNodes>
            0 -1 438 -2.7362648397684097e-03</internalNodes>
          <leafValues>
            1.8418915569782257e-01 -1.1487554013729095e-01</leafValues></_>
        <_>
          <internalNodes>
            0 -1 477 -3.1226940918713808e-03</internalNodes>
          <leafValues>
            -5.0622367858886719e-01 3.4377761185169220e-02</leafValues></_>
        <_>
          <internalNodes>
            0 -1 445 -9.2282122932374477e-04</internalNodes>
          <leafValues>
            2.1135239303112030e-01 -8.5105657577514648e-02</leafValues></_>
        <_>
          <internalNodes>
            0 -1 577 3.9536617696285248e-03</internalNodes>
          <leafValues>
            4.0961235761642456e-02 -4.3652552366256714e-01</leafValues></_>
        <_>
          <internalNodes>
            0 -1 708 4.6470485627651215e-02</internalNodes>
          <leafValues>
            -3.5575285553932190e-02 5.2212655544281006e-01</leafValues></_>
        <_>
          <internalNodes>
            0 -1 2 4.2040270566940308e-01</internalNodes>
          <leafValues>
            -2.1225133910775185e-02 6.7659687995910645e-01</leafValues></_>
        <_>
          <internalNodes>
            0 -1 366 7.7388430945575237e-03</internalNodes>
          <leafValues>
            3.8634069263935089e-02 -4.7883254289627075e-01</leafValues></_>
        <_>
          <internalNodes>
            0 -1 112 -2.4504656903445721e-03</internalNodes>
          <leafValues>
            2.4136242270469666e-01 -6.9500453770160675e-02</leafValues></_>
        <_>
          <internalNodes>
            0 -1 155 1.2512919493019581e-03</internalNodes>
          <leafValues>
            -9.3954011797904968e-02 1.6751061379909515e-01</leafValues></_>
        <_>
          <internalNodes>
            0 -1 219 8.2992372335866094e-04</internalNodes>
          <leafValues>
            -1.0154555737972260e-01 1.6583374142646790e-01</leafValues></_>
        <_>
          <internalNodes>
            0 -1 139 -4.4807214289903641e-03</internalNodes>
          <leafValues>
            -4.2465102672576904e-01 4.2580954730510712e-02</leafValues></_>
        <_>
          <internalNodes>
            0 -1 37 7.5269669294357300e-02</internalNodes>
          <leafValues>
            -3.1216364353895187e-02 5.5770832300186157e-01</leafValues></_>
        <_>
          <internalNodes>
            0 -1 461 1.7795536667108536e-02</internalNodes>
          <leafValues>
            -3.7189979106187820e-02 3.8172388076782227e-01</leafValues></_>
        <_>
          <internalNodes>
            0 -1 298 2.0500252023339272e-02</internalNodes>
          <leafValues>
            2.2759854793548584e-02 -7.5530755519866943e-01</leafValues></_>
        <_>
          <internalNodes>
            0 -1 584 -1.4693731442093849e-02</internalNodes>
          <leafValues>
            -9.0115565061569214e-01 1.2803578749299049e-02</leafValues></_>
        <_>
          <internalNodes>
            0 -1 462 2.9906025156378746e-03</internalNodes>
          <leafValues>
            3.0686862766742706e-02 -4.4970166683197021e-01</leafValues></_>
        <_>
          <internalNodes>
            0 -1 372 -3.5595339722931385e-03</internalNodes>
          <leafValues>
            2.1070647239685059e-01 -8.1838294863700867e-02</leafValues></_>
        <_>
          <internalNodes>
            0 -1 376 2.6884069666266441e-03</internalNodes>
          <leafValues>
            -8.3471290767192841e-02 2.3483255505561829e-01</leafValues></_>
        <_>
          <internalNodes>
            0 -1 141 -6.1379803810268641e-04</internalNodes>
          <leafValues>
            1.4148405194282532e-01 -1.2023425102233887e-01</leafValues></_>
        <_>
          <internalNodes>
            0 -1 15 -1.9466117024421692e-01</internalNodes>
          <leafValues>
            6.0971200466156006e-01 -2.4477709084749222e-02</leafValues></_>
        <_>
          <internalNodes>
            0 -1 533 3.0041462741792202e-04</internalNodes>
          <leafValues>
            -1.1497507989406586e-01 1.4480525255203247e-01</leafValues></_>
        <_>
          <internalNodes>
            0 -1 470 -1.2276740744709969e-03</internalNodes>
          <leafValues>
            1.8639343976974487e-01 -8.6205668747425079e-02</leafValues></_>
        <_>
          <internalNodes>
            0 -1 58 -5.0446238368749619e-02</internalNodes>
          <leafValues>
            5.9582871198654175e-01 -2.5683930143713951e-02</leafValues></_>
        <_>
          <internalNodes>
            0 -1 720 -9.2979404143989086e-04</internalNodes>
          <leafValues>
            -1.4648324251174927e-01 1.1740380525588989e-01</leafValues></_>
        <_>
          <internalNodes>
            0 -1 522 7.3915086686611176e-03</internalNodes>
          <leafValues>
            2.9790079221129417e-02 -5.5867105722427368e-01</leafValues></_>
        <_>
          <internalNodes>
            0 -1 409 8.4382921457290649e-02</internalNodes>
          <leafValues>
            -4.1084289550781250e-02 3.9689141511917114e-01</leafValues></_>
        <_>
          <internalNodes>
            0 -1 217 1.0087215155363083e-01</internalNodes>
          <leafValues>
            2.8786605224013329e-02 -6.5843373537063599e-01</leafValues></_>
        <_>
          <internalNodes>
            0 -1 259 -3.8333255797624588e-02</internalNodes>
          <leafValues>
            -4.0237718820571899e-01 3.5452026873826981e-02</leafValues></_>
        <_>
          <internalNodes>
            0 -1 252 -5.9909373521804810e-02</internalNodes>
          <leafValues>
            -3.3090278506278992e-01 4.6275395900011063e-02</leafValues></_>
        <_>
          <internalNodes>
            0 -1 640 4.6405307948589325e-03</internalNodes>
          <leafValues>
            2.7761334553360939e-02 -4.9212169647216797e-01</leafValues></_>
        <_>
          <internalNodes>
            0 -1 609 9.5620600041002035e-04</internalNodes>
          <leafValues>
            -7.7255919575691223e-02 2.1331408619880676e-01</leafValues></_>
        <_>
          <internalNodes>
            0 -1 523 2.2921718657016754e-02</internalNodes>
          <leafValues>
            2.6593675836920738e-02 -6.6283839941024780e-01</leafValues></_>
        <_>
          <internalNodes>
            0 -1 64 -7.4283227324485779e-02</internalNodes>
          <leafValues>
            5.2599465847015381e-01 -3.6160763353109360e-02</leafValues></_>
        <_>
          <internalNodes>
            0 -1 94 2.9672342352569103e-03</internalNodes>
          <leafValues>
            -7.6851151883602142e-02 2.0241881906986237e-01</leafValues></_>
        <_>
          <internalNodes>
            0 -1 590 -5.2329422906041145e-03</internalNodes>
          <leafValues>
            -7.2120624780654907e-01 2.4334941059350967e-02</leafValues></_>
        <_>
          <internalNodes>
            0 -1 72 -4.7430694103240967e-01</internalNodes>
          <leafValues>
            4.7747656702995300e-01 -3.6605350673198700e-02</leafValues></_>
        <_>
          <internalNodes>
            0 -1 196 -2.0770272240042686e-02</internalNodes>
          <leafValues>
            -4.4907832145690918e-01 4.7096136957406998e-02</leafValues></_>
        <_>
          <internalNodes>
            0 -1 450 -2.4010636843740940e-03</internalNodes>
          <leafValues>
            1.6880778968334198e-01 -1.0276132076978683e-01</leafValues></_>
        <_>
          <internalNodes>
            0 -1 496 -1.0452938731759787e-03</internalNodes>
          <leafValues>
            2.0229557156562805e-01 -8.0888994038105011e-02</leafValues></_>
        <_>
          <internalNodes>
            0 -1 496 6.8727607140317559e-04</internalNodes>
          <leafValues>
            -1.0265218466520309e-01 2.1632446348667145e-01</leafValues></_>
        <_>
          <internalNodes>
            0 -1 414 3.0405651777982712e-02</internalNodes>
          <leafValues>
            3.8537371903657913e-02 -4.7834047675132751e-01</leafValues></_>
        <_>
          <internalNodes>
            0 -1 446 -3.7764813750982285e-03</internalNodes>
          <leafValues>
            1.9485026597976685e-01 -8.6561702191829681e-02</leafValues></_>
        <_>
          <internalNodes>
            0 -1 483 -2.4458926636725664e-03</internalNodes>
          <leafValues>
            1.6055782139301300e-01 -9.9406525492668152e-02</leafValues></_>
        <_>
          <internalNodes>
            0 -1 524 1.8888017162680626e-02</internalNodes>
          <leafValues>
            4.0957994759082794e-02 -4.1273161768913269e-01</leafValues></_>
        <_>
          <internalNodes>
            0 -1 466 -4.8913285136222839e-03</internalNodes>
          <leafValues>
            2.2596301138401031e-01 -7.1186743676662445e-02</leafValues></_>
        <_>
          <internalNodes>
            0 -1 318 4.9469862133264542e-03</internalNodes>
          <leafValues>
            -7.1334473788738251e-02 2.2548875212669373e-01</leafValues></_>
        <_>
          <internalNodes>
            0 -1 321 -3.5537485964596272e-03</internalNodes>
          <leafValues>
            1.7027005553245544e-01 -9.3874044716358185e-02</leafValues></_>
        <_>
          <internalNodes>
            0 -1 343 8.2162320613861084e-03</internalNodes>
          <leafValues>
            -5.1408823579549789e-02 3.0800020694732666e-01</leafValues></_>
        <_>
          <internalNodes>
            0 -1 381 1.0507024824619293e-02</internalNodes>
          <leafValues>
            3.4154124557971954e-02 -4.5552885532379150e-01</leafValues></_>
        <_>
          <internalNodes>
            0 -1 542 -3.8182274438440800e-03</internalNodes>
          <leafValues>
            -4.4957178831100464e-01 3.4128904342651367e-02</leafValues></_>
        <_>
          <internalNodes>
            0 -1 581 -6.3882197719067335e-04</internalNodes>
          <leafValues>
            1.5194495022296906e-01 -1.0596013069152832e-01</leafValues></_>
        <_>
          <internalNodes>
            0 -1 474 -8.9970573782920837e-02</internalNodes>
          <leafValues>
            -5.9772682189941406e-01 2.6170974597334862e-02</leafValues></_>
        <_>
          <internalNodes>
            0 -1 341 1.7647466156631708e-03</internalNodes>
          <leafValues>
            -7.8771404922008514e-02 2.0883028209209442e-01</leafValues></_>
        <_>
          <internalNodes>
            0 -1 452 1.7023913562297821e-02</internalNodes>
          <leafValues>
            3.9000920951366425e-02 -4.9873897433280945e-01</leafValues></_>
        <_>
          <internalNodes>
            0 -1 0 -1.2600611662492156e-03</internalNodes>
          <leafValues>
            -2.6938620209693909e-01 6.0798827558755875e-02</leafValues></_>
        <_>
          <internalNodes>
            0 -1 675 2.0491527393460274e-03</internalNodes>
          <leafValues>
            -8.1667102873325348e-02 2.0961032807826996e-01</leafValues></_>
        <_>
          <internalNodes>
            0 -1 504 1.4542028657160699e-04</internalNodes>
          <leafValues>
            -1.2033975869417191e-01 1.3725890219211578e-01</leafValues></_>
        <_>
          <internalNodes>
            0 -1 44 2.0289171487092972e-02</internalNodes>
          <leafValues>
            8.2368694245815277e-02 -1.9719317555427551e-01</leafValues></_>
        <_>
          <internalNodes>
            0 -1 249 -1.0744670871645212e-03</internalNodes>
          <leafValues>
            1.6403870284557343e-01 -1.0300238430500031e-01</leafValues></_></weakClassifiers></_>
    <!-- stage 5 -->
    <_>
      <maxWeakCount>80</maxWeakCount>
      <stageThreshold>-5.4851418733596802e-01</stageThreshold>
      <weakClassifiers>
        <_>
          <internalNodes>
            0 -1 602 1.0170450434088707e-02</internalNodes>
          <leafValues>
            2.0782959461212158e-01 5.0593823194503784e-01</leafValues></_>
        <_>
          <internalNodes>
            0 -1 180 2.6542749255895615e-02</internalNodes>
          <leafValues>
            -7.1379229426383972e-02 2.7925324440002441e-01</leafValues></_>
        <_>
          <internalNodes>
            0 -1 100 -2.0029903389513493e-03</internalNodes>
          <leafValues>
            1.5267200767993927e-01 -1.3604415953159332e-01</leafValues></_>
        <_>
          <internalNodes>
            0 -1 297 1.1662419419735670e-03</internalNodes>
          <leafValues>
            -1.2119831144809723e-01 2.1850340068340302e-01</leafValues></_>
        <_>
          <internalNodes>
            0 -1 297 -6.2822340987622738e-04</internalNodes>
          <leafValues>
            1.9230087101459503e-01 -1.1211387068033218e-01</leafValues></_>
        <_>
          <internalNodes>
            0 -1 239 -2.4929184466600418e-02</internalNodes>
          <leafValues>
            2.4351215362548828e-01 -7.1389921009540558e-02</leafValues></_>
        <_>
          <internalNodes>
            0 -1 327 -1.2290243059396744e-02</internalNodes>
          <leafValues>
            -5.6421649456024170e-01 3.4505486488342285e-02</leafValues></_>
        <_>
          <internalNodes>
            0 -1 279 2.8733020648360252e-02</internalNodes>
          <leafValues>
            4.0154762566089630e-02 -4.9059823155403137e-01</leafValues></_>
        <_>
          <internalNodes>
            0 -1 435 1.5779264271259308e-02</internalNodes>
          <leafValues>
            4.2151823639869690e-02 -4.1348093748092651e-01</leafValues></_>
        <_>
          <internalNodes>
            0 -1 530 1.1310428380966187e-03</internalNodes>
          <leafValues>
            -1.3436320424079895e-01 1.4941008388996124e-01</leafValues></_>
        <_>
          <internalNodes>
            0 -1 662 1.4923999551683664e-03</internalNodes>
          <leafValues>
            -9.7230948507785797e-02 1.8004578351974487e-01</leafValues></_>
        <_>
          <internalNodes>
            0 -1 601 -1.3737941160798073e-02</internalNodes>
          <leafValues>
            -6.5986448526382446e-01 2.4585345759987831e-02</leafValues></_>
        <_>
          <internalNodes>
            0 -1 12 -1.6243863850831985e-02</internalNodes>
          <leafValues>
            3.3488258719444275e-01 -5.0192963331937790e-02</leafValues></_>
        <_>
          <internalNodes>
            0 -1 91 -2.3649301379919052e-02</internalNodes>
          <leafValues>
            2.7312389016151428e-01 -6.6327236592769623e-02</leafValues></_>
        <_>
          <internalNodes>
            0 -1 49 5.8765262365341187e-02</internalNodes>
          <leafValues>
            -6.1500769108533859e-02 3.1951817870140076e-01</leafValues></_>
        <_>
          <internalNodes>
            0 -1 545 4.5901630073785782e-03</internalNodes>
          <leafValues>
            4.2046606540679932e-02 -4.0357646346092224e-01</leafValues></_>
        <_>
          <internalNodes>
            0 -1 484 3.4186497330665588e-02</internalNodes>
          <leafValues>
            -4.1249010711908340e-02 4.6285346150398254e-01</leafValues></_>
        <_>
          <internalNodes>
            0 -1 158 -7.9169226810336113e-03</internalNodes>
          <leafValues>
            -4.8200291395187378e-01 3.8459639996290207e-02</leafValues></_>
        <_>
          <internalNodes>
            0 -1 268 -4.1061517549678683e-04</internalNodes>
          <leafValues>
            1.5887737274169922e-01 -1.0250247269868851e-01</leafValues></_>
        <_>
          <internalNodes>
            0 -1 319 -2.4941558949649334e-03</internalNodes>
          <leafValues>
            2.0310476422309875e-01 -8.9006029069423676e-02</leafValues></_>
        <_>
          <internalNodes>
            0 -1 558 -3.1713686883449554e-02</internalNodes>
          <leafValues>
            -4.5211035013198853e-01 3.5670854151248932e-02</leafValues></_>
        <_>
          <internalNodes>
            0 -1 734 -4.4236285611987114e-03</internalNodes>
          <leafValues>
            -4.6737688779830933e-01 3.3347912132740021e-02</leafValues></_>
        <_>
          <internalNodes>
            0 -1 308 -4.0201662341132760e-04</internalNodes>
          <leafValues>
            1.4915621280670166e-01 -1.0759805142879486e-01</leafValues></_>
        <_>
          <internalNodes>
            0 -1 67 -4.3493859469890594e-02</internalNodes>
          <leafValues>
            3.1187859177589417e-01 -5.2565556019544601e-02</leafValues></_>
        <_>
          <internalNodes>
            0 -1 717 -9.7136374097317457e-04</internalNodes>
          <leafValues>
            2.0768302679061890e-01 -7.7871300280094147e-02</leafValues></_>
        <_>
          <internalNodes>
            0 -1 742 -1.8994003767147660e-03</internalNodes>
          <leafValues>
            -2.6836597919464111e-01 6.4174145460128784e-02</leafValues></_>
        <_>
          <internalNodes>
            0 -1 188 -4.0365397930145264e-02</internalNodes>
          <leafValues>
            -8.4629601240158081e-01 1.8282413482666016e-02</leafValues></_>
        <_>
          <internalNodes>
            0 -1 69 -1.1405663099139929e-03</internalNodes>
          <leafValues>
            -2.5555610656738281e-01 5.9507314115762711e-02</leafValues></_>
        <_>
          <internalNodes>
            0 -1 125 -1.3737959787249565e-02</internalNodes>
          <leafValues>
            -5.9097188711166382e-01 2.7524834498763084e-02</leafValues></_>
        <_>
          <internalNodes>
            0 -1 651 -4.8948805779218674e-03</internalNodes>
          <leafValues>
            2.7982732653617859e-01 -6.0593340545892715e-02</leafValues></_>
        <_>
          <internalNodes>
            0 -1 652 1.1667548678815365e-03</internalNodes>
          <leafValues>
            -9.8645433783531189e-02 1.7090453207492828e-01</leafValues></_>
        <_>
          <internalNodes>
            0 -1 19 -1.4600612223148346e-02</internalNodes>
          <leafValues>
            2.2415220737457275e-01 -7.0574432611465454e-02</leafValues></_>
        <_>
          <internalNodes>
            0 -1 31 8.5692503489553928e-04</internalNodes>
          <leafValues>
            7.4730768799781799e-02 -2.2051633894443512e-01</leafValues></_>
        <_>
          <internalNodes>
            0 -1 487 -2.4860273115336895e-03</internalNodes>
          <leafValues>
            1.9545559585094452e-01 -8.7459728121757507e-02</leafValues></_>
        <_>
          <internalNodes>
            0 -1 238 -2.2205677814781666e-03</internalNodes>
          <leafValues>
            1.9571501016616821e-01 -8.2453697919845581e-02</leafValues></_>
        <_>
          <internalNodes>
            0 -1 174 -2.2554646711796522e-03</internalNodes>
          <leafValues>
            2.0650808513164520e-01 -9.9229775369167328e-02</leafValues></_>
        <_>
          <internalNodes>
            0 -1 288 -2.5438475422561169e-03</internalNodes>
          <leafValues>
            2.8532621264457703e-01 -5.7819198817014694e-02</leafValues></_>
        <_>
          <internalNodes>
            0 -1 667 -4.0681082755327225e-03</internalNodes>
          <leafValues>
            -4.2652949690818787e-01 3.7934344261884689e-02</leafValues></_>
        <_>
          <internalNodes>
            0 -1 578 -5.8268930297344923e-04</internalNodes>
          <leafValues>
            1.8050909042358398e-01 -9.1820158064365387e-02</leafValues></_>
        <_>
          <internalNodes>
            0 -1 153 7.2703838348388672e-02</internalNodes>
          <leafValues>
            -3.4072298556566238e-02 5.3530836105346680e-01</leafValues></_>
        <_>
          <internalNodes>
            0 -1 598 2.0485618151724339e-03</internalNodes>
          <leafValues>
            9.6231013536453247e-02 -2.0139877498149872e-01</leafValues></_>
        <_>
          <internalNodes>
            0 -1 435 -2.6990793645381927e-02</internalNodes>
          <leafValues>
            -7.3633325099945068e-01 2.0182581618428230e-02</leafValues></_>
        <_>
          <internalNodes>
            0 -1 164 -2.0133463665843010e-02</internalNodes>
          <leafValues>
            -5.6157904863357544e-01 2.5191226974129677e-02</leafValues></_>
        <_>
          <internalNodes>
            0 -1 209 -7.1736755780875683e-03</internalNodes>
          <leafValues>
            -7.2946983575820923e-01 1.9275940954685211e-02</leafValues></_>
        <_>
          <internalNodes>
            0 -1 256 1.7805807292461395e-03</internalNodes>
          <leafValues>
            -1.0588571429252625e-01 1.4867389202117920e-01</leafValues></_>
        <_>
          <internalNodes>
            0 -1 747 -4.5830802991986275e-03</internalNodes>
          <leafValues>
            -6.5805447101593018e-01 2.3427329957485199e-02</leafValues></_>
        <_>
          <internalNodes>
            0 -1 513 -4.4730253517627716e-02</internalNodes>
          <leafValues>
            -4.4755378365516663e-01 3.1278531998395920e-02</leafValues></_>
        <_>
          <internalNodes>
            0 -1 556 -2.6606228202581406e-03</internalNodes>
          <leafValues>
            2.5488880276679993e-01 -5.8867905288934708e-02</leafValues></_>
        <_>
          <internalNodes>
            0 -1 451 1.3314520008862019e-02</internalNodes>
          <leafValues>
            4.0566768497228622e-02 -4.0001514554023743e-01</leafValues></_>
        <_>
          <internalNodes>
            0 -1 693 -7.2875502519309521e-04</internalNodes>
          <leafValues>
            1.5902279317378998e-01 -9.7016625106334686e-02</leafValues></_>
        <_>
          <internalNodes>
            0 -1 573 -4.6616531908512115e-02</internalNodes>
          <leafValues>
            -5.6019836664199829e-01 2.9030065983533859e-02</leafValues></_>
        <_>
          <internalNodes>
            0 -1 690 -4.6663694083690643e-03</internalNodes>
          <leafValues>
            -6.8960911035537720e-01 1.7864234745502472e-02</leafValues></_>
        <_>
          <internalNodes>
            0 -1 108 -6.6800471395254135e-03</internalNodes>
          <leafValues>
            -5.0525641441345215e-01 2.4882959201931953e-02</leafValues></_>
        <_>
          <internalNodes>
            0 -1 548 -6.5697118407115340e-04</internalNodes>
          <leafValues>
            1.8695436418056488e-01 -7.9488441348075867e-02</leafValues></_>
        <_>
          <internalNodes>
            0 -1 140 -5.4233442060649395e-03</internalNodes>
          <leafValues>
            2.0992930233478546e-01 -6.9661334156990051e-02</leafValues></_>
        <_>
          <internalNodes>
            0 -1 133 -1.9003942608833313e-02</internalNodes>
          <leafValues>
            -5.5121284723281860e-01 2.6204697787761688e-02</leafValues></_>
        <_>
          <internalNodes>
            0 -1 490 -1.0148610919713974e-01</internalNodes>
          <leafValues>
            -4.7693654894828796e-01 2.7917483821511269e-02</leafValues></_>
        <_>
          <internalNodes>
            0 -1 635 2.0526746287941933e-02</internalNodes>
          <leafValues>
            -5.7527586817741394e-02 2.6670721173286438e-01</leafValues></_>
        <_>
          <internalNodes>
            0 -1 506 -5.9905974194407463e-04</internalNodes>
          <leafValues>
            1.7151054739952087e-01 -9.0639553964138031e-02</leafValues></_>
        <_>
          <internalNodes>
            0 -1 705 -3.7229065783321857e-03</internalNodes>
          <leafValues>
            2.0712015032768250e-01 -7.6596342027187347e-02</leafValues></_>
        <_>
          <internalNodes>
            0 -1 714 2.1657131146639585e-03</internalNodes>
          <leafValues>
            -9.6463687717914581e-02 1.9758059084415436e-01</leafValues></_>
        <_>
          <internalNodes>
            0 -1 290 -5.9338444843888283e-03</internalNodes>
          <leafValues>
            -7.5382953882217407e-01 2.0396316424012184e-02</leafValues></_>
        <_>
          <internalNodes>
            0 -1 113 -6.0235332697629929e-02</internalNodes>
          <leafValues>
            3.1461811065673828e-01 -4.6863276511430740e-02</leafValues></_>
        <_>
          <internalNodes>
            0 -1 132 -1.9571918528527021e-03</internalNodes>
          <leafValues>
            1.7784172296524048e-01 -8.7627127766609192e-02</leafValues></_>
        <_>
          <internalNodes>
            0 -1 59 3.8606699556112289e-02</internalNodes>
          <leafValues>
            5.7888343930244446e-02 -2.6855212450027466e-01</leafValues></_>
        <_>
          <internalNodes>
            0 -1 649 -5.5898341815918684e-04</internalNodes>
          <leafValues>
            1.5166436135768890e-01 -1.0223401337862015e-01</leafValues></_>
        <_>
          <internalNodes>
            0 -1 614 -3.9431173354387283e-04</internalNodes>
          <leafValues>
            1.6003732383251190e-01 -9.7612462937831879e-02</leafValues></_>
        <_>
          <internalNodes>
            0 -1 669 -3.5321965813636780e-02</internalNodes>
          <leafValues>
            4.4529712200164795e-01 -3.1351145356893539e-02</leafValues></_>
        <_>
          <internalNodes>
            0 -1 242 -5.7886857539415359e-03</internalNodes>
          <leafValues>
            2.7519956231117249e-01 -5.3146522492170334e-02</leafValues></_>
        <_>
          <internalNodes>
            0 -1 502 6.6817537881433964e-03</internalNodes>
          <leafValues>
            2.4373231455683708e-02 -6.5194046497344971e-01</leafValues></_>
        <_>
          <internalNodes>
            0 -1 377 -8.9517384767532349e-03</internalNodes>
          <leafValues>
            2.1935883164405823e-01 -6.8583957850933075e-02</leafValues></_>
        <_>
          <internalNodes>
            0 -1 190 -6.7758604884147644e-02</internalNodes>
          <leafValues>
            -3.2259371876716614e-01 4.8591587692499161e-02</leafValues></_>
        <_>
          <internalNodes>
            0 -1 245 2.6055662892758846e-03</internalNodes>
          <leafValues>
            -9.5608845353126526e-02 1.6400639712810516e-01</leafValues></_>
        <_>
          <internalNodes>
            0 -1 162 6.1260708607733250e-03</internalNodes>
          <leafValues>
            4.1285801678895950e-02 -3.7496483325958252e-01</leafValues></_>
        <_>
          <internalNodes>
            0 -1 227 1.7654901370406151e-02</internalNodes>
          <leafValues>
            4.1923388838768005e-02 -3.7671115994453430e-01</leafValues></_>
        <_>
          <internalNodes>
            0 -1 707 3.3674057573080063e-02</internalNodes>
          <leafValues>
            2.1574337035417557e-02 -6.6687768697738647e-01</leafValues></_>
        <_>
          <internalNodes>
            0 -1 459 -4.0869894437491894e-03</internalNodes>
          <leafValues>
            2.0309133827686310e-01 -8.1610083580017090e-02</leafValues></_>
        <_>
          <internalNodes>
            0 -1 359 -1.0039652697741985e-03</internalNodes>
          <leafValues>
            1.4935886859893799e-01 -1.0250966250896454e-01</leafValues></_>
        <_>
          <internalNodes>
            0 -1 364 4.3886387720704079e-03</internalNodes>
          <leafValues>
            2.4176666513085365e-02 -6.6717076301574707e-01</leafValues></_>
        <_>
          <internalNodes>
            0 -1 657 1.2230935972183943e-03</internalNodes>
          <leafValues>
            -9.0005971491336823e-02 1.6146069765090942e-01</leafValues></_></weakClassifiers></_>
    <!-- stage 6 -->
    <_>
      <maxWeakCount>100</maxWeakCount>
      <stageThreshold>-6.5184813737869263e-01</stageThreshold>
      <weakClassifiers>
        <_>
          <internalNodes>
            0 -1 213 -3.9746586233377457e-02</internalNodes>
          <leafValues>
            5.3242319822311401e-01 2.0568928122520447e-01</leafValues></_>
        <_>
          <internalNodes>
            0 -1 167 3.4684248268604279e-02</internalNodes>
          <leafValues>
            -3.4404780715703964e-02 3.9071819186210632e-01</leafValues></_>
        <_>
          <internalNodes>
            0 -1 10 -4.5648377388715744e-02</internalNodes>
          <leafValues>
            1.8021523952484131e-01 -1.0121992975473404e-01</leafValues></_>
        <_>
          <internalNodes>
            0 -1 535 1.6991791781038046e-03</internalNodes>
          <leafValues>
            -1.1539216339588165e-01 1.4381420612335205e-01</leafValues></_>
        <_>
          <internalNodes>
            0 -1 24 8.9379496872425079e-02</internalNodes>
          <leafValues>
            -4.4509965926408768e-02 3.7192597985267639e-01</leafValues></_>
        <_>
          <internalNodes>
            0 -1 566 -2.4563819169998169e-03</internalNodes>
          <leafValues>
            -4.1575103998184204e-01 3.0311610549688339e-02</leafValues></_>
        <_>
          <internalNodes>
            0 -1 510 -2.3627366870641708e-02</internalNodes>
          <leafValues>
            -3.3957085013389587e-01 4.7843776643276215e-02</leafValues></_>
        <_>
          <internalNodes>
            0 -1 233 -3.2336893491446972e-03</internalNodes>
          <leafValues>
            2.0162755250930786e-01 -8.0853402614593506e-02</leafValues></_>
        <_>
          <internalNodes>
            0 -1 235 -3.5270309308543801e-04</internalNodes>
          <leafValues>
            1.7333643138408661e-01 -9.6788600087165833e-02</leafValues></_>
        <_>
          <internalNodes>
            0 -1 228 -2.9208948835730553e-03</internalNodes>
          <leafValues>
            1.7664010822772980e-01 -9.4585396349430084e-02</leafValues></_>
        <_>
          <internalNodes>
            0 -1 525 -2.0133394747972488e-02</internalNodes>
          <leafValues>
            -6.6855233907699585e-01 2.4777511134743690e-02</leafValues></_>
        <_>
          <internalNodes>
            0 -1 710 9.0993624180555344e-03</internalNodes>
          <leafValues>
            -4.8576354980468750e-02 3.7066164612770081e-01</leafValues></_>
        <_>
          <internalNodes>
            0 -1 455 -5.1533859223127365e-03</internalNodes>
          <leafValues>
            -4.9191385507583618e-01 4.0385302156209946e-02</leafValues></_>
        <_>
          <internalNodes>
            0 -1 592 3.7110294215381145e-03</internalNodes>
          <leafValues>
            -6.2981806695461273e-02 2.5677567720413208e-01</leafValues></_>
        <_>
          <internalNodes>
            0 -1 554 -8.5764108225703239e-03</internalNodes>
          <leafValues>
            -5.7818567752838135e-01 3.0852127820253372e-02</leafValues></_>
        <_>
          <internalNodes>
            0 -1 519 3.3481784164905548e-02</internalNodes>
          <leafValues>
            -7.8403577208518982e-02 2.1182815730571747e-01</leafValues></_>
        <_>
          <internalNodes>
            0 -1 520 -1.5220521017909050e-02</internalNodes>
          <leafValues>
            2.1800574660301208e-01 -8.0359034240245819e-02</leafValues></_>
        <_>
          <internalNodes>
            0 -1 424 6.3986424356698990e-03</internalNodes>
          <leafValues>
            4.3171979486942291e-02 -4.1253545880317688e-01</leafValues></_>
        <_>
          <internalNodes>
            0 -1 744 -1.7294746357947588e-03</internalNodes>
          <leafValues>
            1.4951236546039581e-01 -1.0506899654865265e-01</leafValues></_>
        <_>
          <internalNodes>
            0 -1 656 5.5671669542789459e-04</internalNodes>
          <leafValues>
            -1.2830467522144318e-01 1.3555675745010376e-01</leafValues></_>
        <_>
          <internalNodes>
            0 -1 20 1.6989618539810181e-02</internalNodes>
          <leafValues>
            -2.1727988496422768e-02 7.4923872947692871e-01</leafValues></_>
        <_>
          <internalNodes>
            0 -1 315 -1.8129829550161958e-04</internalNodes>
          <leafValues>
            -1.5284542739391327e-01 1.1171067506074905e-01</leafValues></_>
        <_>
          <internalNodes>
            0 -1 225 4.8125833272933960e-03</internalNodes>
          <leafValues>
            4.4964168220758438e-02 -3.4916037321090698e-01</leafValues></_>
        <_>
          <internalNodes>
            0 -1 115 1.2249030405655503e-03</internalNodes>
          <leafValues>
            -8.7053008377552032e-02 1.9669668376445770e-01</leafValues></_>
        <_>
          <internalNodes>
            0 -1 485 -8.7018113117665052e-04</internalNodes>
          <leafValues>
            1.7585907876491547e-01 -9.0950489044189453e-02</leafValues></_>
        <_>
          <internalNodes>
            0 -1 203 1.9177116453647614e-02</internalNodes>
          <leafValues>
            2.3475933820009232e-02 -7.1529346704483032e-01</leafValues></_>
        <_>
          <internalNodes>
            0 -1 246 -5.2240947261452675e-03</internalNodes>
          <leafValues>
            -5.4358410835266113e-01 2.4892749264836311e-02</leafValues></_>
        <_>
          <internalNodes>
            0 -1 231 1.4540987089276314e-02</internalNodes>
          <leafValues>
            -4.6067345887422562e-02 3.7725761532783508e-01</leafValues></_>
        <_>
          <internalNodes>
            0 -1 557 5.6530553847551346e-03</internalNodes>
          <leafValues>
            -4.4431641697883606e-02 3.3707311749458313e-01</leafValues></_>
        <_>
          <internalNodes>
            0 -1 521 3.8890978321433067e-03</internalNodes>
          <leafValues>
            2.6190077885985374e-02 -6.0619091987609863e-01</leafValues></_>
        <_>
          <internalNodes>
            0 -1 599 8.0943509936332703e-02</internalNodes>
          <leafValues>
            1.5271539799869061e-02 -7.9824519157409668e-01</leafValues></_>
        <_>
          <internalNodes>
            0 -1 234 6.2622483819723129e-03</internalNodes>
          <leafValues>
            7.5049802660942078e-02 -1.9703708589076996e-01</leafValues></_>
        <_>
          <internalNodes>
            0 -1 479 6.4452965743839741e-03</internalNodes>
          <leafValues>
            -6.6756837069988251e-02 2.2321386635303497e-01</leafValues></_>
        <_>
          <internalNodes>
            0 -1 251 -5.4177753627300262e-03</internalNodes>
          <leafValues>
            -6.0500764846801758e-01 2.5499926880002022e-02</leafValues></_>
        <_>
          <internalNodes>
            0 -1 385 -4.2179707088507712e-04</internalNodes>
          <leafValues>
            1.5602181851863861e-01 -9.4677925109863281e-02</leafValues></_>
        <_>
          <internalNodes>
            0 -1 147 2.8105202363803983e-04</internalNodes>
          <leafValues>
            -1.0282153636217117e-01 1.4920872449874878e-01</leafValues></_>
        <_>
          <internalNodes>
            0 -1 281 5.0388430245220661e-03</internalNodes>
          <leafValues>
            2.1922277286648750e-02 -7.1140402555465698e-01</leafValues></_>
        <_>
          <internalNodes>
            0 -1 422 3.8000429049134254e-04</internalNodes>
          <leafValues>
            -1.0136517882347107e-01 1.4282415807247162e-01</leafValues></_>
        <_>
          <internalNodes>
            0 -1 95 -7.5255227275192738e-03</internalNodes>
          <leafValues>
            2.4817901849746704e-01 -5.8427728712558746e-02</leafValues></_>
        <_>
          <internalNodes>
            0 -1 401 1.2480682926252484e-03</internalNodes>
          <leafValues>
            6.1715226620435715e-02 -2.3020893335342407e-01</leafValues></_>
        <_>
          <internalNodes>
            0 -1 469 -9.3899248167872429e-04</internalNodes>
          <leafValues>
            1.6648909449577332e-01 -8.7352707982063293e-02</leafValues></_>
        <_>
          <internalNodes>
            0 -1 243 -2.9489032924175262e-02</internalNodes>
          <leafValues>
            -7.6225107908248901e-01 1.7010482028126717e-02</leafValues></_>
        <_>
          <internalNodes>
            0 -1 617 -1.5201367437839508e-02</internalNodes>
          <leafValues>
            -5.2622759342193604e-01 2.4560801684856415e-02</leafValues></_>
        <_>
          <internalNodes>
            0 -1 240 -5.4429665207862854e-02</internalNodes>
          <leafValues>
            3.7822622060775757e-01 -4.2791426181793213e-02</leafValues></_>
        <_>
          <internalNodes>
            0 -1 642 -2.8589605353772640e-03</internalNodes>
          <leafValues>
            -3.8883280754089355e-01 3.8956407457590103e-02</leafValues></_>
        <_>
          <internalNodes>
            0 -1 745 -2.2585552651435137e-03</internalNodes>
          <leafValues>
            -2.5898125767707825e-01 5.1674664020538330e-02</leafValues></_>
        <_>
          <internalNodes>
            0 -1 148 -3.6822918802499771e-02</internalNodes>
          <leafValues>
            -6.7597234249114990e-01 1.9756359979510307e-02</leafValues></_>
        <_>
          <internalNodes>
            0 -1 661 1.1483058333396912e-03</internalNodes>
          <leafValues>
            -8.9976765215396881e-02 1.6219119727611542e-01</leafValues></_>
        <_>
          <internalNodes>
            0 -1 665 -1.1042255209758878e-03</internalNodes>
          <leafValues>
            1.9980554282665253e-01 -7.4218168854713440e-02</leafValues></_>
        <_>
          <internalNodes>
            0 -1 32 -1.7430686857551336e-03</internalNodes>
          <leafValues>
            -1.7935420572757721e-01 8.2317419350147247e-02</leafValues></_>
        <_>
          <internalNodes>
            0 -1 493 -1.4739056350663304e-03</internalNodes>
          <leafValues>
            1.6307550668716431e-01 -9.0941421687602997e-02</leafValues></_>
        <_>
          <internalNodes>
            0 -1 361 -4.4021103531122208e-03</internalNodes>
          <leafValues>
            2.0723670721054077e-01 -6.3677757978439331e-02</leafValues></_>
        <_>
          <internalNodes>
            0 -1 397 1.9414256094023585e-03</internalNodes>
          <leafValues>
            -7.6816737651824951e-02 2.0135968923568726e-01</leafValues></_>
        <_>
          <internalNodes>
            0 -1 668 -4.3883933685719967e-03</internalNodes>
          <leafValues>
            -3.9701426029205322e-01 3.5612981766462326e-02</leafValues></_>
        <_>
          <internalNodes>
            0 -1 138 1.2323752045631409e-01</internalNodes>
          <leafValues>
            1.8221577629446983e-02 -7.3521673679351807e-01</leafValues></_>
        <_>
          <internalNodes>
            0 -1 269 1.6149349510669708e-02</internalNodes>
          <leafValues>
            2.9650419950485229e-02 -4.5523181557655334e-01</leafValues></_>
        <_>
          <internalNodes>
            0 -1 202 6.5988982096314430e-03</internalNodes>
          <leafValues>
            2.1921334788203239e-02 -5.8365106582641602e-01</leafValues></_>
        <_>
          <internalNodes>
            0 -1 114 -8.8028213940560818e-04</internalNodes>
          <leafValues>
            1.5569601953029633e-01 -9.3756124377250671e-02</leafValues></_>
        <_>
          <internalNodes>
            0 -1 265 -1.7807257827371359e-03</internalNodes>
          <leafValues>
            1.4619006216526031e-01 -9.7778797149658203e-02</leafValues></_>
        <_>
          <internalNodes>
            0 -1 501 1.9688466563820839e-03</internalNodes>
          <leafValues>
            -1.0458589345216751e-01 1.4206352829933167e-01</leafValues></_>
        <_>
          <internalNodes>
            0 -1 427 -4.3400496244430542e-02</internalNodes>
          <leafValues>
            -2.9559692740440369e-01 5.1630962640047073e-02</leafValues></_>
        <_>
          <internalNodes>
            0 -1 418 -3.0104637145996094e-02</internalNodes>
          <leafValues>
            3.3188152313232422e-01 -4.6070300042629242e-02</leafValues></_>
        <_>
          <internalNodes>
            0 -1 332 1.4022092334926128e-02</internalNodes>
          <leafValues>
            -7.0034570991992950e-02 2.1445699036121368e-01</leafValues></_>
        <_>
          <internalNodes>
            0 -1 255 6.6755283623933792e-03</internalNodes>
          <leafValues>
            2.1944837644696236e-02 -6.8428182601928711e-01</leafValues></_>
        <_>
          <internalNodes>
            0 -1 291 2.6401432696729898e-03</internalNodes>
          <leafValues>
            -6.8680994212627411e-02 2.1933740377426147e-01</leafValues></_>
        <_>
          <internalNodes>
            0 -1 423 -5.2216835319995880e-03</internalNodes>
          <leafValues>
            -5.7869380712509155e-01 2.7365401387214661e-02</leafValues></_>
        <_>
          <internalNodes>
            0 -1 505 -6.8351486697793007e-04</internalNodes>
          <leafValues>
            1.8349033594131470e-01 -8.7474852800369263e-02</leafValues></_>
        <_>
          <internalNodes>
            0 -1 454 -2.3162118159234524e-03</internalNodes>
          <leafValues>
            1.8120713531970978e-01 -8.1287682056427002e-02</leafValues></_>
        <_>
          <internalNodes>
            0 -1 311 5.1235789433121681e-03</internalNodes>
          <leafValues>
            1.9136581569910049e-02 -7.6271277666091919e-01</leafValues></_>
        <_>
          <internalNodes>
            0 -1 517 -9.5994947478175163e-03</internalNodes>
          <leafValues>
            -9.2946052551269531e-01 1.2171531096100807e-02</leafValues></_>
        <_>
          <internalNodes>
            0 -1 645 -1.2358314124867320e-03</internalNodes>
          <leafValues>
            1.6698883473873138e-01 -8.6910240352153778e-02</leafValues></_>
        <_>
          <internalNodes>
            0 -1 198 4.6410532668232918e-03</internalNodes>
          <leafValues>
            3.8306187838315964e-02 -3.6103615164756775e-01</leafValues></_>
        <_>
          <internalNodes>
            0 -1 508 -2.2094396874308586e-02</internalNodes>
          <leafValues>
            1.6674643754959106e-01 -8.4710679948329926e-02</leafValues></_>
        <_>
          <internalNodes>
            0 -1 468 1.0622037574648857e-02</internalNodes>
          <leafValues>
            -5.9605587273836136e-02 2.5298765301704407e-01</leafValues></_>
        <_>
          <internalNodes>
            0 -1 723 8.8664470240473747e-04</internalNodes>
          <leafValues>
            7.0940978825092316e-02 -2.1072797477245331e-01</leafValues></_>
        <_>
          <internalNodes>
            0 -1 146 -3.0630039982497692e-03</internalNodes>
          <leafValues>
            2.5003692507743835e-01 -5.8202125132083893e-02</leafValues></_>
        <_>
          <internalNodes>
            0 -1 384 2.9107559472322464e-02</internalNodes>
          <leafValues>
            3.2264191657304764e-02 -4.7254058718681335e-01</leafValues></_>
        <_>
          <internalNodes>
            0 -1 583 1.4612412778660655e-03</internalNodes>
          <leafValues>
            -8.7692275643348694e-02 1.7059944570064545e-01</leafValues></_>
        <_>
          <internalNodes>
            0 -1 616 -4.3365070596337318e-03</internalNodes>
          <leafValues>
            -4.5038148760795593e-01 3.2220240682363510e-02</leafValues></_>
        <_>
          <internalNodes>
            0 -1 352 -4.0649168659001589e-04</internalNodes>
          <leafValues>
            1.3935339450836182e-01 -1.0105503350496292e-01</leafValues></_>
        <_>
          <internalNodes>
            0 -1 449 3.5268608480691910e-03</internalNodes>
          <leafValues>
            -6.5895631909370422e-02 2.3017685115337372e-01</leafValues></_>
        <_>
          <internalNodes>
