<?xml version="1.0"?>
<opencv_storage>
<cascade>
  <stageType>BOOST</stageType>
  <featureType>HAAR</featureType>
  <height>20</height>
  <width>20</width>
  <stageParams>
    <boostType>GAB</boostType>
    <minHitRate>9.9500000476837158e-01</minHitRate>
    <maxFalseAlarm>5.0000000000000000e-01</maxFalseAlarm>
    <weightTrimRate>9.4999999999999996e-01</weightTrimRate>
    <maxDepth>1</maxDepth>
    <maxWeakCount>100</maxWeakCount></stageParams>
  <featureParams>
    <maxCatCount>0</maxCatCount>
    <featSize>1</featSize>
    <mode>BASIC</mode></featureParams>
  <stageNum>8</stageNum>
  <stages>
    <!-- stage 0 -->
    <_>
      <maxWeakCount>10</maxWeakCount>
      <stageThreshold>-1.2115510702133179e+00</stageThreshold>
      <weakClassifiers>
        <_>
          <internalNodes>
            0 -1 100 1.2221222743391991e-02</internalNodes>
          <leafValues>
            -4.0445268154144287e-01 7.4713838100433350e-01</leafValues></_>
        <_>
          <internalNodes>
            0 -1 21 1.8310941755771637e-02</internalNodes>
          <leafValues>
            -4.9062135815620422e-01 4.7799277305603027e-01</leafValues></_>
        <_>
          <internalNodes>
            0 -1 94 2.0471063908189535e-03</internalNodes>
          <leafValues>
            -4.6221357583999634e-01 4.3334245681762695e-01</leafValues></_>
        <_>
          <internalNodes>
            0 -1 153 1.2363505084067583e-03</internalNodes>
          <leafValues>
            -4.0240034461021423e-01 4.1189017891883850e-01</leafValues></_>
        <_>
          <internalNodes>
            0 -1 57 4.8980474472045898e-02</internalNodes>
          <leafValues>
            -2.3010773956775665e-01 5.0824660062789917e-01</leafValues></_>
        <_>
          <internalNodes>
            0 -1 33 -1.0041669942438602e-02</internalNodes>
          <leafValues>
            3.9824438095092773e-01 -2.6963809132575989e-01</leafValues></_>
        <_>
          <internalNodes>
            0 -1 4 -2.0393125712871552e-02</internalNodes>
          <leafValues>
            5.7426035404205322e-01 -1.7652055621147156e-01</leafValues></_>
        <_>
          <internalNodes>
            0 -1 213 -9.1688772663474083e-03</internalNodes>
          <leafValues>
            6.2283700704574585e-01 -1.7549787461757660e-01</leafValues></_>
        <_>
          <internalNodes>
            0 -1 26 1.5172802377492189e-03</internalNodes>
          <leafValues>
            -1.7154161632061005e-01 4.5576909184455872e-01</leafValues></_>
        <_>
          <internalNodes>
            0 -1 31 -3.2369557768106461e-02</internalNodes>
          <leafValues>
            6.2962239980697632e-01 -1.3840383291244507e-01</leafValues></_></weakClassifiers></_>
    <!-- stage 1 -->
    <_>
      <maxWeakCount>18</maxWeakCount>
      <stageThreshold>-1.1147660017013550e+00</stageThreshold>
      <weakClassifiers>
        <_>
          <internalNodes>
            0 -1 141 3.9412435144186020e-03</internalNodes>
          <leafValues>
            -2.4106325209140778e-01 6.6160291433334351e-01</leafValues></_>
        <_>
          <internalNodes>
            0 -1 90 3.6203879863023758e-03</internalNodes>
          <leafValues>
            -3.2117286324501038e-01 4.2038816213607788e-01</leafValues></_>
        <_>
          <internalNodes>
            0 -1 52 1.6527917236089706e-02</internalNodes>
          <leafValues>
            -3.0598667263984680e-01 4.1705015301704407e-01</leafValues></_>
        <_>
          <internalNodes>
            0 -1 211 6.9789323024451733e-03</internalNodes>
          <leafValues>
            -1.9599172472953796e-01 6.3195526599884033e-01</leafValues></_>
        <_>
          <internalNodes>
            0 -1 115 8.3471750840544701e-03</internalNodes>
          <leafValues>
            -2.2509524226188660e-01 4.9509307742118835e-01</leafValues></_>
        <_>
          <internalNodes>
            0 -1 196 -2.3808807134628296e-02</internalNodes>
          <leafValues>
            5.3512412309646606e-01 -1.7770193517208099e-01</leafValues></_>
        <_>
          <internalNodes>
            0 -1 41 -2.2493484430015087e-03</internalNodes>
          <leafValues>
            4.0361419320106506e-01 -2.2919514775276184e-01</leafValues></_>
        <_>
          <internalNodes>
            0 -1 10 -1.9050515256822109e-03</internalNodes>
          <leafValues>
            3.6514118313789368e-01 -2.2026912868022919e-01</leafValues></_>
        <_>
          <internalNodes>
            0 -1 203 2.6285916101187468e-03</internalNodes>
          <leafValues>
            -1.7481952905654907e-01 3.8837516307830811e-01</leafValues></_>
        <_>
          <internalNodes>
            0 -1 163 -8.6427610367536545e-03</internalNodes>
          <leafValues>
            -4.7737032175064087e-01 1.6142304241657257e-01</leafValues></_>
        <_>
          <internalNodes>
            0 -1 59 3.7891112733632326e-03</internalNodes>
          <leafValues>
            -1.9636234641075134e-01 3.6762550473213196e-01</leafValues></_>
        <_>
          <internalNodes>
            0 -1 46 -1.8835152732208371e-03</internalNodes>
          <leafValues>
            4.4289559125900269e-01 -1.7484609782695770e-01</leafValues></_>
        <_>
          <internalNodes>
            0 -1 50 -8.2062743604183197e-03</internalNodes>
          <leafValues>
            4.2938405275344849e-01 -1.6085535287857056e-01</leafValues></_>
        <_>
          <internalNodes>
            0 -1 37 9.0848587453365326e-02</internalNodes>
          <leafValues>
            -1.1139138042926788e-01 6.4731669425964355e-01</leafValues></_>
        <_>
          <internalNodes>
            0 -1 27 -4.1038192808628082e-02</internalNodes>
          <leafValues>
            4.8651471734046936e-01 -1.6572949290275574e-01</leafValues></_>
        <_>
          <internalNodes>
            0 -1 126 9.7670161630958319e-04</internalNodes>
          <leafValues>
            -2.4517236649990082e-01 2.7756136655807495e-01</leafValues></_>
        <_>
          <internalNodes>
            0 -1 96 2.1181588992476463e-02</internalNodes>
          <leafValues>
            8.9419029653072357e-02 -8.5536849498748779e-01</leafValues></_>
        <_>
          <internalNodes>
            0 -1 146 -1.3414002023637295e-03</internalNodes>
          <leafValues>
            2.8454643487930298e-01 -2.4176403880119324e-01</leafValues></_></weakClassifiers></_>
    <!-- stage 2 -->
    <_>
      <maxWeakCount>26</maxWeakCount>
      <stageThreshold>-1.1612992286682129e+00</stageThreshold>
      <weakClassifiers>
        <_>
          <internalNodes>
            0 -1 101 2.5374393910169601e-02</internalNodes>
          <leafValues>
            -2.3652365803718567e-01 5.8106172084808350e-01</leafValues></_>
        <_>
          <internalNodes>
            0 -1 154 4.6407003537751734e-05</internalNodes>
          <leafValues>
            -4.2129966616630554e-01 3.2964166998863220e-01</leafValues></_>
        <_>
          <internalNodes>
            0 -1 56 -1.1369875632226467e-02</internalNodes>
          <leafValues>
            5.7711613178253174e-01 -1.8663059175014496e-01</leafValues></_>
        <_>
          <internalNodes>
            0 -1 215 -7.4529331177473068e-03</internalNodes>
          <leafValues>
            5.3473830223083496e-01 -1.6006658971309662e-01</leafValues></_>
        <_>
          <internalNodes>
            0 -1 5 -9.5409816130995750e-03</internalNodes>
          <leafValues>
            3.8334593176841736e-01 -2.2700463235378265e-01</leafValues></_>
        <_>
          <internalNodes>
            0 -1 70 7.8484788537025452e-03</internalNodes>
          <leafValues>
            -2.7495661377906799e-01 2.5872498750686646e-01</leafValues></_>
        <_>
          <internalNodes>
            0 -1 127 2.8073056600987911e-03</internalNodes>
          <leafValues>
            -2.5163832306861877e-01 2.7614730596542358e-01</leafValues></_>
        <_>
          <internalNodes>
            0 -1 69 -7.4523822404444218e-03</internalNodes>
          <leafValues>
            3.1246876716613770e-01 -2.0610034465789795e-01</leafValues></_>
        <_>
          <internalNodes>
            0 -1 1 1.2320030480623245e-02</internalNodes>
          <leafValues>
            -1.4319369196891785e-01 4.7816473245620728e-01</leafValues></_>
        <_>
          <internalNodes>
            0 -1 66 -1.9015544094145298e-03</internalNodes>
          <leafValues>
            3.5285693407058716e-01 -1.6676951944828033e-01</leafValues></_>
        <_>
          <internalNodes>
            0 -1 140 2.5475847069174051e-03</internalNodes>
          <leafValues>
            9.4952575862407684e-02 -7.2342610359191895e-01</leafValues></_>
        <_>
          <internalNodes>
            0 -1 34 3.1386665068566799e-03</internalNodes>
          <leafValues>
            -1.7940983176231384e-01 3.5962545871734619e-01</leafValues></_>
        <_>
          <internalNodes>
            0 -1 144 -9.2366887256503105e-03</internalNodes>
          <leafValues>
            -7.1709543466567993e-01 9.4730272889137268e-02</leafValues></_>
        <_>
          <internalNodes>
            0 -1 161 -2.4156534345820546e-04</internalNodes>
          <leafValues>
            2.2274942696094513e-01 -2.8884911537170410e-01</leafValues></_>
        <_>
          <internalNodes>
            0 -1 48 1.4548305422067642e-02</internalNodes>
          <leafValues>
            -1.6314156353473663e-01 3.5476371645927429e-01</leafValues></_>
        <_>
          <internalNodes>
            0 -1 117 -5.8381538838148117e-03</internalNodes>
          <leafValues>
            4.0948656201362610e-01 -1.5068301558494568e-01</leafValues></_>
        <_>
          <internalNodes>
            0 -1 6 -1.4210841618478298e-02</internalNodes>
          <leafValues>
            3.0312567949295044e-01 -1.8517935276031494e-01</leafValues></_>
        <_>
          <internalNodes>
            0 -1 137 -2.5159781798720360e-03</internalNodes>
          <leafValues>
            2.2282938659191132e-01 -2.6638409495353699e-01</leafValues></_>
        <_>
          <internalNodes>
            0 -1 185 -3.8180644623935223e-03</internalNodes>
          <leafValues>
            -6.7883151769638062e-01 9.1027162969112396e-02</leafValues></_>
        <_>
          <internalNodes>
            0 -1 201 -3.0280719511210918e-03</internalNodes>
          <leafValues>
            -8.1214678287506104e-01 5.8855805546045303e-02</leafValues></_>
        <_>
          <internalNodes>
            0 -1 44 1.1208115611225367e-03</internalNodes>
          <leafValues>
            -3.9564615488052368e-01 1.3097853958606720e-01</leafValues></_>
        <_>
          <internalNodes>
            0 -1 114 2.0239148288965225e-02</internalNodes>
          <leafValues>
            9.2099785804748535e-02 -5.4613375663757324e-01</leafValues></_>
        <_>
          <internalNodes>
            0 -1 94 2.0959801040589809e-03</internalNodes>
          <leafValues>
            -2.6532983779907227e-01 2.0659767091274261e-01</leafValues></_>
        <_>
          <internalNodes>
            0 -1 123 4.3050955981016159e-02</internalNodes>
          <leafValues>
            8.8873878121376038e-02 -6.6360580921173096e-01</leafValues></_>
        <_>
          <internalNodes>
            0 -1 188 4.2671435512602329e-03</internalNodes>
          <leafValues>
            -2.1368138492107391e-01 3.0544933676719666e-01</leafValues></_>
        <_>
          <internalNodes>
            0 -1 188 -1.7447650432586670e-02</internalNodes>
          <leafValues>
            5.9085536003112793e-01 -8.7805733084678650e-02</leafValues></_></weakClassifiers></_>
    <!-- stage 3 -->
    <_>
      <maxWeakCount>25</maxWeakCount>
      <stageThreshold>-9.9835723638534546e-01</stageThreshold>
      <weakClassifiers>
        <_>
          <internalNodes>
            0 -1 109 3.2413511071354151e-03</internalNodes>
          <leafValues>
            -1.4641288667917252e-02 6.2423503398895264e-01</leafValues></_>
        <_>
          <internalNodes>
            0 -1 168 1.0090308496728539e-03</internalNodes>
          <leafValues>
            -2.9466736316680908e-01 3.8892760872840881e-01</leafValues></_>
        <_>
          <internalNodes>
            0 -1 64 1.2137498706579208e-02</internalNodes>
          <leafValues>
            -3.4395119547843933e-01 2.8179982304573059e-01</leafValues></_>
        <_>
          <internalNodes>
            0 -1 128 1.6015107976272702e-03</internalNodes>
          <leafValues>
            -3.9326691627502441e-01 2.4954827129840851e-01</leafValues></_>
        <_>
          <internalNodes>
            0 -1 139 1.2395609170198441e-02</internalNodes>
          <leafValues>
            -3.1684166193008423e-01 1.8609434366226196e-01</leafValues></_>
        <_>
          <internalNodes>
            0 -1 39 5.3012371063232422e-02</internalNodes>
          <leafValues>
            -1.0439829528331757e-01 5.5687153339385986e-01</leafValues></_>
        <_>
          <internalNodes>
            0 -1 14 -7.8150883316993713e-02</internalNodes>
          <leafValues>
            4.5757943391799927e-01 -1.4936161041259766e-01</leafValues></_>
        <_>
          <internalNodes>
            0 -1 80 -1.0510291904211044e-02</internalNodes>
          <leafValues>
            5.4507380723953247e-01 -1.0593052208423615e-01</leafValues></_>
        <_>
          <internalNodes>
            0 -1 19 -4.2483834549784660e-03</internalNodes>
          <leafValues>
            3.8948020339012146e-01 -1.6412143409252167e-01</leafValues></_>
        <_>
          <internalNodes>
            0 -1 7 -2.3261844180524349e-03</internalNodes>
          <leafValues>
            3.7990248203277588e-01 -1.8336957693099976e-01</leafValues></_>
        <_>
          <internalNodes>
            0 -1 178 5.3034052252769470e-03</internalNodes>
          <leafValues>
            8.0743543803691864e-02 -7.7370232343673706e-01</leafValues></_>
        <_>
          <internalNodes>
            0 -1 204 1.3548692222684622e-03</internalNodes>
          <leafValues>
            -2.1470077335834503e-01 2.8100937604904175e-01</leafValues></_>
        <_>
          <internalNodes>
            0 -1 194 -5.5627850815653801e-03</internalNodes>
          <leafValues>
            4.3902587890625000e-01 -1.4922882616519928e-01</leafValues></_>
        <_>
          <internalNodes>
            0 -1 151 1.1151455342769623e-02</internalNodes>
          <leafValues>
            7.3130846023559570e-02 -8.2866120338439941e-01</leafValues></_>
        <_>
          <internalNodes>
            0 -1 133 5.9638044331222773e-04</internalNodes>
          <leafValues>
            -2.2938098013401031e-01 2.6186290383338928e-01</leafValues></_>
        <_>
          <internalNodes>
            0 -1 51 2.7504771947860718e-02</internalNodes>
          <leafValues>
            -9.3975149095058441e-02 5.7204395532608032e-01</leafValues></_>
        <_>
          <internalNodes>
            0 -1 200 1.8771871924400330e-02</internalNodes>
          <leafValues>
            9.0575650334358215e-02 -6.6263139247894287e-01</leafValues></_>
        <_>
          <internalNodes>
            0 -1 189 1.4077065512537956e-02</internalNodes>
          <leafValues>
            8.0725856125354767e-02 -6.8872994184494019e-01</leafValues></_>
        <_>
          <internalNodes>
            0 -1 35 -3.6203558556735516e-03</internalNodes>
          <leafValues>
            2.5442647933959961e-01 -2.0865891873836517e-01</leafValues></_>
        <_>
          <internalNodes>
            0 -1 147 1.9739516079425812e-02</internalNodes>
          <leafValues>
            6.6472351551055908e-02 -7.8683280944824219e-01</leafValues></_>
        <_>
          <internalNodes>
            0 -1 134 4.6416465193033218e-03</internalNodes>
          <leafValues>
            5.7983227074146271e-02 -6.7810857295989990e-01</leafValues></_>
        <_>
          <internalNodes>
            0 -1 170 7.4429786764085293e-04</internalNodes>
          <leafValues>
            -2.4115599691867828e-01 2.2975996136665344e-01</leafValues></_>
        <_>
          <internalNodes>
            0 -1 72 -3.1456053256988525e-02</internalNodes>
          <leafValues>
            4.4764184951782227e-01 -1.3355979323387146e-01</leafValues></_>
        <_>
          <internalNodes>
            0 -1 20 -2.9711585491895676e-02</internalNodes>
          <leafValues>
            -7.1471750736236572e-01 8.0006532371044159e-02</leafValues></_>
        <_>
          <internalNodes>
            0 -1 205 4.1298642754554749e-03</internalNodes>
          <leafValues>
            6.5966770052909851e-02 -6.6961765289306641e-01</leafValues></_></weakClassifiers></_>
    <!-- stage 4 -->
    <_>
      <maxWeakCount>33</maxWeakCount>
      <stageThreshold>-1.0297483205795288e+00</stageThreshold>
      <weakClassifiers>
        <_>
          <internalNodes>
            0 -1 89 -6.6471314057707787e-03</internalNodes>
          <leafValues>
            5.9770113229751587e-01 -3.1746033579111099e-02</leafValues></_>
        <_>
          <internalNodes>
            0 -1 162 -3.7478420417755842e-03</internalNodes>
          <leafValues>
            -6.5079492330551147e-01 1.9506864249706268e-01</leafValues></_>
        <_>
          <internalNodes>
            0 -1 186 1.3526373077183962e-03</internalNodes>
          <leafValues>
            -2.7791514992713928e-01 3.1117808818817139e-01</leafValues></_>
        <_>
          <internalNodes>
            0 -1 81 -7.9895965754985809e-03</internalNodes>
          <leafValues>
            4.6256157755851746e-01 -1.8392509222030640e-01</leafValues></_>
        <_>
          <internalNodes>
            0 -1 206 1.4417455531656742e-03</internalNodes>
          <leafValues>
            -2.8374564647674561e-01 3.1836453080177307e-01</leafValues></_>
        <_>
          <internalNodes>
            0 -1 104 -3.8680735975503922e-02</internalNodes>
          <leafValues>
            -5.6522482633590698e-01 1.2544791400432587e-01</leafValues></_>
        <_>
          <internalNodes>
            0 -1 211 8.6917318403720856e-03</internalNodes>
          <leafValues>
            -1.4044529199600220e-01 4.3905702233314514e-01</leafValues></_>
        <_>
          <internalNodes>
            0 -1 105 1.8796863034367561e-02</internalNodes>
          <leafValues>
            -2.7993604540824890e-01 1.9154630601406097e-01</leafValues></_>
        <_>
          <internalNodes>
            0 -1 9 -5.0054565072059631e-03</internalNodes>
          <leafValues>
            3.0590814352035522e-01 -1.8720614910125732e-01</leafValues></_>
        <_>
          <internalNodes>
            0 -1 93 3.8627162575721741e-03</internalNodes>
          <leafValues>
            6.6871352493762970e-02 -6.5893781185150146e-01</leafValues></_>
        <_>
          <internalNodes>
            0 -1 142 5.3569562733173370e-03</internalNodes>
          <leafValues>
            6.7406952381134033e-02 -7.1834111213684082e-01</leafValues></_>
        <_>
          <internalNodes>
            0 -1 2 1.2394676916301250e-02</internalNodes>
          <leafValues>
            -1.2316888570785522e-01 4.5248341560363770e-01</leafValues></_>
        <_>
          <internalNodes>
            0 -1 36 4.3292552232742310e-02</internalNodes>
          <leafValues>
            -1.4850559830665588e-01 3.3736133575439453e-01</leafValues></_>
        <_>
          <internalNodes>
            0 -1 79 1.5616635791957378e-03</internalNodes>
          <leafValues>
            -2.3619861900806427e-01 2.7360558509826660e-01</leafValues></_>
        <_>
          <internalNodes>
            0 -1 113 -3.9846170693635941e-03</internalNodes>
          <leafValues>
            3.3791619539260864e-01 -1.3507461547851562e-01</leafValues></_>
        <_>
          <internalNodes>
            0 -1 95 -7.4967890977859497e-03</internalNodes>
          <leafValues>
            -5.4530209302902222e-01 9.4504363834857941e-02</leafValues></_>
        <_>
          <internalNodes>
            0 -1 63 -1.6389030963182449e-02</internalNodes>
          <leafValues>
            4.4839447736740112e-01 -1.0072936862707138e-01</leafValues></_>
        <_>
          <internalNodes>
            0 -1 185 -5.1862071268260479e-03</internalNodes>
          <leafValues>
            -7.1009242534637451e-01 6.9756753742694855e-02</leafValues></_>
        <_>
          <internalNodes>
            0 -1 198 -1.8227431923151016e-02</internalNodes>
          <leafValues>
            2.5378239154815674e-01 -1.7700721323490143e-01</leafValues></_>
        <_>
          <internalNodes>
            0 -1 149 1.0952536016702652e-02</internalNodes>
          <leafValues>
            5.3496222943067551e-02 -8.9621418714523315e-01</leafValues></_>
        <_>
          <internalNodes>
            0 -1 131 1.1939322575926781e-03</internalNodes>
          <leafValues>
            -2.2273582220077515e-01 1.9451934099197388e-01</leafValues></_>
        <_>
          <internalNodes>
            0 -1 118 -7.7293184585869312e-03</internalNodes>
          <leafValues>
            3.8891169428825378e-01 -1.0522368550300598e-01</leafValues></_>
        <_>
          <internalNodes>
            0 -1 76 -1.0845301672816277e-02</internalNodes>
          <leafValues>
            2.9404807090759277e-01 -2.0470377802848816e-01</leafValues></_>
        <_>
          <internalNodes>
            0 -1 180 -8.2142138853669167e-03</internalNodes>
          <leafValues>
            -7.5026655197143555e-01 5.8080557733774185e-02</leafValues></_>
        <_>
          <internalNodes>
            0 -1 160 -5.4691354744136333e-03</internalNodes>
          <leafValues>
            -4.0795889496803284e-01 1.0444576293230057e-01</leafValues></_>
        <_>
          <internalNodes>
            0 -1 210 9.4563374295830727e-04</internalNodes>
          <leafValues>
            -1.7720307409763336e-01 2.5088077783584595e-01</leafValues></_>
        <_>
          <internalNodes>
            0 -1 121 -1.2085416819900274e-03</internalNodes>
          <leafValues>
            2.6012235879898071e-01 -1.7135436832904816e-01</leafValues></_>
        <_>
          <internalNodes>
            0 -1 102 -1.0300263762474060e-02</internalNodes>
          <leafValues>
            -6.2913107872009277e-01 7.5371250510215759e-02</leafValues></_>
        <_>
          <internalNodes>
            0 -1 43 -9.6447225660085678e-03</internalNodes>
          <leafValues>
            3.1846699118614197e-01 -1.3628022372722626e-01</leafValues></_>
        <_>
          <internalNodes>
            0 -1 47 3.3053616061806679e-03</internalNodes>
          <leafValues>
            -1.4164917171001434e-01 3.4886527061462402e-01</leafValues></_>
        <_>
          <internalNodes>
            0 -1 171 1.7470465973019600e-03</internalNodes>
          <leafValues>
            -1.4782817661762238e-01 2.7356573939323425e-01</leafValues></_>
        <_>
          <internalNodes>
            0 -1 53 -4.1124429553747177e-03</internalNodes>
          <leafValues>
            3.0243137478828430e-01 -1.6804875433444977e-01</leafValues></_>
        <_>
          <internalNodes>
            0 -1 3 1.5054310671985149e-02</internalNodes>
          <leafValues>
            -2.9976052045822144e-01 1.4779968559741974e-01</leafValues></_></weakClassifiers></_>
    <!-- stage 5 -->
    <_>
      <maxWeakCount>37</maxWeakCount>
      <stageThreshold>-9.4587820768356323e-01</stageThreshold>
      <weakClassifiers>
        <_>
          <internalNodes>
            0 -1 151 3.9817718788981438e-04</internalNodes>
          <leafValues>
            -9.1649696230888367e-02 5.4013872146606445e-01</leafValues></_>
        <_>
          <internalNodes>
            0 -1 164 2.6146911084651947e-02</internalNodes>
          <leafValues>
            -1.6176126897335052e-01 4.9416553974151611e-01</leafValues></_>
        <_>
          <internalNodes>
            0 -1 106 6.1848266050219536e-03</internalNodes>
          <leafValues>
            -3.1449916958808899e-01 2.6133468747138977e-01</leafValues></_>
        <_>
          <internalNodes>
            0 -1 24 -1.3803538866341114e-02</internalNodes>
          <leafValues>
            4.5778328180313110e-01 -1.4411813020706177e-01</leafValues></_>
        <_>
          <internalNodes>
            0 -1 92 1.5191444254014641e-04</internalNodes>
          <leafValues>
            -3.5001817345619202e-01 1.5012888610363007e-01</leafValues></_>
        <_>
          <internalNodes>
            0 -1 190 3.6578022409230471e-03</internalNodes>
          <leafValues>
            -2.0224271714687347e-01 2.8201130032539368e-01</leafValues></_>
        <_>
          <internalNodes>
            0 -1 25 8.5850492119789124e-02</internalNodes>
          <leafValues>
            -2.4254265427589417e-01 2.4793192744255066e-01</leafValues></_>
        <_>
          <internalNodes>
            0 -1 191 -6.2764417380094528e-03</internalNodes>
          <leafValues>
            -7.0386970043182373e-01 7.0627309381961823e-02</leafValues></_>
        <_>
          <internalNodes>
            0 -1 187 -6.5454333089292049e-03</internalNodes>
          <leafValues>
            -9.0466821193695068e-01 3.9230626076459885e-02</leafValues></_>
        <_>
          <internalNodes>
            0 -1 165 2.7555700391530991e-02</internalNodes>
          <leafValues>
            4.2703527957201004e-02 -7.9882919788360596e-01</leafValues></_>
        <_>
          <internalNodes>
            0 -1 11 1.5246981754899025e-02</internalNodes>
          <leafValues>
            -1.3574610650539398e-01 3.4116131067276001e-01</leafValues></_>
        <_>
          <internalNodes>
            0 -1 143 1.1776017025113106e-02</internalNodes>
          <leafValues>
            8.7597273290157318e-02 -6.1090308427810669e-01</leafValues></_>
        <_>
          <internalNodes>
            0 -1 73 1.6727156471461058e-03</internalNodes>
          <leafValues>
            -1.8573655188083649e-01 2.5401496887207031e-01</leafValues></_>
        <_>
          <internalNodes>
            0 -1 29 -1.0875626467168331e-03</internalNodes>
          <leafValues>
            3.1841871142387390e-01 -1.3860973715782166e-01</leafValues></_>
        <_>
          <internalNodes>
            0 -1 29 6.3208374194800854e-04</internalNodes>
          <leafValues>
            -1.4913974702358246e-01 2.9487547278404236e-01</leafValues></_>
        <_>
          <internalNodes>
            0 -1 172 3.9470298215746880e-03</internalNodes>
          <leafValues>
            5.7861752808094025e-02 -8.3264774084091187e-01</leafValues></_>
        <_>
          <internalNodes>
            0 -1 54 -8.8428296148777008e-03</internalNodes>
          <leafValues>
            2.9984283447265625e-01 -1.5148141980171204e-01</leafValues></_>
        <_>
          <internalNodes>
            0 -1 75 -2.7140979655086994e-03</internalNodes>
          <leafValues>
            2.4324581027030945e-01 -1.7549793422222137e-01</leafValues></_>
        <_>
          <internalNodes>
            0 -1 15 6.4157303422689438e-03</internalNodes>
          <leafValues>
            -1.5350930392742157e-01 2.6585993170738220e-01</leafValues></_>
        <_>
          <internalNodes>
            0 -1 130 4.9862125888466835e-03</internalNodes>
          <leafValues>
            7.9909197986125946e-02 -5.0908130407333374e-01</leafValues></_>
        <_>
          <internalNodes>
            0 -1 129 -7.3571281973272562e-04</internalNodes>
          <leafValues>
            -3.6054870486259460e-01 1.2684895098209381e-01</leafValues></_>
        <_>
          <internalNodes>
            0 -1 58 1.1973229236900806e-02</internalNodes>
          <leafValues>
            -2.0322532951831818e-01 2.1603310108184814e-01</leafValues></_>
        <_>
          <internalNodes>
            0 -1 193 4.5889057219028473e-03</internalNodes>
          <leafValues>
            -1.0683053731918335e-01 3.8070601224899292e-01</leafValues></_>
        <_>
          <internalNodes>
            0 -1 157 3.5194349475204945e-03</internalNodes>
          <leafValues>
            -1.4980497956275940e-01 2.8473988175392151e-01</leafValues></_>
        <_>
          <internalNodes>
            0 -1 152 6.8157371133565903e-03</internalNodes>
          <leafValues>
            5.3067345172166824e-02 -7.7595049142837524e-01</leafValues></_>
        <_>
          <internalNodes>
            0 -1 40 -2.2796341218054295e-03</internalNodes>
          <leafValues>
            2.7182835340499878e-01 -1.6195689141750336e-01</leafValues></_>
        <_>
          <internalNodes>
            0 -1 195 -4.8168767243623734e-03</internalNodes>
          <leafValues>
            -5.9012550115585327e-01 7.1945041418075562e-02</leafValues></_>
        <_>
          <internalNodes>
            0 -1 30 -7.8479456715285778e-04</internalNodes>
          <leafValues>
            1.7850583791732788e-01 -2.2799171507358551e-01</leafValues></_>
        <_>
          <internalNodes>
            0 -1 45 -4.5686191879212856e-04</internalNodes>
          <leafValues>
            2.2165790200233459e-01 -1.8754342198371887e-01</leafValues></_>
        <_>
          <internalNodes>
            0 -1 86 -6.0300412587821484e-04</internalNodes>
          <leafValues>
            1.7985437810420990e-01 -2.3594225943088531e-01</leafValues></_>
        <_>
          <internalNodes>
            0 -1 119 -2.8921884950250387e-03</internalNodes>
          <leafValues>
            -7.9730999469757080e-01 5.0375416874885559e-02</leafValues></_>
        <_>
          <internalNodes>
            0 -1 77 -1.5623444691300392e-02</internalNodes>
          <leafValues>
            3.1953862309455872e-01 -1.3113109767436981e-01</leafValues></_>
        <_>
          <internalNodes>
            0 -1 83 2.1377062425017357e-02</internalNodes>
          <leafValues>
            -2.1097636222839355e-01 2.3723106086254120e-01</leafValues></_>
        <_>
          <internalNodes>
            0 -1 184 1.8388945609331131e-03</internalNodes>
          <leafValues>
            -1.5395651757717133e-01 2.7385330200195312e-01</leafValues></_>
        <_>
          <internalNodes>
            0 -1 103 -6.4097559079527855e-03</internalNodes>
          <leafValues>
            -7.6960271596908569e-01 5.7765655219554901e-02</leafValues></_>
        <_>
          <internalNodes>
            0 -1 12 -1.7566952155902982e-03</internalNodes>
          <leafValues>
            3.3022764325141907e-01 -1.3296402990818024e-01</leafValues></_>
        <_>
          <internalNodes>
            0 -1 138 2.6996269822120667e-02</internalNodes>
          <leafValues>
            5.7508520781993866e-02 -7.4769586324691772e-01</leafValues></_></weakClassifiers></_>
    <!-- stage 6 -->
    <_>
      <maxWeakCount>39</maxWeakCount>
      <stageThreshold>-9.1405844688415527e-01</stageThreshold>
      <weakClassifiers>
        <_>
          <internalNodes>
            0 -1 150 1.3432225678116083e-03</internalNodes>
          <leafValues>
            -9.8969072103500366e-02 5.3990149497985840e-01</leafValues></_>
        <_>
          <internalNodes>
            0 -1 82 -1.2076649814844131e-02</internalNodes>
          <leafValues>
            5.2550667524337769e-01 -1.2368347495794296e-01</leafValues></_>
        <_>
          <internalNodes>
            0 -1 207 3.3756529446691275e-03</internalNodes>
          <leafValues>
            -1.5099707245826721e-01 3.4001192450523376e-01</leafValues></_>
        <_>
          <internalNodes>
            0 -1 28 -8.7722651660442352e-03</internalNodes>
          <leafValues>
            2.7504622936248779e-01 -1.8723006546497345e-01</leafValues></_>
        <_>
          <internalNodes>
            0 -1 87 -1.6351226717233658e-02</internalNodes>
          <leafValues>
            -4.7877463698387146e-01 7.6990060508251190e-02</leafValues></_>
        <_>
          <internalNodes>
            0 -1 174 1.3172018807381392e-03</internalNodes>
          <leafValues>
            -2.0127072930335999e-01 2.3295040428638458e-01</leafValues></_>
        <_>
          <internalNodes>
            0 -1 85 -4.3274373747408390e-03</internalNodes>
          <leafValues>
            2.2468480467796326e-01 -1.9800819456577301e-01</leafValues></_>
        <_>
          <internalNodes>
            0 -1 13 5.0004228949546814e-02</internalNodes>
          <leafValues>
            -7.7384084463119507e-02 5.7398808002471924e-01</leafValues></_>
        <_>
          <internalNodes>
            0 -1 111 1.8279090523719788e-02</internalNodes>
          <leafValues>
            6.9069854915142059e-02 -7.5308239459991455e-01</leafValues></_>
        <_>
          <internalNodes>
            0 -1 42 -4.5805312693119049e-02</internalNodes>
          <leafValues>
            3.0382624268531799e-01 -1.4625716209411621e-01</leafValues></_>
        <_>
          <internalNodes>
            0 -1 110 -1.9055504351854324e-02</internalNodes>
          <leafValues>
            -8.2974588871002197e-01 5.0834257155656815e-02</leafValues></_>
        <_>
          <internalNodes>
            0 -1 132 -1.7191559891216457e-04</internalNodes>
          <leafValues>
            -3.1674551963806152e-01 1.2642759084701538e-01</leafValues></_>
        <_>
          <internalNodes>
            0 -1 214 -8.2039479166269302e-03</internalNodes>
          <leafValues>
            3.7583109736442566e-01 -1.2050397694110870e-01</leafValues></_>
        <_>
          <internalNodes>
            0 -1 18 -4.9333735369145870e-03</internalNodes>
          <leafValues>
            3.3263796567916870e-01 -1.2405163049697876e-01</leafValues></_>
        <_>
          <internalNodes>
            0 -1 159 -5.1095290109515190e-03</internalNodes>
          <leafValues>
            -6.7949813604354858e-01 7.2135053575038910e-02</leafValues></_>
        <_>
          <internalNodes>
            0 -1 148 -5.4908469319343567e-03</internalNodes>
          <leafValues>
            3.4320554137229919e-01 -1.3185112178325653e-01</leafValues></_>
        <_>
          <internalNodes>
            0 -1 61 3.0565788038074970e-03</internalNodes>
          <leafValues>
            1.5602290630340576e-01 -3.1630980968475342e-01</leafValues></_>
        <_>
          <internalNodes>
            0 -1 145 -3.9124176837503910e-03</internalNodes>
          <leafValues>
            -7.5189942121505737e-01 5.4576825350522995e-02</leafValues></_>
        <_>
          <internalNodes>
            0 -1 197 1.2092420365661383e-03</internalNodes>
          <leafValues>
            -1.5997168421745300e-01 2.7657005190849304e-01</leafValues></_>
        <_>
          <internalNodes>
            0 -1 16 1.0920369531959295e-03</internalNodes>
          <leafValues>
            -1.3017661869525909e-01 3.1786456704139709e-01</leafValues></_>
        <_>
          <internalNodes>
            0 -1 175 -9.8584517836570740e-03</internalNodes>
          <leafValues>
            -8.9185643196105957e-01 4.5361753553152084e-02</leafValues></_>
        <_>
          <internalNodes>
            0 -1 67 3.0360775999724865e-03</internalNodes>
          <leafValues>
            -1.1917044222354889e-01 3.4385988116264343e-01</leafValues></_>
        <_>
          <internalNodes>
            0 -1 155 -6.9404048845171928e-03</internalNodes>
          <leafValues>
            -6.0434329509735107e-01 7.2902716696262360e-02</leafValues></_>
        <_>
          <internalNodes>
            0 -1 55 -1.9963754341006279e-02</internalNodes>
          <leafValues>
            6.2771886587142944e-01 -7.1217209100723267e-02</leafValues></_>
        <_>
          <internalNodes>
            0 -1 98 -4.0732049383223057e-03</internalNodes>
          <leafValues>
            -3.5684934258460999e-01 1.1780622601509094e-01</leafValues></_>
        <_>
          <internalNodes>
            0 -1 176 -1.2079627485945821e-03</internalNodes>
          <leafValues>
            2.6841813325881958e-01 -1.7555290460586548e-01</leafValues></_>
        <_>
          <internalNodes>
            0 -1 97 3.9225516957230866e-04</internalNodes>
          <leafValues>
            -1.9772033393383026e-01 2.0096586644649506e-01</leafValues></_>
        <_>
          <internalNodes>
            0 -1 120 -4.4528674334287643e-03</internalNodes>
          <leafValues>
            2.8477659821510315e-01 -1.5054801106452942e-01</leafValues></_>
        <_>
          <internalNodes>
            0 -1 116 1.0053437203168869e-02</internalNodes>
          <leafValues>
            -1.6100418567657471e-01 2.6877075433731079e-01</leafValues></_>
        <_>
          <internalNodes>
            0 -1 84 2.8276087250560522e-03</internalNodes>
          <leafValues>
            5.2537176758050919e-02 -7.8896486759185791e-01</leafValues></_>
        <_>
          <internalNodes>
            0 -1 199 -5.0962129607796669e-03</internalNodes>
          <leafValues>
            -7.0405405759811401e-01 4.7287650406360626e-02</leafValues></_>
        <_>
          <internalNodes>
            0 -1 181 -2.3733698762953281e-03</internalNodes>
          <leafValues>
            -6.4451497793197632e-01 5.2101325243711472e-02</leafValues></_>
        <_>
          <internalNodes>
            0 -1 112 -4.8922197893261909e-03</internalNodes>
          <leafValues>
            4.7969290614128113e-01 -9.9256739020347595e-02</leafValues></_>
        <_>
          <internalNodes>
            0 -1 8 -4.2203492484986782e-03</internalNodes>
          <leafValues>
            3.6719551682472229e-01 -1.1042988300323486e-01</leafValues></_>
        <_>
          <internalNodes>
            0 -1 124 -1.7106238752603531e-02</internalNodes>
          <leafValues>
            -5.8607590198516846e-01 7.1068190038204193e-02</leafValues></_>
        <_>
          <internalNodes>
            0 -1 158 4.8024477437138557e-03</internalNodes>
          <leafValues>
            -1.5166556835174561e-01 2.7040663361549377e-01</leafValues></_>
        <_>
          <internalNodes>
            0 -1 167 -6.0412334278225899e-03</internalNodes>
          <leafValues>
            -7.9142624139785767e-01 5.7438440620899200e-02</leafValues></_>
        <_>
          <internalNodes>
            0 -1 169 -8.5820462554693222e-03</internalNodes>
          <leafValues>
            4.1757768392562866e-01 -1.1201103776693344e-01</leafValues></_>
        <_>
          <internalNodes>
            0 -1 78 1.3119719922542572e-01</internalNodes>
          <leafValues>
            7.3884591460227966e-02 -5.1006799936294556e-01</leafValues></_></weakClassifiers></_>
    <!-- stage 7 -->
    <_>
      <maxWeakCount>38</maxWeakCount>
      <stageThreshold>-8.7396305799484253e-01</stageThreshold>
      <weakClassifiers>
        <_>
          <internalNodes>
            0 -1 153 6.8011949770152569e-04</internalNodes>
          <leafValues>
            -6.6518850624561310e-02 5.0524306297302246e-01</leafValues></_>
        <_>
          <internalNodes>
            0 -1 60 8.3473488688468933e-02</internalNodes>
          <leafValues>
            -1.8891116976737976e-01 3.6408498883247375e-01</leafValues></_>
        <_>
          <internalNodes>
            0 -1 88 5.9204758144915104e-03</internalNodes>
          <leafValues>
            -1.8428948521614075e-01 4.0801581740379333e-01</leafValues></_>
        <_>
          <internalNodes>
            0 -1 107 2.6884581893682480e-02</internalNodes>
          <leafValues>
            -1.8055213987827301e-01 3.4928682446479797e-01</leafValues></_>
        <_>
          <internalNodes>
            0 -1 94 3.4670489840209484e-03</internalNodes>
          <leafValues>
            -2.2189411520957947e-01 2.7565819025039673e-01</leafValues></_>
        <_>
          <internalNodes>
            0 -1 99 1.7483392730355263e-02</internalNodes>
          <leafValues>
            4.7330226749181747e-02 -5.9423804283142090e-01</leafValues></_>
        <_>
          <internalNodes>
            0 -1 91 8.2190670073032379e-03</internalNodes>
          <leafValues>
            -1.3185533881187439e-01 4.1598731279373169e-01</leafValues></_>
        <_>
          <internalNodes>
            0 -1 202 2.7997521683573723e-03</internalNodes>
          <leafValues>
            -1.4913778007030487e-01 3.1237912178039551e-01</leafValues></_>
        <_>
          <internalNodes>
            0 -1 177 3.7874747067689896e-03</internalNodes>
          <leafValues>
            -1.4978143572807312e-01 3.5827139019966125e-01</leafValues></_>
        <_>
          <internalNodes>
            0 -1 125 -1.0406905785202980e-02</internalNodes>
          <leafValues>
            -7.5133240222930908e-01 5.7573135942220688e-02</leafValues></_>
        <_>
          <internalNodes>
            0 -1 212 8.3294592332094908e-04</internalNodes>
          <leafValues>
            -1.7969147861003876e-01 2.7778857946395874e-01</leafValues></_>
        <_>
          <internalNodes>
            0 -1 74 -4.6540056355297565e-03</internalNodes>
          <leafValues>
            3.6407715082168579e-01 -1.1745750159025192e-01</leafValues></_>
        <_>
          <internalNodes>
            0 -1 68 4.5525571331381798e-03</internalNodes>
          <leafValues>
            -9.8623044788837433e-02 4.5937958359718323e-01</leafValues></_>
        <_>
          <internalNodes>
            0 -1 22 -2.2959815396461636e-04</internalNodes>
          <leafValues>
            -3.6751523613929749e-01 1.2242559343576431e-01</leafValues></_>
        <_>
          <internalNodes>
            0 -1 38 7.7937468886375427e-02</internalNodes>
          <leafValues>
            -1.2163056433200836e-01 3.4944537281990051e-01</leafValues></_>
        <_>
          <internalNodes>
            0 -1 108 -3.5604848526418209e-03</internalNodes>
          <leafValues>
            -8.8975036144256592e-01 5.3794659674167633e-02</leafValues></_>
        <_>
          <internalNodes>
            0 -1 208 -6.2423897907137871e-03</internalNodes>
          <leafValues>
            3.2754620909690857e-01 -1.2823408842086792e-01</leafValues></_>
        <_>
          <internalNodes>
            0 -1 173 -1.8408135510981083e-03</internalNodes>
          <leafValues>
            2.7913400530815125e-01 -1.3013187050819397e-01</leafValues></_>
        <_>
          <internalNodes>
            0 -1 183 -7.2348015382885933e-03</internalNodes>
          <leafValues>
            -4.9121031165122986e-01 8.3740450441837311e-02</leafValues></_>
        <_>
          <internalNodes>
            0 -1 179 -1.5855707228183746e-02</internalNodes>
          <leafValues>
            -8.9365714788436890e-01 3.5444110631942749e-02</leafValues></_>
        <_>
          <internalNodes>
            0 -1 65 -1.8397107720375061e-02</internalNodes>
          <leafValues>
            2.5077787041664124e-01 -1.4228869974613190e-01</leafValues></_>
        <_>
          <internalNodes>
            0 -1 135 7.8892160672694445e-04</internalNodes>
          <leafValues>
            -1.1409658938646317e-01 2.8244739770889282e-01</leafValues></_>
        <_>
          <internalNodes>
            0 -1 49 4.9358289688825607e-03</internalNodes>
          <leafValues>
            7.3581449687480927e-02 -4.5567202568054199e-01</leafValues></_>
        <_>
          <internalNodes>
            0 -1 17 -2.2164976689964533e-03</internalNodes>
          <leafValues>
            2.6657077670097351e-01 -1.2676884233951569e-01</leafValues></_>
        <_>
          <internalNodes>
            0 -1 32 -6.0279164463281631e-03</internalNodes>
          <leafValues>
            2.5701358914375305e-01 -1.4670920372009277e-01</leafValues></_>
        <_>
          <internalNodes>
            0 -1 122 9.0601351112127304e-03</internalNodes>
          <leafValues>
            7.5155675411224365e-02 -4.6364203095436096e-01</leafValues></_>
        <_>
          <internalNodes>
            0 -1 156 2.8399412985891104e-04</internalNodes>
          <leafValues>
            -2.0171640813350677e-01 1.8998727202415466e-01</leafValues></_>
        <_>
          <internalNodes>
            0 -1 62 -2.7987409383058548e-02</internalNodes>
          <leafValues>
            3.8784953951835632e-01 -9.9235169589519501e-02</leafValues></_>
        <_>
          <internalNodes>
            0 -1 192 9.3587534502148628e-04</internalNodes>
          <leafValues>
            -1.6415552794933319e-01 2.3671028017997742e-01</leafValues></_>
        <_>
          <internalNodes>
            0 -1 182 3.0357291921973228e-02</internalNodes>
          <leafValues>
            7.5551852583885193e-02 -5.9303241968154907e-01</leafValues></_>
        <_>
          <internalNodes>
            0 -1 146 -1.4698639279231429e-03</internalNodes>
          <leafValues>
            2.5384518504142761e-01 -1.5814511477947235e-01</leafValues></_>
        <_>
          <internalNodes>
            0 -1 71 2.1079426631331444e-02</internalNodes>
          <leafValues>
            -1.6772516071796417e-01 2.7307718992233276e-01</leafValues></_>
        <_>
          <internalNodes>
            0 -1 166 -5.5072810500860214e-03</internalNodes>
          <leafValues>
            -9.8780804872512817e-01 3.4790594130754471e-02</leafValues></_>
        <_>
          <internalNodes>
            0 -1 23 -2.2358973510563374e-03</internalNodes>
          <leafValues>
            1.8945491313934326e-01 -1.7957153916358948e-01</leafValues></_>
        <_>
          <internalNodes>
            0 -1 209 -3.0244933441281319e-03</internalNodes>
          <leafValues>
            -6.2483590841293335e-01 5.9362266212701797e-02</leafValues></_>
        <_>
          <internalNodes>
            0 -1 0 -3.0160427093505859e-01</internalNodes>
          <leafValues>
            4.6222513914108276e-01 -8.4746412932872772e-02</leafValues></_>
        <_>
          <internalNodes>
            0 -1 204 1.0100062936544418e-03</internalNodes>
          <leafValues>
            -1.5626426041126251e-01 2.2469991445541382e-01</leafValues></_>
        <_>
          <internalNodes>
            0 -1 136 -1.4911011792719364e-02</internalNodes>
          <leafValues>
            3.5205525159835815e-01 -9.7524702548980713e-02</leafValues></_></weakClassifiers></_></stages>
  <features>
    <_>
      <rects>
        <_>
          0 0 20 16 -1.</_>
        <_>
          0 8 20 8 2.</_></rects>
      <tilted>0</tilted></_>
    <_>
      <rects>
        <_>
          0 8 4 4 -1.</_>
        <_>
          2 8 2 4 2.</_></rects>
      <tilted>0</tilted></_>
    <_>
      <rects>
        <_>
          0 10 4 4 -1.</_>
        <_>
          2 10 2 4 2.</_></rects>
      <tilted>0</tilted></_>
    <_>
      <rects>
        <_>
          0 13 18 3 -1.</_>
        <_>
          9 13 9 3 2.</_></rects>
      <tilted>0</tilted></_>
    <_>
      <rects>
        <_>
          1 9 6 6 -1.</_>
        <_>
          3 9 2 6 3.</_></rects>
      <tilted>0</tilted></_>
    <_>
      <rects>
        <_>
          1 11 4 6 -1.</_>
        <_>
          3 11 2 6 2.</_></rects>
      <tilted>0</tilted></_>
    <_>
      <rects>
        <_>
          1 11 6 9 -1.</_>
        <_>
          3 11 2 9 3.</_></rects>
      <tilted>0</tilted></_>
    <_>
      <rects>
        <_>
          1 12 3 2 -1.</_>
        <_>
          2 12 1 2 3.</_></rects>
      <tilted>0</tilted></_>
    <_>
      <rects>
        <_>
          1 12 2 3 -1.</_>
        <_>
          2 12 1 3 2.</_></rects>
      <tilted>0</tilted></_>
    <_>
      <rects>
        <_>
          1 13 4 2 -1.</_>
        <_>
          3 13 2 2 2.</_></rects>
      <tilted>0</tilted></_>
    <_>
      <rects>
        <_>
          1 14 4 1 -1.</_>
        <_>
          3 14 2 1 2.</_></rects>
      <tilted>0</tilted></_>
    <_>
      <rects>
        <_>
          2 2 6 8 -1.</_>
        <_>
          2 2 3 4 2.</_>
        <_>
          5 6 3 4 2.</_></rects>
      <tilted>0</tilted></_>
    <_>
      <rects>
        <_>
          2 7 3 1 -1.</_>
        <_>
          3 7 1 1 3.</_></rects>
      <tilted>0</tilted></_>
    <_>
      <rects>
        <_>
          2 7 12 2 -1.</_>
        <_>
          6 7 4 2 3.</_></rects>
      <tilted>0</tilted></_>
    <_>
      <rects>
        <_>
          2 7 12 6 -1.</_>
        <_>
          6 7 4 6 3.</_></rects>
      <tilted>0</tilted></_>
    <_>
      <rects>
        <_>
          2 9 6 6 -1.</_>
        <_>
          2 11 6 2 3.</_></rects>
      <tilted>0</tilted></_>
    <_>
      <rects>
        <_>
          2 10 2 1 -1.</_>
        <_>
          3 10 1 1 2.</_></rects>
      <tilted>0</tilted></_>
    <_>
      <rects>
        <_>
          2 10 3 2 -1.</_>
        <_>
          3 10 1 2 3.</_></rects>
      <tilted>0</tilted></_>
    <_>
      <rects>
        <_>
          2 10 2 4 -1.</_>
        <_>
          3 10 1 4 2.</_></rects>
      <tilted>0</tilted></_>
    <_>
      <rects>
        <_>
          2 12 3 3 -1.</_>
        <_>
          3 12 1 3 3.</_></rects>
      <tilted>0</tilted></_>
    <_>
      <rects>
        <_>
          2 12 14 3 -1.</_>
        <_>
          9 12 7 3 2.</_></rects>
      <tilted>0</tilted></_>
    <_>
      <rects>
        <_>
          2 12 16 4 -1.</_>
        <_>
          10 12 8 4 2.</_></rects>
      <tilted>0</tilted></_>
    <_>
      <rects>
        <_>
          2 14 14 1 -1.</_>
        <_>
          9 14 7 1 2.</_></rects>
      <tilted>0</tilted></_>
    <_>
      <rects>
        <_>
          3 1 11 3 -1.</_>
        <_>
          3 2 11 1 3.</_></rects>
      <tilted>0</tilted></_>
    <_>
      <rects>
        <_>
          3 3 4 8 -1.</_>
        <_>
          3 3 2 4 2.</_>
        <_>
          5 7 2 4 2.</_></rects>
      <tilted>0</tilted></_>
    <_>
      <rects>
        <_>
          3 3 12 16 -1.</_>
        <_>
          3 3 6 8 2.</_>
        <_>
          9 11 6 8 2.</_></rects>
      <tilted>0</tilted></_>
    <_>
      <rects>
        <_>
          3 4 2 4 -1.</_>
        <_>
          3 4 1 2 2.</_>
        <_>
          4 6 1 2 2.</_></rects>
      <tilted>0</tilted></_>
    <_>
      <rects>
        <_>
          3 7 12 4 -1.</_>
        <_>
          7 7 4 4 3.</_></rects>
      <tilted>0</tilted></_>
    <_>
      <rects>
        <_>
          3 8 6 3 -1.</_>
        <_>
          5 8 2 3 3.</_></rects>
      <tilted>0</tilted></_>
    <_>
      <rects>
        <_>
          3 9 2 1 -1.</_>
        <_>
          4 9 1 1 2.</_></rects>
      <tilted>0</tilted></_>
    <_>
      <rects>
        <_>
          3 9 1 9 -1.</_>
        <_>
          3 12 1 3 3.</_></rects>
      <tilted>0</tilted></_>
    <_>
      <rects>
        <_>
          3 9 12 2 -1.</_>
        <_>
          7 9 4 2 3.</_></rects>
      <tilted>0</tilted></_>
    <_>
      <rects>
        <_>
          3 10 4 3 -1.</_>
        <_>
          5 10 2 3 2.</_></rects>
      <tilted>0</tilted></_>
    <_>
      <rects>
        <_>
          3 10 6 5 -1.</_>
        <_>
          5 10 2 5 3.</_></rects>
      <tilted>0</tilted></_>
    <_>
      <rects>
        <_>
          3 11 3 3 -1.</_>
        <_>
          4 11 1 3 3.</_></rects>
      <tilted>0</tilted></_>
    <_>
      <rects>
        <_>
          4 0 11 2 -1.</_>
        <_>
          4 1 11 1 2.</_></rects>
      <tilted>0</tilted></_>
    <_>
      <rects>
        <_>
          4 2 9 9 -1.</_>
        <_>
          7 2 3 9 3.</_></rects>
      <tilted>0</tilted></_>
    <_>
      <rects>
        <_>
          4 2 9 10 -1.</_>
        <_>
          7 2 3 10 3.</_></rects>
      <tilted>0</tilted></_>
    <_>
      <rects>
        <_>
          4 2 9 13 -1.</_>
        <_>
          7 2 3 13 3.</_></rects>
      <tilted>0</tilted></_>
    <_>
      <rects>
        <_>
          4 5 9 5 -1.</_>
        <_>
          7 5 3 5 3.</_></rects>
      <tilted>0</tilted></_>
    <_>
      <rects>
        <_>
          4 7 1 6 -1.</_>
        <_>
          4 9 1 2 3.</_></rects>
      <tilted>0</tilted></_>
    <_>
      <rects>
        <_>
          4 9 3 3 -1.</_>
        <_>
          5 9 1 3 3.</_></rects>
      <tilted>0</tilted></_>
    <_>
      <rects>
        <_>
          4 9 9 7 -1.</_>
        <_>
          7 9 3 7 3.</_></rects>
      <tilted>0</tilted></_>
    <_>
      <rects>
        <_>
          4 12 4 6 -1.</_>
        <_>
          6 12 2 6 2.</_></rects>
      <tilted>0</tilted></_>
    <_>
      <rects>
        <_>
          4 12 14 4 -1.</_>
        <_>
          11 12 7 4 2.</_></rects>
      <tilted>0</tilted></_>
    <_>
      <rects>
        <_>
          4 15 3 1 -1.</_>
        <_>
          5 15 1 1 3.</_></rects>
      <tilted>0</tilted></_>
    <_>
      <rects>
        <_>
          5 1 3 2 -1.</_>
        <_>
          5 2 3 1 2.</_></rects>
      <tilted>0</tilted></_>
    <_>
      <rects>
        <_>
          5 6 2 6 -1.</_>
        <_>
          5 6 1 3 2.</_>
        <_>
          6 9 1 3 2.</_></rects>
      <tilted>0</tilted></_>
    <_>
      <rects>
        <_>
          5 9 10 4 -1.</_>
        <_>
          5 9 5 2 2.</_>
        <_>
          10 11 5 2 2.</_></rects>
      <tilted>0</tilted></_>
    <_>
      <rects>
        <_>
          5 16 3 2 -1.</_>
        <_>
          5 17 3 1 2.</_></rects>
      <tilted>0</tilted></_>
    <_>
      <rects>
        <_>
          5 18 9 2 -1.</_>
        <_>
          5 19 9 1 2.</_></rects>
      <tilted>0</tilted></_>
    <_>
      <rects>
        <_>
          6 10 4 6 -1.</_>
        <_>
          8 10 2 6 2.</_></rects>
      <tilted>0</tilted></_>
    <_>
      <rects>
        <_>
          6 16 8 3 -1.</_>
        <_>
          10 16 4 3 2.</_></rects>
      <tilted>0</tilted></_>
    <_>
      <rects>
        <_>
          6 17 9 2 -1.</_>
        <_>
          6 18 9 1 2.</_></rects>
      <tilted>0</tilted></_>
    <_>
      <rects>
        <_>
          6 18 8 2 -1.</_>
        <_>
          6 19 8 1 2.</_></rects>
      <tilted>0</tilted></_>
    <_>
      <rects>
        <_>
          7 9 8 4 -1.</_>
        <_>
          7 9 4 2 2.</_>
        <_>
          11 11 4 2 2.</_></rects>
      <tilted>0</tilted></_>
    <_>
      <rects>
        <_>
          7 18 8 2 -1.</_>
        <_>
          7 19 8 1 2.</_></rects>
      <tilted>0</tilted></_>
    <_>
      <rects>
        <_>
          8 1 6 18 -1.</_>
        <_>
          8 1 3 9 2.</_>
        <_>
          11 10 3 9 2.</_></rects>
      <tilted>0</tilted></_>
    <_>
      <rects>
        <_>
          8 5 8 6 -1.</_>
        <_>
          8 5 4 3 2.</_>
        <_>
          12 8 4 3 2.</_></rects>
      <tilted>0</tilted></_>
    <_>
      <rects>
        <_>
          8 7 4 4 -1.</_>
        <_>
          8 7 2 2 2.</_>
        <_>
          10 9 2 2 2.</_></rects>
      <tilted>0</tilted></_>
    <_>
      <rects>
        <_>
          8 9 12 9 -1.</_>
        <_>
          12 9 4 9 3.</_></rects>
      <tilted>0</tilted></_>
    <_>
      <rects>
        <_>
          8 12 12 2 -1.</_>
        <_>
          8 13 12 1 2.</_></rects>
      <tilted>0</tilted></_>
    <_>
      <rects>
        <_>
          8 13 8 6 -1.</_>
        <_>
          8 13 4 3 2.</_>
        <_>
          12 16 4 3 2.</_></rects>
      <tilted>0</tilted></_>
    <_>
      <rects>
        <_>
          8 14 3 6 -1.</_>
        <_>
          8 16 3 2 3.</_></rects>
      <tilted>0</tilted></_>
    <_>
      <rects>
        <_>
          8 14 12 3 -1.</_>
        <_>
          12 14 4 3 3.</_></rects>
      <tilted>0</tilted></_>
    <_>
      <rects>
        <_>
          8 16 8 4 -1.</_>
        <_>
          8 18 8 2 2.</_></rects>
      <tilted>0</tilted></_>
    <_>
      <rects>
        <_>
          8 17 2 3 -1.</_>
        <_>
          8 18 2 1 3.</_></rects>
      <tilted>0</tilted></_>
    <_>
      <rects>
        <_>
          8 17 4 2 -1.</_>
        <_>
          8 17 2 1 2.</_>
        <_>
          10 18 2 1 2.</_></rects>
      <tilted>0</tilted></_>
    <_>
      <rects>
        <_>
          8 18 3 2 -1.</_>
        <_>
          8 19 3 1 2.</_></rects>
      <tilted>0</tilted></_>
    <_>
      <rects>
        <_>
          9 0 5 4 -1.</_>
        <_>
          9 2 5 2 2.</_></rects>
      <tilted>0</tilted></_>
    <_>
      <rects>
        <_>
          9 5 4 8 -1.</_>
        <_>
          9 5 2 4 2.</_>
        <_>
          11 9 2 4 2.</_></rects>
      <tilted>0</tilted></_>
    <_>
      <rects>
        <_>
          9 8 7 6 -1.</_>
        <_>
          9 10 7 2 3.</_></rects>
      <tilted>0</tilted></_>
    <_>
      <rects>
        <_>
          9 13 8 6 -1.</_>
        <_>
          9 13 4 3 2.</_>
        <_>
          13 16 4 3 2.</_></rects>
      <tilted>0</tilted></_>
    <_>
      <rects>
        <_>
          9 16 3 2 -1.</_>
        <_>
          9 17 3 1 2.</_></rects>
      <tilted>0</tilted></_>
    <_>
      <rects>
        <_>
          9 18 3 2 -1.</_>
        <_>
          9 19 3 1 2.</_></rects>
      <tilted>0</tilted></_>
    <_>
      <rects>
        <_>
          10 0 2 4 -1.</_>
        <_>
          10 2 2 2 2.</_></rects>
      <tilted>0</tilted></_>
    <_>
      <rects>
        <_>
          10 6 6 6 -1.</_>
        <_>
          10 8 6 2 3.</_></rects>
      <tilted>0</tilted></_>
    <_>
      <rects>
        <_>
          10 7 8 6 -1.</_>
        <_>
          10 9 8 2 3.</_></rects>
      <tilted>0</tilted></_>
    <_>
      <rects>
        <_>
          10 7 9 10 -1.</_>
        <_>
          10 12 9 5 2.</_></rects>
      <tilted>0</tilted></_>
    <_>
      <rects>
        <_>
          10 12 1 6 -1.</_>
        <_>
          10 15 1 3 2.</_></rects>
      <tilted>0</tilted></_>
    <_>
      <rects>
        <_>
          10 18 4 2 -1.</_>
        <_>
          10 19 4 1 2.</_></rects>
      <tilted>0</tilted></_>
    <_>
      <rects>
        <_>
          10 18 5 2 -1.</_>
        <_>
          10 19 5 1 2.</_></rects>
      <tilted>0</tilted></_>
    <_>
      <rects>
        <_>
          10 18 6 2 -1.</_>
        <_>
          10 19 6 1 2.</_></rects>
      <tilted>0</tilted></_>
    <_>
      <rects>
        <_>
          11 5 5 6 -1.</_>
        <_>
          11 8 5 3 2.</_></rects>
      <tilted>0</tilted></_>
    <_>
      <rects>
        <_>
          11 6 2 2 -1.</_>
        <_>
          11 6 1 1 2.</_>
        <_>
          12 7 1 1 2.</_></rects>
      <tilted>0</tilted></_>
    <_>
      <rects>
        <_>
          11 6 2 6 -1.</_>
        <_>
          11 8 2 2 3.</_></rects>
      <tilted>0</tilted></_>
    <_>
      <rects>
        <_>
          11 6 7 3 -1.</_>
        <_>
          11 7 7 1 3.</_></rects>
      <tilted>0</tilted></_>
    <_>
      <rects>
        <_>
          11 9 6 10 -1.</_>
        <_>
          13 9 2 10 3.</_></rects>
      <tilted>0</tilted></_>
    <_>
      <rects>
        <_>
          11 10 4 3 -1.</_>
        <_>
          11 11 4 1 3.</_></rects>
      <tilted>0</tilted></_>
    <_>
      <rects>
        <_>
          11 11 3 6 -1.</_>
        <_>
          11 13 3 2 3.</_></rects>
      <tilted>0</tilted></_>
    <_>
      <rects>
        <_>
          11 11 6 4 -1.</_>
        <_>
          11 11 3 2 2.</_>
        <_>
          14 13 3 2 2.</_></rects>
      <tilted>0</tilted></_>
    <_>
      <rects>
        <_>
          11 11 4 3 -1.</_>
        <_>
          11 12 4 1 3.</_></rects>
      <tilted>0</tilted></_>
    <_>
      <rects>
        <_>
          11 13 4 2 -1.</_>
        <_>
          13 13 2 2 2.</_></rects>
      <tilted>0</tilted></_>
    <_>
      <rects>
        <_>
          11 14 2 2 -1.</_>
        <_>
          11 15 2 1 2.</_></rects>
      <tilted>0</tilted></_>
    <_>
      <rects>
        <_>
          11 14 2 4 -1.</_>
        <_>
          11 16 2 2 2.</_></rects>
      <tilted>0</tilted></_>
    <_>
      <rects>
        <_>
          11 14 4 3 -1.</_>
        <_>
          11 15 4 1 3.</_></rects>
      <tilted>0</tilted></_>
    <_>
      <rects>
        <_>
          11 14 4 4 -1.</_>
        <_>
          11 16 4 2 2.</_></rects>
      <tilted>0</tilted></_>
    <_>
      <rects>
        <_>
          11 16 1 2 -1.</_>
        <_>
          11 17 1 1 2.</_></rects>
      <tilted>0</tilted></_>
    <_>
      <rects>
        <_>
          12 5 2 15 -1.</_>
        <_>
          12 10 2 5 3.</_></rects>
      <tilted>0</tilted></_>
    <_>
      <rects>
        <_>
          12 5 4 10 -1.</_>
        <_>
          12 5 2 5 2.</_>
        <_>
          14 10 2 5 2.</_></rects>
      <tilted>0</tilted></_>
    <_>
      <rects>
        <_>
          12 5 3 8 -1.</_>
        <_>
          12 9 3 4 2.</_></rects>
      <tilted>0</tilted></_>
    <_>
      <rects>
        <_>
          12 5 6 8 -1.</_>
        <_>
          12 9 6 4 2.</_></rects>
      <tilted>0</tilted></_>
    <_>
      <rects>
        <_>
          12 6 1 12 -1.</_>
        <_>
          12 10 1 4 3.</_></rects>
      <tilted>0</tilted></_>
    <_>
      <rects>
        <_>
          12 6 2 3 -1.</_>
        <_>
          12 7 2 1 3.</_></rects>
      <tilted>0</tilted></_>
    <_>
      <rects>
        <_>
          12 6 6 14 -1.</_>
        <_>
          14 6 2 14 3.</_></rects>
      <tilted>0</tilted></_>
    <_>
      <rects>
        <_>
          12 6 5 6 -1.</_>
        <_>
          12 9 5 3 2.</_></rects>
      <tilted>0</tilted></_>
    <_>
      <rects>
        <_>
          12 7 1 9 -1.</_>
        <_>
          12 10 1 3 3.</_></rects>
      <tilted>0</tilted></_>
    <_>
      <rects>
        <_>
          12 7 6 6 -1.</_>
        <_>
          12 9 6 2 3.</_></rects>
      <tilted>0</tilted></_>
    <_>
      <rects>
        <_>
          12 8 2 2 -1.</_>
        <_>
          12 8 1 1 2.</_>
        <_>
          13 9 1 1 2.</_></rects>
      <tilted>0</tilted></_>
    <_>
      <rects>
        <_>
          12 8 1 4 -1.</_>
        <_>
          12 10 1 2 2.</_></rects>
      <tilted>0</tilted></_>
    <_>
      <rects>
        <_>
          12 8 4 4 -1.</_>
        <_>
          14 8 2 4 2.</_></rects>
      <tilted>0</tilted></_>
    <_>
      <rects>
        <_>
          12 8 6 2 -1.</_>
        <_>
          15 8 3 2 2.</_></rects>
      <tilted>0</tilted></_>
    <_>
      <rects>
        <_>
          12 8 3 4 -1.</_>
        <_>
          12 10 3 2 2.</_></rects>
      <tilted>0</tilted></_>
    <_>
      <rects>
        <_>
          12 8 3 6 -1.</_>
        <_>
          12 10 3 2 3.</_></rects>
      <tilted>0</tilted></_>
    <_>
      <rects>
        <_>
          12 8 6 4 -1.</_>
        <_>
          15 8 3 4 2.</_></rects>
      <tilted>0</tilted></_>
    <_>
      <rects>
        <_>
          12 9 2 4 -1.</_>
        <_>
          12 11 2 2 2.</_></rects>
      <tilted>0</tilted></_>
    <_>
      <rects>
        <_>
          12 9 3 4 -1.</_>
        <_>
          12 11 3 2 2.</_></rects>
      <tilted>0</tilted></_>
    <_>
      <rects>
        <_>
          12 9 3 6 -1.</_>
        <_>
          12 11 3 2 3.</_></rects>
      <tilted>0</tilted></_>
    <_>
      <rects>
        <_>
          12 9 4 4 -1.</_>
        <_>
          12 11 4 2 2.</_></rects>
      <tilted>0</tilted></_>
    <_>
      <rects>
        <_>
          12 10 2 1 -1.</_>
        <_>
          13 10 1 1 2.</_></rects>
      <tilted>0</tilted></_>
    <_>
      <rects>
        <_>
          12 10 2 6 -1.</_>
        <_>
          12 12 2 2 3.</_></rects>
      <tilted>0</tilted></_>
    <_>
      <rects>
        <_>
          12 10 5 3 -1.</_>
        <_>
          12 11 5 1 3.</_></rects>
      <tilted>0</tilted></_>
    <_>
      <rects>
        <_>
          12 11 1 8 -1.</_>
        <_>
          12 15 1 4 2.</_></rects>
      <tilted>0</tilted></_>
    <_>
      <rects>
        <_>
          12 11 5 8 -1.</_>
        <_>
          12 15 5 4 2.</_></rects>
      <tilted>0</tilted></_>
    <_>
      <rects>
        <_>
          12 13 3 6 -1.</_>
        <_>
          12 15 3 2 3.</_></rects>
      <tilted>0</tilted></_>
    <_>
      <rects>
        <_>
          12 13 5 3 -1.</_>
        <_>
          12 14 5 1 3.</_></rects>
      <tilted>0</tilted></_>
    <_>
      <rects>
        <_>
          12 14 1 4 -1.</_>
        <_>
          12 16 1 2 2.</_></rects>
      <tilted>0</tilted></_>
    <_>
      <rects>
        <_>
          12 14 4 2 -1.</_>
        <_>
          14 14 2 2 2.</_></rects>
      <tilted>0</tilted></_>
    <_>
      <rects>
        <_>
          12 14 2 4 -1.</_>
        <_>
          12 16 2 2 2.</_></rects>
      <tilted>0</tilted></_>
    <_>
      <rects>
        <_>
          12 14 3 2 -1.</_>
        <_>
          12 15 3 1 2.</_></rects>
      <tilted>0</tilted></_>
    <_>
      <rects>
        <_>
          12 14 4 2 -1.</_>
        <_>
          12 15 4 1 2.</_></rects>
      <tilted>0</tilted></_>
    <_>
      <rects>
        <_>
          12 15 1 4 -1.</_>
        <_>
          12 17 1 2 2.</_></rects>
      <tilted>0</tilted></_>
    <_>
      <rects>
        <_>
          12 15 2 2 -1.</_>
        <_>
          12 16 2 1 2.</_></rects>
      <tilted>0</tilted></_>
    <_>
      <rects>
        <_>
          12 16 1 2 -1.</_>
        <_>
          12 17 1 1 2.</_></rects>
      <tilted>0</tilted></_>
    <_>
      <rects>
        <_>
          12 16 2 2 -1.</_>
        <_>
          12 17 2 1 2.</_></rects>
      <tilted>0</tilted></_>
    <_>
      <rects>
        <_>
          12 17 1 2 -1.</_>
        <_>
          12 18 1 1 2.</_></rects>
      <tilted>0</tilted></_>
    <_>
      <rects>
        <_>
          13 2 6 5 -1.</_>
        <_>
          16 2 3 5 2.</_></rects>
      <tilted>0</tilted></_>
    <_>
      <rects>
        <_>
          13 5 4 8 -1.</_>
        <_>
          13 5 2 4 2.</_>
        <_>
          15 9 2 4 2.</_></rects>
      <tilted>0</tilted></_>
    <_>
      <rects>
        <_>
          13 5 4 6 -1.</_>
        <_>
          15 5 2 6 2.</_></rects>
      <tilted>0</tilted></_>
    <_>
      <rects>
        <_>
          13 5 4 6 -1.</_>
        <_>
          13 8 4 3 2.</_></rects>
      <tilted>0</tilted></_>
    <_>
      <rects>
        <_>
          13 6 1 3 -1.</_>
        <_>
          13 7 1 1 3.</_></rects>
      <tilted>0</tilted></_>
    <_>
      <rects>
        <_>
          13 6 1 6 -1.</_>
        <_>
          13 9 1 3 2.</_></rects>
      <tilted>0</tilted></_>
    <_>
      <rects>
        <_>
          13 6 2 6 -1.</_>
        <_>
          13 6 1 3 2.</_>
        <_>
          14 9 1 3 2.</_></rects>
      <tilted>0</tilted></_>
    <_>
      <rects>
        <_>
          13 6 3 6 -1.</_>
        <_>
          14 6 1 6 3.</_></rects>
      <tilted>0</tilted></_>
    <_>
      <rects>
        <_>
          13 6 4 3 -1.</_>
        <_>
          13 7 4 1 3.</_></rects>
      <tilted>0</tilted></_>
    <_>
      <rects>
        <_>
          13 7 1 3 -1.</_>
        <_>
          13 8 1 1 3.</_></rects>
      <tilted>0</tilted></_>
    <_>
      <rects>
        <_>
          13 8 2 6 -1.</_>
        <_>
          13 10 2 2 3.</_></rects>
      <tilted>0</tilted></_>
    <_>
      <rects>
        <_>
          13 8 4 5 -1.</_>
        <_>
          15 8 2 5 2.</_></rects>
      <tilted>0</tilted></_>
    <_>
      <rects>
        <_>
          13 9 2 6 -1.</_>
        <_>
          13 11 2 2 3.</_></rects>
      <tilted>0</tilted></_>
    <_>
      <rects>
        <_>
          13 10 4 2 -1.</_>
        <_>
          15 10 2 2 2.</_></rects>
      <tilted>0</tilted></_>
    <_>
      <rects>
        <_>
          13 13 4 2 -1.</_>
        <_>
          15 13 2 2 2.</_></rects>
      <tilted>0</tilted></_>
    <_>
      <rects>
        <_>
          13 13 2 4 -1.</_>
        <_>
          13 15 2 2 2.</_></rects>
      <tilted>0</tilted></_>
    <_>
      <rects>
        <_>
          13 14 1 4 -1.</_>
        <_>
          13 16 1 2 2.</_></rects>
      <tilted>0</tilted></_>
    <_>
      <rects>
        <_>
          13 14 4 1 -1.</_>
        <_>
          15 14 2 1 2.</_></rects>
      <tilted>0</tilted></_>
    <_>
      <rects>
        <_>
          13 14 2 2 -1.</_>
        <_>
          13 15 2 1 2.</_></rects>
      <tilted>0</tilted></_>
    <_>
      <rects>
        <_>
          13 14 4 3 -1.</_>
        <_>
          13 15 4 1 3.</_></rects>
      <tilted>0</tilted></_>
    <_>
      <rects>
        <_>
          13 15 1 2 -1.</_>
        <_>
          13 16 1 1 2.</_></rects>
      <tilted>0</tilted></_>
    <_>
      <rects>
        <_>
          13 15 2 4 -1.</_>
        <_>
          13 17 2 2 2.</_></rects>
      <tilted>0</tilted></_>
    <_>
      <rects>
        <_>
          13 15 3 4 -1.</_>
        <_>
          13 17 3 2 2.</_></rects>
      <tilted>0</tilted></_>
    <_>
      <rects>
        <_>
          14 5 1 10 -1.</_>
        <_>
          14 10 1 5 2.</_></rects>
      <tilted>0</tilted></_>
    <_>
      <rects>
        <_>
          14 5 3 15 -1.</_>
        <_>
          14 10 3 5 3.</_></rects>
      <tilted>0</tilted></_>
    <_>
      <rects>
        <_>
          14 6 1 3 -1.</_>
        <_>
          14 7 1 1 3.</_></rects>
      <tilted>0</tilted></_>
    <_>
      <rects>
        <_>
          14 6 2 10 -1.</_>
        <_>
          14 11 2 5 2.</_></rects>
      <tilted>0</tilted></_>
    <_>
      <rects>
        <_>
          14 6 3 12 -1.</_>
        <_>
          14 10 3 4 3.</_></rects>
      <tilted>0</tilted></_>
    <_>
      <rects>
        <_>
          14 7 6 7 -1.</_>
        <_>
          16 7 2 7 3.</_></rects>
      <tilted>0</tilted></_>
    <_>
      <rects>
        <_>
          14 8 4 6 -1.</_>
        <_>
          16 8 2 6 2.</_></rects>
      <tilted>0</tilted></_>
    <_>
      <rects>
        <_>
          14 10 1 3 -1.</_>
        <_>
          14 11 1 1 3.</_></rects>
      <tilted>0</tilted></_>
    <_>
      <rects>
        <_>
          14 12 2 3 -1.</_>
        <_>
          14 13 2 1 3.</_></rects>
      <tilted>0</tilted></_>
    <_>
      <rects>
        <_>
          14 13 4 1 -1.</_>
        <_>
          16 13 2 1 2.</_></rects>
      <tilted>0</tilted></_>
    <_>
      <rects>
        <_>
          14 14 1 6 -1.</_>
        <_>
          14 17 1 3 2.</_></rects>
      <tilted>0</tilted></_>
    <_>
      <rects>
        <_>
          14 14 4 1 -1.</_>
        <_>
          16 14 2 1 2.</_></rects>
      <tilted>0</tilted></_>
    <_>
      <rects>
        <_>
          14 15 1 4 -1.</_>
        <_>
          14 17 1 2 2.</_></rects>
      <tilted>0</tilted></_>
    <_>
      <rects>
        <_>
          15 7 1 3 -1.</_>
        <_>
          15 8 1 1 3.</_></rects>
      <tilted>0</tilted></_>
    <_>
      <rects>
        <_>
          15 7 2 4 -1.</_>
        <_>
          15 7 1 2 2.</_>
        <_>
          16 9 1 2 2.</_></rects>
      <tilted>0</tilted></_>
    <_>
      <rects>
        <_>
          15 7 2 3 -1.</_>
        <_>
          16 7 1 3 2.</_></rects>
      <tilted>0</tilted></_>
    <_>
      <rects>
        <_>
          15 7 3 3 -1.</_>
        <_>
          15 8 3 1 3.</_></rects>
      <tilted>0</tilted></_>
    <_>
      <rects>
        <_>
          15 8 1 6 -1.</_>
        <_>
          15 10 1 2 3.</_></rects>
      <tilted>0</tilted></_>
    <_>
      <rects>
        <_>
          15 8 3 4 -1.</_>
        <_>
          16 8 1 4 3.</_></rects>
      <tilted>0</tilted></_>
    <_>
      <rects>
        <_>
          15 8 2 3 -1.</_>
        <_>
          15 9 2 1 3.</_></rects>
      <tilted>0</tilted></_>
    <_>
      <rects>
        <_>
          15 8 2 6 -1.</_>
        <_>
          15 10 2 2 3.</_></rects>
      <tilted>0</tilted></_>
    <_>
      <rects>
        <_>
          15 8 3 3 -1.</_>
        <_>
          15 9 3 1 3.</_></rects>
      <tilted>0</tilted></_>
    <_>
      <rects>
        <_>
          15 9 2 2 -1.</_>
        <_>
          15 10 2 1 2.</_></rects>
      <tilted>0</tilted></_>
    <_>
      <rects>
        <_>
          15 9 4 8 -1.</_>
        <_>
          17 9 2 8 2.</_></rects>
      <tilted>0</tilted></_>
    <_>
      <rects>
        <_>
          15 9 3 6 -1.</_>
        <_>
          15 12 3 3 2.</_></rects>
      <tilted>0</tilted></_>
    <_>
      <rects>
        <_>
          15 10 2 3 -1.</_>
        <_>
          16 10 1 3 2.</_></rects>
      <tilted>0</tilted></_>
    <_>
      <rects>
        <_>
          15 10 2 3 -1.</_>
        <_>
          15 11 2 1 3.</_></rects>
      <tilted>0</tilted></_>
    <_>
      <rects>
        <_>
          15 11 2 3 -1.</_>
        <_>
          16 11 1 3 2.</_></rects>
      <tilted>0</tilted></_>
    <_>
      <rects>
        <_>
          15 11 2 3 -1.</_>
        <_>
          15 12 2 1 3.</_></rects>
      <tilted>0</tilted></_>
    <_>
      <rects>
        <_>
          15 11 4 3 -1.</_>
        <_>
          17 11 2 3 2.</_></rects>
      <tilted>0</tilted></_>
    <_>
      <rects>
        <_>
          15 11 3 4 -1.</_>
        <_>
          15 13 3 2 2.</_></rects>
      <tilted>0</tilted></_>
    <_>
      <rects>
        <_>
          15 12 4 2 -1.</_>
        <_>
          17 12 2 2 2.</_></rects>
      <tilted>0</tilted></_>
    <_>
      <rects>
        <_>
          15 12 3 3 -1.</_>
        <_>
          15 13 3 1 3.</_></rects>
      <tilted>0</tilted></_>
    <_>
      <rects>
        <_>
          15 14 4 1 -1.</_>
        <_>
          17 14 2 1 2.</_></rects>
      <tilted>0</tilted></_>
    <_>
      <rects>
        <_>
          16 6 2 6 -1.</_>
        <_>
          16 6 1 3 2.</_>
        <_>
          17 9 1 3 2.</_></rects>
      <tilted>0</tilted></_>
    <_>
      <rects>
        <_>
          16 6 2 8 -1.</_>
        <_>
          17 6 1 8 2.</_></rects>
      <tilted>0</tilted></_>
    <_>
      <rects>
        <_>
          16 6 2 3 -1.</_>
        <_>
          16 7 2 1 3.</_></rects>
      <tilted>0</tilted></_>
    <_>
      <rects>
        <_>
          16 6 4 9 -1.</_>
        <_>
          18 6 2 9 2.</_></rects>
      <tilted>0</tilted></_>
    <_>
      <rects>
        <_>
          16 7 2 2 -1.</_>
        <_>
          17 7 1 2 2.</_></rects>
      <tilted>0</tilted></_>
    <_>
      <rects>
        <_>
          16 7 4 11 -1.</_>
        <_>
          18 7 2 11 2.</_></rects>
      <tilted>0</tilted></_>
    <_>
      <rects>
        <_>
          16 8 2 3 -1.</_>
        <_>
          16 9 2 1 3.</_></rects>
      <tilted>0</tilted></_>
    <_>
      <rects>
        <_>
          16 8 3 6 -1.</_>
        <_>
          16 10 3 2 3.</_></rects>
      <tilted>0</tilted></_>
    <_>
      <rects>
        <_>
          16 9 1 3 -1.</_>
        <_>
          16 10 1 1 3.</_></rects>
      <tilted>0</tilted></_>
    <_>
      <rects>
        <_>
          16 9 2 3 -1.</_>
        <_>
          17 9 1 3 2.</_></rects>
      <tilted>0</tilted></_>
    <_>
      <rects>
        <_>
          16 9 2 4 -1.</_>
        <_>
          17 9 1 4 2.</_></rects>
      <tilted>0</tilted></_>
    <_>
      <rects>
        <_>
          16 10 2 2 -1.</_>
        <_>
          17 10 1 2 2.</_></rects>
      <tilted>0</tilted></_>
    <_>
      <rects>
        <_>
          16 10 2 2 -1.</_>
        <_>
          16 11 2 1 2.</_></rects>
      <tilted>0</tilted></_>
    <_>
      <rects>
        <_>
          16 11 2 3 -1.</_>
        <_>
          17 11 1 3 2.</_></rects>
      <tilted>0</tilted></_>
    <_>
      <rects>
        <_>
          17 7 2 8 -1.</_>
        <_>
          17 7 1 4 2.</_>
        <_>
          18 11 1 4 2.</_></rects>
      <tilted>0</tilted></_>
    <_>
      <rects>
        <_>
          17 8 2 5 -1.</_>
        <_>
          18 8 1 5 2.</_></rects>
      <tilted>0</tilted></_>
    <_>
      <rects>
        <_>
          17 11 1 3 -1.</_>
        <_>
          17 12 1 1 3.</_></rects>
      <tilted>0</tilted></_>
    <_>
      <rects>
        <_>
          17 11 2 2 -1.</_>
        <_>
          18 11 1 2 2.</_></rects>
      <tilted>0</tilted></_>
    <_>
      <rects>
        <_>
          17 11 3 3 -1.</_>
        <_>
          18 11 1 3 3.</_></rects>
      <tilted>0</tilted></_>
    <_>
      <rects>
        <_>
          17 12 2 1 -1.</_>
        <_>
          18 12 1 1 2.</_></rects>
      <tilted>0</tilted></_>
    <_>
      <rects>
        <_>
          18 5 2 10 -1.</_>
        <_>
          18 5 1 5 2.</_>
        <_>
          19 10 1 5 2.</_></rects>
      <tilted>0</tilted></_>
    <_>
      <rects>
        <_>
          18 6 2 8 -1.</_>
        <_>
          18 6 1 4 2.</_>
        <_>
          19 10 1 4 2.</_></rects>
      <tilted>0</tilted></_>
    <_>
      <rects>
        <_>
          18 11 2 4 -1.</_>
        <_>
          19 11 1 4 2.</_></rects>
      <tilted>0</tilted></_></features></cascade>
</opencv_storage>
